0.15743555072078536,-0.71868885932167637,0.091276926705587694,-0.69516042298095837,-0.57270926478217721,-0.40642688479075562,-0.96552430636745401,0.63889973804021394,0.41669819836330108,-0.7609249121492514,-0.12113452469338437,0.70202909299114913,-0.61904445681518361,0.73002864706142034,0.63364577320634397,-0.33551634105478789,-0.42331150419192709,-0.42539114140753187,0.54175238426159877,-0.58930399305428338,-0.69209475463854164,-0.78828047101086429,-0.92720456459216294,-0.8071169473491129,-0.87227147068309352
0.17854724318301365,-0.96088582640766351,-0.85087159558664216,-0.44841191844711986,-0.33785286784197677,-0.72296709954010041,-0.33438251569027672,-0.35472551992778562,0.34178440710178248,0.43995797449545365,0.6335841012910417,-0.27111163398604488,-0.51342586843890059,0.3337079186400958,0.5834457254278691,-0.46916380231161231,0.94473100440831437,-0.0071340606986906733,-0.51403640285096619,-0.87731126457171626,-0.10220873651027025,0.52683524161345963,-0.53164226120746361,-0.005744558397239752,-0.26093328624673257
0.26569089640760463,0.710616788578048,0.94792018128365874,-0.82997365253791355,0.55084262337452272,0.50728081827697247,-0.77659947991567191,-0.90509312212296333,-0.17677049563892169,-0.73650978585871785,-0.28655415265105294,0.068206543181048199,0.15115421244372637,-0.34288035659775495,-0.69850728407007567,0.64300403737796619,0.042077104177933193,-0.13769142853759592,-0.92948374134347411,-0.4212259190218457,0.57673439083040301,0.42159026345621065,0.69142181041845119,-0.5571837904188599,0.96926800785404044
0.37050602131237592,0.7714419416046443,-0.027165163331474118,-0.46199496470619905,0.84692666214162748,0.38005960827930768,-0.26688200847554783,-0.49649120513251072,-0.43045749884949691,-0.82616875115515331,0.18742823979052919,0.066774968651409444,0.029536821068180084,0.85312595651855549,0.32493561093056411,-0.30445535635723536,0.27560855657046468,0.68679045348675527,-0.32147580753247607,-0.460265576844263,0.43438231871378263,0.015138232511390508,-0.22778414284700435,0.07815953025314815,0.77330678041753131
-0.33448614396525223,0.29152288515578595,-0.58463641757959006,-0.6236389549506316,-0.57105826062673659,0.5095271297093501,-0.36258988414401644,-0.56334831436813926,-0.47815002868079576,0.98623157351305135,0.46516493324066605,-0.62933824853357234,-0.23756513521652878,0.64711236569523833,-0.89570789637526493,-0.32388500789405811,-0.14904775218212049,0.77302020403228833,0.15006772522553607,0.81961650206023096,-0.2986592749371636,-0.40383490704746089,-0.76105630000134039,-0.2735875572288684,-0.83894180443690314
0.28672649076569684,-0.56017408537866864,-0.50570026531299139,0.42095367057239735,0.76026091378093463,-0.91117688169603317,-0.77177498807771339,-0.10880465506707103,-0.067357029933438992,-0.30322048106735794,-0.50505841013250108,-0.85082111157673723,-0.084479728035092724,-0.77895370403132469,-0.59910091258468345,-0.60392482804833347,0.31841026799754152,-0.81931854842932073,-0.30930370972581195,0.12342741253802951,0.083544308038658213,-0.46689404411516505,-0.094280366164906954,0.9983681139005385,-0.57560271881365066
0.16626359851898645,0.6567975456899553,0.84299693649675633,0.92733085547301497,-0.74301525268788704,-0.75387294201794686,-0.0068753945864631618,0.75782630513844607,-0.54968861336086927,0.91742335921508988,-0.2610479936172686,0.2684664279772806,-0.77353460529404416,0.4820083863309611,0.77646560595423386,-0.41586950733608996,-0.10824392049356354,0.80129291120007051,0.14766748865316198,-0.24957072988091786,0.3985504283252469,0.0085896155975402101,0.91769555713033024,0.46004738432545533,0.07535652222644855
-0.036131094791063884,-0.88039883548675257,0.30599942843281447,0.87214545007965705,0.015028376071674491,-0.082074747633490264,-0.36322476459536707,0.86439450062664636,-0.19248266598448277,-0.85419417227107397,-0.53628875228332884,-0.071297137042264258,0.45334200041799799,-0.50013923199878696,0.88815617998918139,-0.49457363851854547,-0.42620591932522028,0.27854615006620065,0.88912157085456778,-0.69923069016616191,-0.33182630964622922,-0.27596629144308443,0.16316545403553917,-0.7582728621708823,-0.59435778189148636
0.071505180448405883,0.48578502232289339,0.81598376074405521,-0.22442853036683694,-0.10460434732514999,0.74415486400948139,0.1933949419832077,-0.066938396323878852,-0.86904078097897308,-0.28423360571633688,0.27337374401361642,0.65580090271662594,-0.88793349206959549,0.55774060519869106,-0.97278540605354979,-0.22143568906743133,-0.53056302939013744,0.56303490060040162,-0.30431603632487658,-0.66897602208433782,-0.34834299943726749,0.14315608995375101,0.73166763159603665,-0.164919658388458,-0.071315387743256131
0.10127527825497189,0.47931853611943998,0.019257860288798046,0.43341126653895079,-0.32487303546887875,-0.58337681206332404,0.85509377390383268,-0.31276594070288088,-0.60879768744603269,0.273635903303659,0.80038408662248683,-0.91090559859530096,-0.71798843896863485,0.82037728420530043,-0.41077688296973153,-0.57353937846067571,-0.014063523501994957,-0.96726134909445549,0.040207923085713762,-0.1864973760015684,-0.77232385378169111,0.35307944146315567,0.35250012243375944,-0.001811841180679341,0.79865981969086397
0.84382002921475696,-0.22967963569579586,-0.58733510096561414,0.79277889081785591,-0.16556280472077217,-0.5244240047587696,0.76273326726658175,0.3239085277812182,0.38738478218478978,0.17891986271861046,0.83792047573368333,0.064134221072898498,0.30511785639010885,0.8918261516311542,0.11953459521061083,0.86730637268264688,0.62653391955063797,-0.015575208560468838,0.7988155847280487,0.91493375781484787,0.97864399186007911,0.63501150242059623,-0.68966875865217303,0.5187568449520821,0.44025726383480634
-0.55195941319079111,-0.42360073797839315,0.99995873756226628,0.527589671472115,0.75902963624297248,-0.58047686920391384,0.47601631722085264,-0.71611230167699058,0.62114100826895646,0.94345086500602127,0.25467661924690232,0.65571114001588082,-0.50187620874478334,0.10161363913830608,-0.47777256390988798,-0.7266713221814538,-0.74120270864628779,0.4221966109033361,-0.49786132369135566,0.75603048242447146,0.5792599786915299,0.70949221798774864,0.51426559921359771,0.18103761781694905,0.71198202669171995
0.61432291974549447,0.21412796088543301,0.1728787264279997,0.38762803247476141,0.93647737098570971,-0.10314354465656053,-0.094778024611927664,0.32201272368551909,0.49222115114712844,-0.18064271651400018,-0.70564175562911813,0.799389215273548,0.37859275640528528,-0.40873447329565099,0.39461790147846437,0.68053897793588103,-0.17296862486379991,0.37876995980307998,0.87772231304451864,0.12481716318212575,-0.40178000525885843,-0.49531180513381229,-0.64456589759970662,0.7180894957278137,0.21763288683034651
-0.011191515813495513,0.50066987222673165,0.53536374755542393,0.22637493287689414,-0.45186193063239499,0.22686165428243935,0.010264115210022623,0.39143272711937033,0.047502383679982378,0.38288809489377723,-0.94863854440261208,0.77834869369076598,-0.738705622404627,-0.75864650560028979,0.19718337355181445,0.68213784451855008,-0.97243644416563113,0.76976572588317138,0.51402324025231139,-0.76305131889578126,-0.091502677261258741,-0.53279670848529925,-0.79952149034711406,-0.7189293028670372,-0.72575753596008041
-0.3506581583356172,-0.13113268176422876,-0.29102813036391367,-0.39416227135620208,-0.6498288121165775,0.60730797272995762,0.70073644132621593,-0.097568811102406963,-0.11076123421689604,-0.88090165550882105,0.94319429319437675,-0.11615038189028788,0.010873306112581312,0.28828832048738173,0.13399469228430186,0.31444127437298647,0.85488648307505721,0.43978862362588578,-0.28188117041583277,-0.43961935578097677,-0.28251659786142508,0.99919611178723144,0.42280402722729221,-0.7720943039720674,0.85704782062128193
0.82809803494084167,0.07547884118513766,-0.22144553761494637,0.22063093746563517,0.006066748087712244,-0.28623700393460599,0.59082077097194807,-0.71677574532254162,0.37922534838405997,-0.24496027039794172,0.63387547440985714,-0.99809744001958134,0.039439918433700101,-0.38945300843569386,-0.061903731520838036,-0.39960009961237586,-0.16163988043422844,-0.87324436537764583,0.51858764477602748,-0.43622858175130924,-0.68609145890468959,-0.59378615444961758,-0.58009518806199589,0.5322713957453795,0.15126807404588588
-0.87620784771697124,0.65410035718195148,0.99798094294368433,-0.54880581903531422,-0.39647823415594136,0.83712515140057642,0.4764958251686886,-0.59801500407867692,-0.29471062292149319,-0.42085195257944052,-0.95967621572249195,-0.75549925822426267,0.33554986868003961,-0.91347821565876297,-0.10276619619664019,-0.62610567233328196,0.15067189882308901,0.61142435602337486,0.69293908089615264,-0.5473389488977789,-0.12308202542888626,0.80072647037540656,0.69726179233950225,-0.7975015311632658,-0.51543817793009472
0.88239151956431749,0.97059031494831882,0.36382180971423089,-0.81083673935176326,0.73667009999739419,-0.17529493064454343,0.61625622510280775,0.41966108664166041,0.52434052583140411,-0.70025572817746362,-0.21216479138366662,0.83433069496245549,-0.18714163669208697,0.063292699298554592,-0.81990645522906813,0.77781757758689907,-0.74357060145032294,0.44068224373849885,0.58240233549719789,-0.68654818001495155,-0.32798961486734918,0.45038177909275789,-0.51694103096819044,0.47536361722007325,-0.91578338096285716
0.36254957893948764,0.44887853540769335,0.19657350605863233,0.41956139486423177,-0.15563276540181339,0.26369894150882112,0.032524129122711763,-0.49383899423422878,0.50558427861411481,0.038023556941481754,0.89583174647838337,0.89493283930982426,-0.69565612222623385,0.80563510927537774,-0.97356163032044818,-0.31430081297184975,-0.79953809985320401,-0.84730363489900551,0.49537954847449206,-0.69931917166796176,0.75502933016256213,-0.19221740057146955,-0.75208346875646148,0.8355749238904968,-0.10957745741138118
-0.41203909076251244,-0.39223441903014294,-0.3033889128563696,-0.3003356774540199,-0.95217579699621324,-0.32124060737199051,-0.55294340627169569,0.47532332458281495,0.79379503450118116,0.19513394839479423,-0.2358068696170228,0.87871090716994449,-0.082741645154647728,-0.68630115416241566,0.062435996574374847,0.77723903105492842,-0.14782869501801935,-0.37775350526103085,-0.16286314502786631,-0.14665294553286953,-0.2939900209919144,-0.13175067475832331,0.92622739947443455,0.7350654666477814,-0.97936824366935049
-0.37519806940521183,-0.37556411036918685,-0.98004341131075701,-0.70615828650173573,0.98557472598156159,0.46394471006727173,0.20153337414102895,-0.17879014810573265,-0.16453784452642484,0.42348276906329224,-0.1481430565129343,0.14388178554354303,0.86304641492338108,-0.47961076859386115,0.6768870845455327,0.08589941666803165,-0.58032685353949875,-0.72653098634690982,0.24571222098211287,0.69546855128047325,-0.50536555232513714,0.81254388753238138,0.25543764215684694,-0.08768202902655808,-0.87031847117120475
0.74662792722463334,-0.14322541271114766,-0.65114368832191116,-0.5724110928605699,0.40872885871005105,-0.7453855364603662,-0.94213426425021074,0.013637840079785952,-0.83898472286039139,-0.70349584232174833,-0.76095519505388964,-0.76038403278132771,0.0073959760317725632,0.69140171665611605,-0.88008697831080263,-0.88190429591468134,0.54728920395247826,-0.88953171075932969,-0.054068869229452997,-0.675719982921416,-0.87233608375241856,-0.53468838215897774,-0.62803140146966818,0.4629283526850003,0.36318544399571123
-0.45549006203091769,-0.028670546617789273,-0.32288374717261575,0.11089625293533872,0.73077390837236267,0.64317241110315437,-0.5066146654325574,-0.11397754579698668,0.62937294513560771,-0.76705541069601757,0.35649615896147291,-0.053833662374707325,-0.023949297613083599,0.30583758386219245,0.49015210406751453,0.44362519849971765,0.31315108591848456,0.33462572629967602,-0.78129187900509389,-0.91947718944246393,-0.13172371347885861,0.047340586269974019,-0.49224190496348585,0.17965879270431828,-0.46861493827030432
-0.16790694227004083,0.73633768380376918,0.078664204075661742,-0.061233729062609842,0.83264527945135758,-0.0099832752538486572,-0.032498857221103294,0.53638200113224521,-0.6954390308209023,0.77573511335256029,-0.5786142843807669,0.66453494667705226,-0.70994616004206745,0.17342674004418829,1.0021365259626402,-0.095818674076066271,-0.67132689557293468,-0.88494980233540355,0.57066756299362975,-0.2388751220959085,0.12008223571451106,0.50674403550446623,0.78270737461893469,-0.5161045008117531,-0.66725043764320857
0.71758829241361199,0.91842876906792525,0.14865553553541849,0.8808643088408773,1.0186831140627179,-0.048325513428886323,0.55854345741027167,-0.26582715522578687,0.41254832565353494,-0.50595582447345055,-0.2500418505673549,0.79617581128494952,0.36999926589701282,0.84385083111223769,0.2433116963565185,-0.79592151511218723,-0.42164539368773762,0.5193934280417567,0.48607866535797872,-0.58738890860468451,-0.2334050777127919,-0.4974002929265926,-0.38154040041205156,-0.7652405675953584,0.15743598972491868
-0.27461251514539342,-0.44719038874504069,0.61018654872973332,-0.94158328474833353,0.56443689550478893,-0.76432898666775717,0.54143831722009006,-0.28403157965855619,-0.24989743620882646,-0.20922905852061455,0.9121620162266213,0.13209858674396111,0.60202920724975317,0.18389091874943639,0.47638172518377353,-0.54572860834832193,-0.34791464374328596,-0.70996739153160227,0.54904883119635395,-0.9861798067623716,-0.33273391579832418,-0.42403588222142186,-0.19642697883135424,-0.006968136501522837,-0.1791885653595631
-0.93345361053811016,-0.21129820677277111,-0.62325314071139237,0.29491986167900491,0.87272654230432423,0.01445137366834618,0.59388418450933211,0.86367748686072088,-0.010429606847493517,-0.56993315358886809,-0.86795420744688079,0.11671168050878576,0.28441196853945699,0.76748691060180874,0.55492098273885526,-0.36585398954222559,0.12951421931169405,0.64808962072066811,0.465206871783789,0.9863906677813391,0.01937279665370471,0.13775161868733088,-0.96414306356466128,0.7157812577775757,-0.24063951792900784
-0.047424905698452618,0.90923542789125511,0.63264901969088627,0.75025884120842645,0.48911015724349466,0.62320786081181645,-0.72500835346382364,-0.054859567235790795,-0.7475355062362794,0.88609325283004381,-0.42616286380191382,0.27454500061688858,-0.24624037773893612,0.99827900796697877,0.59404773910307729,0.62633989300471016,-0.30117997300235466,0.1635949550685005,0.45167756921846175,0.44762013656273258,-0.23162526033416825,0.062149410166923727,-0.36645883111857208,0.8035379808257126,0.88621539490133316
-0.30825122878232375,0.67508424518436705,-0.80514185687945217,-0.47754502628612588,-0.31828988965420552,-0.059075225821352731,0.20524767231530192,0.86587585630614627,-0.45477735071693987,-0.61577461857032278,0.68120838646374449,-0.055321227176876826,-0.83692449049160822,-0.68005724209025842,0.97425446046972763,0.59019686510367619,-0.04095389817044686,-0.99001851507642535,0.39652983802876623,-0.68170523844501285,-0.89403814725790309,-0.47049854358514676,0.46752750096771539,0.5726844861607645,-0.1868476132189219
-0.20393178029001402,-0.36200568426480861,-0.89253111501233717,-0.66099999230469142,0.27538968308001682,0.061222445364498723,-0.040526488690784568,0.16819004354506734,0.75753336042922392,-0.15480818614885192,0.47629202090868539,-0.76413181820254661,-0.91949128392949553,0.99520473181184899,-0.02832433328364822,-0.46201606651679078,-0.74660695657621745,-0.48725815464151001,-0.23862335289076536,-0.59319133551730474,0.88490442015658999,0.13155144202066762,0.2715893823203232,0.3122337346826949,0.066197825951629929
-0.74456000798108257,0.93134314015154762,0.56479313093605976,0.48656154025113496,-0.25072308739749344,0.46392515117598787,0.098440538706585493,-0.88156263249912137,0.69412195796309339,-0.62279905733748964,0.66394566288399182,-0.83256112024577944,0.66257590259540677,-0.20834098947890389,-0.012244801303461129,-0.53270172980909902,-0.91289390818684546,0.55840118884850987,0.88898370691427586,0.07835951554659297,-0.58425893638124071,0.32324627462371774,-0.5477514515242774,-0.9323055684189807,0.52099959017190922
0.91257553264010638,-0.82146339450521966,-0.71794387808240734,0.55255101492827241,0.33386196378891247,0.78952637276234483,-0.23750619148174965,0.91085783981378787,0.83438303443585182,-0.76003790884577138,0.32268646772962811,0.055310542396567616,-0.41559061011058451,0.8704453592040452,-0.33004520174464524,0.80857282649990281,-0.10241508891717513,0.23325795031049767,0.25615773156614174,-0.37469693586675507,0.46147264000159849,-0.086642014875213377,0.28909257308448699,0.7099332431423167,0.76780378362978907
-0.42340203468713988,-0.98271295235879308,0.98520349486382697,-0.3969979681733396,0.035995366572989171,-0.028635161592734947,0.46793687570234638,-0.2598823177623405,0.40555926336104337,-0.87986312601612582,0.50502192955675085,0.54395644769674911,0.55130914438149425,0.41322224635843274,-0.62343072070624117,0.55601364526390573,0.52898811414219571,0.76398528740244032,-0.12657268416513967,0.0080276870387073051,0.82925562086897919,-0.36468298774891644,-0.086061396213129818,0.7137285255007084,-0.28016788119390651
0.7163800875499734,0.19396483810194273,0.079517093707810682,-0.48689079536461249,-0.9077947304813111,0.4983478840043859,-0.66098732627091439,0.46029362513974231,-0.57936114627606972,-0.080857290413700267,0.74620093825940337,-0.38289164619794014,-0.46173214282641795,0.96974666066822812,-0.89312599842641449,-0.80760727826147249,0.032930605813101095,0.6919357118925743,0.47313277753053157,-0.18930101392273038,-0.011960529786806515,0.92574462592804374,-0.70064279591919798,0.8005040367618859,0.41895145021201391
0.038508750212540785,-0.82566746048798134,0.0024125414485681022,0.54496230599042939,0.42895041739904333,0.39795149683463138,0.40076293853556144,-0.1937828211774987,-0.35539233448724866,0.66621070067316257,-0.75856843481149527,-0.39923557789868591,0.74116337001835753,0.95508024883446263,0.67520797205687921,0.2824597817442222,-0.80835777889537519,0.057580346871338471,-0.13760073348817703,-0.90361583436614978,-0.18977681089914031,-0.22367855500115214,0.00078768261916756135,-0.422982891794651,0.032587750400649498
0.076349975840392478,-0.47760050577145302,-0.18507660221782501,0.27400830867949055,0.088817751131979428,-0.73807856883722267,-0.76815960166420394,0.33532039008634734,-0.51905975647191183,-0.12731888291981261,-0.66245250074478002,0.85876686074994868,-0.56289767949720582,-0.28649146181140067,-0.28012018749828432,0.22727813045605258,-0.75590409820428417,-0.66408354215032794,0.60081655464600547,0.85019010777543724,-0.95184403154759767,0.54200380801482129,-0.92739430804970757,0.21906712260314043,0.66437130903926855
0.68075494966291006,-0.53499471626308925,0.35972148389311409,-0.019443133233244782,0.59836890412019383,-0.71300088023440478,0.93816567467681677,-0.4589108508796893,-0.5247610659016404,-0.1792958054754713,0.76742234949216181,-0.82086482557933549,0.40471249109084345,-0.58396204175719713,0.46554535946929015,0.90916977456915671,-0.36023637574579986,-0.65733981958154908,-0.95262698384211231,-0.84551116140312987,-0.80865686728990427,0.26599045976840402,0.92788315629176188,0.5184343143355608,0.19774818944700895
0.1753641073170423,-0.51803843137592753,-0.76664736818250945,0.35119773530697956,0.62633075574305463,-0.70684365303774821,-0.98091073712205346,0.42874427918919944,0.93569904986719687,-0.91407671791249501,-0.25862968585164342,0.87887457030193239,-0.13281996001380736,0.36335768622780756,-0.021916046225270075,0.90126124881791514,0.23107782174650415,-0.93382712118100264,0.037085090273959606,0.96519608226176279,0.0013450402584366593,0.55912904282089437,0.64020515487352458,0.519532151719446,0.48370418276619964
0.034428425970164551,0.61341236419199907,0.83078327969591803,0.063392783816686088,0.50199623157296847,-0.0089460110812977275,-0.82038303726093864,-0.069171160183046365,-0.51476969913857207,-0.55162676235130925,-0.96946801510305569,-0.92500201357732925,-0.14182238051919477,0.8546255016507831,-0.13474798673280872,0.58078150326395739,-0.53300715100034057,-0.40985676163748808,0.042927393068186159,0.50666555468339625,0.20366080437568732,0.87523141865441456,0.1475451597889387,0.8062925396217149,0.23279201572370239
-0.2510860275760245,0.14926839866010835,0.65558525541218504,0.92953930362448356,-0.86976765467119777,0.27648369991522587,0.82019001080947707,-0.1997384907029659,-0.54295981170685093,0.56119132739659561,-0.41325426481673816,-0.86322084698803203,-0.5112375120572773,-0.17334658720864501,0.88302769768451406,0.30294881913978572,0.36917771180686881,0.97429771956073985,-0.67007968662703576,0.41554823186985573,-0.61642677891588193,-0.2277175052390796,-0.3403590435928926,-0.9907130051758706,0.1774935947799334
0.36073577647102278,-0.37812298448740478,0.054021975867207327,0.89602344208332119,0.48511496255632564,0.73203414162606262,-0.0087956060441018499,0.83065564244751622,-0.8314931316415537,0.7724527140064299,0.39658041270369343,-0.58512836017881276,0.42685191194628463,-0.71773928807035037,-0.46962249943532547,-0.19918610895173,-0.88850178493103549,0.92622429252728911,-0.290923932532412,0.91044141284458191,0.31303186980668563,-0.60212290457494388,-0.51574479388673011,0.16576855261418943,0.062829384497444934
0.23420731110341944,0.16268624094403394,-0.31531280558725139,0.046289281318318082,0.6623293053027689,-0.45282464551862811,-0.94752817627413455,0.95435679685763042,-0.81194826376187323,0.87085747152464288,-0.56049698337183251,0.34044828816009826,-0.654363684893006,0.76706669850851161,0.94350783929653148,-0.15319804040961382,0.60652843303747461,-0.15103905686863292,0.70576701967470767,-0.48738431582595471,-0.50625828642458715,-0.96552615442643397,-0.80506673411998531,0.3818935814326956,-0.66485191663525545
-0.37597779193439435,0.73534755849435163,-0.098970728290784946,0.30043819012586043,0.028397681851661902,-0.18345574584250371,-0.17898361968016907,-0.60350954915195598,-0.11769522226292024,0.099289917984687864,0.61379931566510115,0.091040755462315465,0.60007611622045254,0.11326558319529695,-0.84029744047617594,0.06611142356873323,0.78685668553998411,0.77113807335170925,-0.98134071562574698,0.065878721288949477,-0.98443435000358503,-0.28029456713408918,-0.26672166877590647,0.9279224078207009,-0.00077981323335538858
0.128072957861572,0.27493385462461911,-0.049045943002166872,0.12827073156160859,0.26863350289553412,-0.40223893384732129,0.67926151102943066,0.24365731032822716,0.57376028824947312,0.74580369750873554,-0.34425471753484405,-0.030776732722475077,0.49709932784757427,0.87623349426626884,0.18735597831295303,0.72078959415884247,-0.3579246909598458,0.43100207463513396,0.39486628041414551,0.39490448895432512,0.4584285108461475,0.26606287011238827,-0.50835844630757676,-0.07470559456498949,-0.43299131706388694
0.50263857314704341,-0.371173548252691,0.65405917307719919,0.38611140756870166,-0.34745851185722587,-0.48758590478398756,-0.37090167625377857,-0.10621981285896262,0.26781305618741241,-0.062282368560637805,-0.37019910751201907,-0.98479601375077608,0.539440248780507,-0.049639136995139624,-0.56377259354318221,0.08024817198770362,-0.3747342938812912,0.33428435338058199,-0.8473427359261404,0.040336032055830882,0.43317564054371321,0.8339902746187644,-0.64715392864171351,0.38629253938878083,0.26101634032694132
0.29208815328972498,-0.88427353991547941,0.17591919074221582,0.05321843909997722,0.48174055547534256,0.68021478468442054,-0.95116149779343706,0.70902335531482552,-0.28981535312302831,0.57452717831541755,0.40264649995667517,0.774726723489367,0.39639688766163678,0.97652575465587599,0.011010468830737762,0.16258861078123532,0.51720295325351551,-0.38482487659729292,0.86614910597605055,0.71858545697252008,-0.55859668683615937,-0.57948329683843269,-0.60878946561200131,-0.662498557623546,0.16223844457719047
-0.18852818936799443,-0.74455356332218448,0.85016846979722216,-0.51200793229312391,0.69926816198268726,0.34130343594276585,0.95378045969732717,0.81246423956951719,-0.41968826550973348,-0.9046634163899514,-0.77711426814167028,-0.32913266993701407,0.83725470035928717,0.081674821302383807,0.25444050943768465,-0.48325607891049804,-0.33360679576200747,-0.10620808767703853,0.15293078808970287,-0.031692908593732388,0.30821226167384452,0.60219765136711889,0.72898816259749477,-0.4604293091481999,0.62215362241313721
-0.38171962924223768,0.35654680721013976,0.68400237196219571,0.51600046368459462,-0.53023293150177131,0.49283920692821287,0.080608591045969569,-0.99616089414385112,-0.27212976430386832,0.38834342726952137,0.63681465860309561,-0.53516365390323561,-0.21198103329408591,0.65479995147827275,-0.74089682912827171,0.91179099922596807,-0.38104209501681391,0.59283760414682585,-0.34738825148088154,-0.18197589091415489,0.16414903148668619,0.33283546495440841,0.096974935311095217,-0.2918066625853788,0.19765815029860148
-0.18602910979878218,-0.45214631221891727,0.63777033406119998,0.81465233762983869,0.36008099207819333,0.33397747334302713,-0.69954604685308874,-0.7708750407624122,-0.22535423355974182,-0.13964908264339643,0.81183875494511371,0.2115400763982255,0.89753263326894162,0.58154792841124259,0.67291549044390375,0.27539611079010001,0.88985241895539546,-0.81690524647602625,0.85288872226971024,0.75225305573795243,-0.46993654383282218,-0.8723223831839606,0.94975485359641354,-0.6570849931403147,0.8485421646277258
-0.45285559952763743,-0.53602835742104327,-0.68498661820498397,0.26192810913011555,0.58988352171636271,0.03411596730615981,-0.025051903609820354,0.90214508242210756,-0.050091807070075059,0.93820153934186523,0.15682709853952201,-0.58270979028300685,0.10682838094232779,0.3986662231944636,0.95530615001980079,-0.29620096492985037,0.162242864060749,-0.54347069973969575,0.48337008262432618,0.34416417990533976,-0.38820316688104056,0.67216999482176676,-0.39419643239677471,0.12753066763165521,-0.90263272856875387
-0.63051540301722742,0.90665085895540376,0.75289421397425704,0.5411577993519463,0.9968320114902629,0.073795166115837932,0.88108753559770292,-0.27000127075187602,-0.74261860007765867,-0.64243639412409903,0.26418575738487138,0.92329799406349122,0.48967454321329995,0.029626285489699637,-0.066637285752126921,-0.51905205625933293,0.061986528688364705,0.78982066571912002,-0.49930523414945088,-0.09237857106737532,-0.030510533091066501,-0.50595334938571701,-0.59144387213638105,-0.8484709870243043,-0.24969765910741243
-0.45894952219313123,0.97101910188645169,0.56601299101122282,-0.39354893805425972,0.15066427276640781,0.51942285173301339,-0.19042008604526986,-0.089736035603344755,-0.32679547784903712,0.73617313448113031,0.77510972309248416,-0.61820317013693149,0.34258405123500169,0.65667904559027745,0.78062264531483683,-0.31066043766844659,0.64751181999823237,0.53434005188209999,-0.1675305858299968,0.7578662808444484,-0.66924934285324555,0.61970525713038604,0.36220708213296593,-0.253501053305919,-0.19885688655733574
0.081722655908697414,0.12459313138350063,-0.074990833339693683,0.64543396529721841,0.31579300028703483,-0.16697235508957192,-0.84703049355939886,0.41646400889228757,0.57336008607399491,-0.52010377506318017,-0.43858274327518471,-0.61733631334971928,-0.058539472661942975,0.35501590514102932,-0.42319169162358039,-0.82750337085980896,0.26391610569991653,0.3469673127608639,0.63536448820774172,0.49063424090421581,-0.93586212125877433,0.45614762142787263,0.20426406224108601,-0.6267746406083308,0.057909765504668476
-0.49042006737126925,0.47031071988559975,-0.10333118557237152,0.82882739240630432,-0.41186629733703778,0.73043214013606494,-0.58474359106280915,-0.40580459049575779,-0.20675314091790953,-0.24141112843655277,-0.98056949420389361,-0.65506090447022469,0.37821496424069301,-0.16117921105822292,-0.80014413644271709,0.95676952468067611,0.13442093768281316,-0.59707846548310062,-0.63772869571218793,-0.046937755863976173,-0.90349915813620363,-0.82378445569590997,0.51436125349963957,-0.512743119683821,0.52143491091258987
0.92887776436608105,-0.90377970186548273,-0.10311576105922596,-0.56837708365090511,-0.016340511217984605,0.62845709864085542,0.60928829736512435,0.72598276716976218,0.02496053071275944,-0.6048709508416048,-0.39604103456564133,0.65460020369507443,-0.17222922667475268,-0.1970269270862019,0.58973221394378883,0.30042353890632484,0.34438025329505834,-0.084955465418044038,0.34188768218696641,-0.76930960474838672,0.86665860843644815,0.84621044020001424,-0.57670603135901322,0.2847929241514102,0.26797057903251881
0.24732003742026731,0.66586708747331769,-0.72911030475766281,0.65514254044452447,0.063467348010795496,0.82450843995661494,-0.57708551879200221,-0.053661484811073697,0.29864110164234553,-0.55482202132983038,0.65510930516888177,-0.37844645613948191,0.25241714239005114,0.74237777492925894,0.62495491885784249,0.74064075450415245,-0.23351169882406747,0.32779984829780384,-0.63479081193330722,-0.071646809719684595,0.95326246694060746,0.11272194763187904,0.048897599852171715,0.3805504821680743,0.87631109433122434
0.94146681487348172,0.42051521644632861,0.019211320010971058,0.48071834869093594,-0.59956123094347824,0.76706068467550315,-0.48939744213173814,-0.13665980305734954,-0.67682572742689595,-0.61055510620534481,0.78552567050993127,-0.60938004450615724,-0.82515575543364617,-0.017639981772029516,0.47759687428114678,-0.7496338522273448,0.66719244502973063,0.05239982074809791,-0.51354049749970299,-0.67129035151724981,-0.86771274378881691,-0.099113494139221728,-0.89578363799383776,0.9764041656496552,0.019610603373440331
-0.97722389539136745,-0.97223238907493725,0.65406578313857699,0.5427156210737516,0.46887302937494263,0.71508519328656783,0.56160059190031519,-0.99079587534520686,-0.50101366218052035,-0.65762031308609203,-0.4133870044237547,-0.43869497777166416,0.038269599629757969,0.78564691320373503,0.13073226577657704,0.78823812204650034,-0.08083508562649977,0.65615101745959425,0.74538551230046801,-0.49745823590171662,-0.79721506298456379,-0.29289130077330466,-0.69723818052483988,-0.691359816198631,0.88312540513552584
-0.034263821040202314,0.5729300745945739,0.97433566342737021,0.43731646875513158,0.17153653144469028,0.95749533342791304,0.14049212237449152,0.15957579327758553,-0.33492190688545964,0.76298431402767886,-0.077389715770695672,0.44053784333815371,0.69385651598657194,-0.5667873090215011,-0.44955238554890181,-0.79977546722039439,-0.34441260424932385,0.64364341122879132,-0.98168104150116353,0.85226243172594118,-0.5117103468132036,-0.50025296482417969,-0.69101224302333075,0.15624558441112324,-0.55891932405550204
0.30117093982478771,-0.12638246725116675,0.30733438705831911,-0.40099860570099971,-0.77528901129258654,0.21278500857274807,-0.26302816371302795,-0.17105536064386148,-0.18511286858149492,0.51528482439073808,-0.1995507269361928,-0.10867268416837658,-0.90404727545289365,0.31168866402676426,0.58329388244373803,0.038154484531732549,-0.1866005031176472,-0.21724662900555305,-0.48550094679444294,0.95420917261180505,-0.56852279255775795,-0.35528800278576644,0.71293497142565054,-0.2525709507898968,0.21148586507664935
0.65432202145800256,0.44899134648421746,0.44499648442906453,0.5140102753361635,-0.84090553188942097,0.94603419450832427,0.50327850123514517,-0.51336733431655457,-0.75406242226061204,0.11892629134726883,-0.86948647216545594,-0.055527735188565769,0.98445522473859637,-0.28543029986441393,-0.13410699890137032,-0.68219199852453138,-0.52865192774367775,-0.66160607528556348,0.72455429422163631,-0.81621975151130066,0.4319863740221771,0.59285769827376067,-0.39118831969494799,0.9523256403091087,0.066005614779752045
-0.27068045878813046,0.23376549272996411,-0.48290504566200798,0.5070518136707366,0.70946858309358718,0.51315549922478709,0.12445766414762506,-0.16020455615894966,0.74521137886918398,-0.29577246332105317,-0.19701923423087109,-0.65056813591872831,-0.28969438052474261,-0.80143702463473576,-0.028986562347325131,0.25311363061326719,0.62180490677994615,0.1666308761153926,-0.58639283263317399,0.85713985469361409,-0.71378510017514252,-0.15510983340541637,0.96285801922701431,0.3169989349628022,0.95655952266803479
-0.63385286365145943,0.59231240443529476,-0.8364734540469867,-0.19314091438932215,-0.7695397887317168,0.67972444241000141,0.17175608591044197,-0.38991786309783105,-0.47328374882987778,-0.99316219197990019,-0.97258042094013797,0.58226583438953927,-0.20083733642673676,0.066702005264580908,-0.79729250107645555,0.82392579365225049,0.13996810838019402,0.67065729282454589,0.12078442657828627,0.14379064333628919,-0.6193229872106859,-0.90856933025572528,-0.94753641990425908,0.07864820210647427,0.048774137946067907
-0.48664392254812799,-0.18166002978417303,0.30062411045320325,0.57666414844700742,-0.3321939555033066,0.22097397472152802,0.46019151120739765,-0.40325173824305288,0.15386929139198449,0.97647957638146854,0.78987627379281844,0.35888048495059616,-0.81527568582231824,0.74495617862972507,-0.16255783862042597,0.81510230916971926,-0.10084967293519201,-0.84550406522156796,0.98267419739370931,-0.2995270722238832,0.91511885541834792,0.67625011748632724,0.81497170133090391,-0.24309880570568576,-0.67729776976188705
0.63142167169159025,-0.68355811795084909,-0.24190103667048829,0.81998395661401668,0.31151947087843734,0.77278538541913855,-0.72957347816617457,0.10607758573347073,-0.48970406092790669,-0.23794751359766952,0.57757822295620764,0.55738221140515709,-0.79301255181117369,-0.23025551821120968,0.30169003872319894,-0.96457364108226051,-0.96557722055184614,0.033501646874776581,0.98701597244159445,0.0079978969895104571,0.47478453630955975,0.78493624796480932,0.24621532891790268,-0.93135757965553168,0.25005468628514177,0.41013662474005469,0.29916307301608608,-0.047198479950465048,0.20224858948020696,0.39093424048700626,-0.91788727946080639,-0.96555826671568312,-0.25978748406514335,0.58115568339792645,0.79585271697756654,-0.61157022998566046,-0.0089014821062578259,0.28299210046987916,-0.5226395119796049,0.21324706200771934,0.19377607036498887,0.49775790440581713,-0.61845500840619538,-0.22123438817893074,-0.72089330339195357,0.79574581741955541,-0.51858090527075329,-0.52290425677980212,-0.32188913011882986,0.94782760431550528,0.35835602476544814,0.6515945427093115,0.96116688024480657,0.54829665656208304,-0.47502138730109089,-0.88417329813542378,0.61340190926567206,0.35777015228151871,0.516053227425053,-0.23664019229310662,0.28800345346116385,-0.91611539336180481,-0.18317821860907763,0.4111304575966151,-0.90380273448775039
0.83566809597907699,-0.8538885278812699,0.97620504166914635,0.75506015735279797,0.041311683432921131,0.12016165204582244,-0.011351138761269249,0.79001726673017514,0.055867050108907003,0.10260447588367298,-0.84767966458633104,0.87475685552585736,-0.75367194942383209,0.47817147549221151,-0.80404393210581637,0.70545445685802166,-0.69421896841616948,0.10734543843372717,-0.72607016270220459,-0.84155073284228166,0.64566864032757409,-0.40544119899811321,-0.2354440520080214,0.86062081875649166,0.78880068995640917,-0.96303706575942316,-0.13847269550030231,-0.31983105508184956,-0.10119711516995297,0.013162122344011365,0.92582814374112421,1.0003821373548281,-0.94996403241373673,0.51270913749220781,0.15058707016749032,0.63585906201385822,0.55229081150464243,-0.54621068128191186,-0.39539784296322383,-0.29596011268584449,0.18461713707053864,-0.76132622751666723,0.7232179786259082,-0.23161419868625086,0.20831645639713867,0.58689967004604149,-0.39454039864931778,-0.4563322360105922,0.22182010450085526,0.96516851636063472,-0.0035873749935955504,0.13921435631944495,0.22805929892161023,-0.43608261791879299,-0.31421518436370666,0.94050406317169211,0.59929012426729156,-0.579086773927601,-0.73809124281779137,-0.77526740627514124,-0.9634354643593358,0.43548702048305155,-0.6971373579918646,0.34946545929685768,-0.064953408571674739
-0.14173114292807362,-0.46367322875408401,-0.050123366125698406,0.43053329950536628,0.71251743023737824,0.6446424133356925,-0.1655089000056004,-0.6084647768368131,-0.77296478963119697,-0.39309310477586978,-0.029257460869098049,0.053894257038847954,-0.53237633583699084,-0.71121672946332248,-0.6895301714123695,-0.98638484837450513,0.53199855048193956,-0.38025049517803444,-0.59873127115114266,0.77806851651434694,0.82778526731000135,0.5150201589311848,-0.70074467418634556,-0.69287278563423482,0.14931141695836558,0.086835539113393576,0.64279013880791558,-0.49245807490213145,-0.70585416143373314,-0.43697753154056523,0.84271265992121103,-0.89039003456438215,-0.51835903443329967,0.93258894563761763,0.33693978264927782,-0.59539802923745155,-0.3201874006334231,0.80317573555566935,-0.70781469899693783,0.6696080706368992,-0.062673622264430545,0.041905822749140315,-1.0053880524462746,0.052727876908286828,0.4169915897723328,-0.67920321676954143,0.6518864884096609,0.15379925677227799,-0.29423540129479525,-0.23070355248703778,0.51755365833880762,0.037546377993405551,-0.52825892153845,0.91399144173085722,0.8239982497716325,0.18310505941302127,-0.13379989904452863,0.95793346954696945,-0.42266870262301864,0.1579656663145555,0.4137531493225769,-0.63704789796937644,0.26230053958902705,-0.063054265223146944,0.86862867764934537
0.55544538322383097,-0.86819155781885893,0.40811401054127011,-0.54511395078317681,0.93608381902695026,-0.40735789881195417,0.97908120633825402,0.75482962732246894,0.40670759404971613,-0.56789051708271376,-0.35039517175923041,0.8796749498204105,0.2182520473712842,0.71215748767378229,0.43293386688992563,-0.67366609621755313,-0.88404113492626091,0.38680742980884325,0.39876665642123765,-0.93223840818349391,0.44961520511905345,0.44977339243525322,0.072548989526503349,-0.56910740050473241,-0.38870489735400082,0.025205933604277,-0.4271505336974305,-0.93573077397571303,-0.58299805341639122,-0.25990179505135463,-0.10727949475847059,0.034740086054896424,0.18773825743381053,0.017279982873747202,-0.42488234077688536,-0.86881409186499903,-0.3949617536893496,-0.4627061307676042,0.53300774338057932,-0.69116672120682532,-0.26086143479068152,0.69248338698777767,-0.089593416619217159,-0.77467752346678898,-0.16162424547712603,0.071044881631483273,0.073098113396366474,-0.55472440306023885,0.82815189482783991,0.72837062599566138,-0.9460746124515681,0.11148751715577887,0.12337739923161094,-0.9179046648104382,0.70418929642351702,-0.77512031917303448,0.53619859822936822,-0.59203474845636639,-0.12698790562150464,-0.55221969637353685,-0.23093809354153272,0.056081839172527882,0.88015449067575857,0.36398968617137256,0.44129586876199911
-0.19597894125764204,-0.73960146928186588,0.18646691873659244,-0.082142056018643689,-0.16571060437325932,0.95149552820308814,-0.74333565699503534,0.19606361207788234,-0.95491115979944696,-0.28837660603873655,-0.084342620418527095,0.82192970745648242,0.85610163658149219,0.98910909764981925,0.59181712471377401,0.25653749775839063,0.01724168919566731,-0.44911055082191231,0.18220556934761875,0.053802975129943961,0.166734663763172,0.68015077819322511,0.26996844124609432,-0.073697538878422633,-0.14324942640137694,0.10005109574238359,-0.24025704796380959,-0.50650994932418125,0.26609069845169203,-0.14796906209400076,-0.43602556291773614,0.97434254582465085,-0.28547416790344604,0.98843778101398239,-0.20633180507170173,-0.66526003930769018,-0.41180751230369361,0.95425576303294435,0.82983347111779149,0.59218447241505467,-0.6111422728227961,0.30956386090236293,0.22821313959338349,0.14243892506948844,-0.70340276588347994,0.88663274061713759,-0.5328813783885743,-0.91863543391145908,-0.7807307575836494,-0.79708567518386253,0.096498270951996062,0.3104219677529913,-0.91662821208062562,0.37888232939456007,-0.27993960549207886,0.89895205424711244,0.55251364275095183,-0.028021092765005036,-0.12018263353216026,-0.75633344769630584,0.90279245107216632,-0.61587144540013594,-0.97292541229242291,-0.39875411357797458,-0.68390913725748814
0.073700759820579095,-0.23662665343816652,-0.89525945067041757,-0.96512976791368832,-0.66798022085378084,0.57118786300913482,0.77785434337828852,-0.043147976501165523,-0.7972439798492944,-0.53382453486701675,0.0088836167903027438,-0.92135353639684825,-0.17546590697402642,0.99494343143852049,-0.82912235494232267,-0.7540557623821833,0.30574357224375298,-0.66315118222192349,-0.28138998396761472,-0.052618613086226951,0.92650072892515856,0.30171767775405467,-0.5370510096409461,0.1627226951219134,-0.45225944182528294,0.092522257331877217,-0.17949896300538412,0.96137270075326309,-0.46961215190769934,0.22722897398182576,0.43730613620533265,-0.1245329883886535,-0.19527678198479886,-0.81893845632373108,0.022932226120086156,0.42390477023297768,-0.97442236535250781,-0.804180092810452,0.75447904100641039,-0.93478736080506974,0.082906085095398346,0.12507876256263809,-0.051645379989153681,0.97166809360460826,-0.0031524860987314153,-0.035385360856974288,-0.48902885859955503,0.67734135857386402,-0.97063292634483478,0.77411433961080733,-0.20404797903890029,-0.91573996743926467,0.1401619009551579,-0.40424807462550005,-0.92723534098432081,0.77616153966717472,0.019498520580237384,-0.18187727776828441,0.10210973286327228,-0.94816781327573474,0.074453947502755455,-0.92095703991198752,0.94101538109335259,0.78399040479932025,-0.090534218185188031
0.042890027002676523,0.74099736351091694,0.80968769720690958,0.9680441262764341,-0.22814375734057177,-0.13095681991863667,-0.80037486939810243,-0.58215427486719962,-0.67464159188748751,-0.7448427188850425,0.16073647574812822,-0.7342557826966446,0.76926783256099973,0.92013119026860646,-0.052986771778674148,0.10755485249822067,0.59842871302926326,-0.85446667603649773,0.71869178432497738,-0.68771572841476891,-0.45857159405031234,-0.94860318713887437,0.39319542546600056,-0.29267958357116325,-0.65246096433642364,-0.76267343944088062,0.79639650004057538,-0.8659013182393217,-0.066784166809947781,0.75862007101286089,0.41994011811064952,-0.17171714950927067,-0.55965911714051608,-0.46385266568657407,-0.25310909722702135,0.30323349874441186,-0.77253257894084781,-0.089286750863232511,0.8533064845419186,-0.59734988998081451,0.15080503621195784,-0.7964406912915919,-0.36846906942659646,0.2483094583320069,0.70970335618502778,0.77973035258135293,0.052244203748272017,0.39956227078375128,0.017761721532042581,0.27426385879005089,0.41822902588076244,0.96152328403615694,0.18732498767168637,0.84264291023215143,-0.32016831469483953,0.59858056704579932,-0.92343440744158267,0.34523929714585394,0.95110970962597352,-0.89370194027454719,-0.69410979283962382,0.35086914148649478,-0.36975546128892017,0.94297801377837343,-0.2057725392767423
0.80613910923688292,0.18922077791093314,-0.89040599636145146,-0.71122611110497458,-0.35170607046015012,-0.44343735160775677,0.62251763809271288,-0.80302286074756535,-0.61618365391775209,0.825083326994551,-0.49006355463631612,0.218383903589533,-0.36524863417417303,-0.16862456948977245,0.028840507362955788,-0.062655502936174348,-0.62436894412181376,0.63233426125563497,0.038558948284168004,-0.48490195767645305,0.41875799918047718,0.015835657058427315,0.076286842420301204,0.29644716726966769,-0.15958291917960188,-0.21866372011791707,-0.94558113466569826,0.32165007922618882,0.13866429058116242,0.73736820253301427,0.16575366511927589,0.15122465595475207,0.021944914699057766,0.93662108106694164,-0.21026184101165396,0.091578435007231368,-0.081567186991608198,-0.081374631983949675,-0.003655229039307394,-0.0077071022115781825,-0.25285727885408699,0.33635047312098493,0.87787653697083756,-0.45403337892681211,0.84035548733259857,-0.4122847951601063,-0.97079942803975827,-0.42182294686667965,-0.55820755607612382,0.67164936960600341,-0.93754046571236804,-0.39061284046011796,-0.82738650158397553,0.13787153194625529,0.75140313920167146,-0.02220518935797294,0.8704365788027727,0.6240204913488927,-0.93849401121969611,-0.5747335764420699,0.30879168978028571,0.95740483418642097,0.87691982370859911,0.1552379974104342,-0.44517774105627606
0.21654949312106123,0.70645052562579069,0.95433490516992248,0.53030379565169961,-0.10423331629744119,0.070326457421786101,0.74527836933997271,0.31732381062714426,0.64028384008613259,-0.096197107566149298,-0.24216028120110158,-0.28359725161891808,-0.32700259359294737,-0.12261644302512402,-0.43772027758682858,-0.12211108029387752,0.78264818991377472,-0.57114797948583518,-0.59439854410018633,-0.69950983964564772,-0.72959545181850904,-0.047489491656831334,0.78012007425874164,0.85273475260300791,-0.38276644350079297,0.64929526161055628,-0.84393046834606922,-0.53831967629413691,0.1716984953222751,-0.60153008287736887,0.96780412005092398,0.36787334592646087,-0.58207039955988149,-0.24149021258721318,0.56711054979423647,0.27846297139996379,-0.11946963987709833,-0.84415251622156373,0.026789272658365046,-0.3452286746312761,0.89263571860891189,-0.57371788219184239,-0.48265764790094978,-0.91104388497111033,-0.22195384620013964,-0.19993588676320018,-0.39471564783817192,-0.34182939244169303,-0.15668614230372291,0.94456401501600284,-0.93723655232054914,-0.30355847199985481,-0.9768091234358135,-0.31744492503776023,0.65048153956204247,0.4593247399710651,-0.89186761737009879,0.13365863530108207,-0.10156079424872137,-0.077323005721529448,0.5889989979677942,-0.24598338042088302,-0.34530008576384141,-0.44607476489238129,-0.74599540803964781
-0.04622990714197666,-0.26356562172449521,0.58728936175268975,0.3801825880140528,0.76336413321800312,0.64481930280271416,0.15804800571573993,0.014073367584820952,0.89777877698204123,0.38126361007695031,-0.50905836642583047,-0.73141680354202721,-0.92838342849867705,-0.17862434346062517,-0.094315587921888752,-0.35498068263603805,-0.69555975170087747,0.67814245780431004,-0.58165880036548823,0.59917282503050162,-0.91582835082215663,-0.20235424457186252,-0.86132045586544081,0.81791632728001684,0.12325372863268431,0.89390477167314819,-0.9123994785750853,0.7678441870450633,-0.59215248826366873,0.12511207953090867,0.42092901381330239,0.47944340306705951,0.38746815595396694,-0.092590384163869888,0.56677377672417117,-0.050140883990523716,-0.090531017565637931,-0.56133237989071694,0.47366164018102003,-0.9131044220181328,0.78127736290535577,-0.62829118574764931,0.68496299383152814,-0.90028685601684622,0.92554763464790102,0.29985066726393356,-0.32665553787145823,0.17914667324841535,-0.67267790957274987,0.68888874800987054,0.93148565659873606,0.36100560808178778,0.45544505546451813,0.73678713198217172,0.44339490388306885,0.8112936573042574,-0.61582678497241072,0.86185561092436391,-0.52440161489652393,-0.31227508011792093,0.70301717084038229,0.47981439099104872,-0.40818230618627555,0.91692143042174845,-0.51712602697525278
0.012689980908965729,-0.15741853024649707,0.83130473206185962,0.3067465445298922,0.73258034402918815,-0.81301660968135936,-0.23469796677136764,0.4163417890297138,-0.16903397194911582,0.97610724784242009,-0.37723185856333802,0.68175769227278882,-0.48029922342209402,-0.98845456477165117,0.18382448580398728,-0.41534988455791111,0.75464808805861894,0.085559349820936909,-0.46761502021730667,-0.33328446239469894,0.52516421921230239,-0.99154112950136164,-0.79395066478475484,-0.88010878633319167,0.84126046968820944,-0.056994445663796439,-0.52821569529054957,-0.53986704027315102,0.45312665671385244,0.9670193151854598,0.80863712034781476,0.34375893786592177,0.28334829952778295,0.23771409691527232,0.13754090007613251,0.98263986923530322,-0.1406998496855536,0.95993544804262187,-0.71588742979506204,-0.51971734758404764,-0.87129934371875473,0.69543123840093968,-0.91842456529451066,0.3569227265348589,0.12178371179333432,-0.65693683918367829,-0.56803317250553675,-0.64326071876061541,0.44190332736265198,0.92221258146318474,0.12739534530997537,-0.076934941233718759,0.29898653727720875,0.0052865568387604487,-0.56329295805087432,0.24207360338953388,0.24526495001205373,-0.43579837839943264,0.21915682203805964,-0.56075700260069894,0.62829953955592599,-0.26521146855238509,0.59200005322074689,0.83344731375955405,-0.30866342618766673
0.48219846600690441,0.57508758374087687,0.84787309542345879,-0.30746870173989155,0.66598884545761983,-0.70245081055962955,-0.59199768122606,-0.80118350794443205,0.37723878644889258,-0.19772112239687351,0.19345246565599919,-0.6932802527568227,0.72547577669227303,-0.67840029664336565,0.71949619941333121,-0.99893221528737508,0.93763811995335311,0.13744432888752015,-0.089448909327357162,-0.80551728808014245,-0.35480959067177054,-0.62674534252158676,0.72026459317922542,-0.39376106185664334,-0.51855162386548637,-0.055199862639277175,0.97156654588413682,-0.12007648265395578,0.73126034702565113,-0.77383369819772252,0.13273783412515858,-0.30720507200633385,-0.21048295058519104,-0.092627495936401433,0.73997431493309807,-0.54257830683124031,-0.95632232625153768,0.53955127985440043,-0.052002425091563796,-0.066591631185828948,-0.81107335882434994,0.3583279027096371,-0.433457969985384,0.66541241414727781,-0.77215058585323215,0.19587937981541464,-0.55766123017590419,0.13305803235641761,0.65360878989249616,0.86554363148190461,0.96313546796323379,-0.89718259714405346,0.45240763969385778,0.41781634405031071,0.92069045776522873,0.60808338538977269,-0.56204442817188749,0.12365195541484342,0.6374946274031994,0.85020709457313759,-0.54247245195556604,0.77764075149856426,-0.69477128976656999,0.89572297758704156,0.99850299999277492
-0.86688184270867641,-0.62241111443445385,-0.13072656430260679,0.32851808162898843,0.52863000082570688,0.44040364241298968,0.97842417476729404,-0.66721650038805069,0.99112848597550463,-0.48125078715321024,0.37605456582128849,-0.30172574734509855,-0.44578646298701291,-0.32095439610329396,0.99497016491019075,-0.28003888421297946,-0.38783851266295805,0.38180976239933817,0.81792067706901417,-0.33402884156283552,-0.27999339167213844,-0.055861600620932893,-0.028572265439723438,0.17783150830143679,0.6902301105547699,-0.30050227342786817,-0.3917023283276973,-0.39285922698390574,-0.8036209380574143,0.69434482395027364,0.97678184160750392,0.033880362281673994,0.5419460491880298,0.93123189216973279,0.098917718746327529,0.10147537185779261,0.93035747796014301,0.071295413152162548,-0.88382952370173895,0.79661199896993562,0.34390371547895898,0.48200730625400495,0.81587979220246232,-0.62918451192621649,-0.44157641907296608,-0.4323600558948929,0.9915162120281541,0.28400118231049026,0.18128573351366242,-0.56873957842587086,-0.56204424881534076,-0.068586864963270586,-0.17919606880689878,0.34005156608287679,0.34433961180825567,0.31969885958175431,-0.021660336414826054,0.53440716136518851,-0.54782619314681291,0.83309320982263801,0.44637697770833229,0.50122260525196649,0.34133859762570745,-0.87032992301307932,-0.39981903186344819
0.88361888312247439,-0.31792889718330236,0.58324659828687775,-0.89799043591949146,-0.042569730443718784,0.73652751362939894,-0.60744502466212102,-0.29809193405396944,0.64919890860280127,-0.42535636699382651,-0.8490525892410089,-0.66990106100959845,0.49995347659422767,0.38888153936559666,0.17105900782450012,0.28146210795911342,-0.48928145415732022,0.77517211158993238,0.73695796922079526,0.53658517099050596,0.15242033652606088,-0.075190548982654787,0.33588197965545141,0.21493486837745612,-0.11890888865851489,0.4422246394240455,-0.25271882299284437,0.34376409843300498,0.55317328779457797,0.90605012113329397,-0.11170531386263223,0.22079573568532232,-0.044438069408119577,-0.14203591986594083,-0.97798822959231435,-0.28852646947801586,0.87920208935888211,0.71002094931308823,-0.80618402159526026,-0.6343252254224282,-0.32561156765914034,0.17293020428835512,0.89399668867858495,0.53245233227495026,0.45260668584213765,0.85157081453779448,0.48666621023210538,-0.17778109377613133,0.87120898126086443,0.9334696765313184,0.44268950739512097,0.46226609176391925,-0.48992051302098166,-0.23900234678902665,-0.20531155294052966,0.38380258703753678,-0.83430055950991289,-0.21815742364613686,-0.42814007464989223,-0.38250453508284821,0.78864978665134466,0.84177282135130027,0.6864018517825583,0.71284257460222356,0.58010980827659109
0.7818555306696322,0.00055849817820636388,-0.67697132309391395,-0.15254389139541144,-0.7969363000558416,-0.84018653265224652,-0.22793824504111232,0.57980489818767877,-0.13529367979608914,-0.77390354876284839,0.62013156256267687,0.7608982761211589,-0.43538001208977967,0.53191364969136423,-0.39272890036879021,0.77346484486035272,-0.48800111286937869,-0.76709260350425379,0.22439739328255787,-0.57077814704248586,-0.77855513704657864,0.54222094817392918,-0.047146210319493669,0.054804163536822791,0.41876967722221164,0.71171285059050515,0.70072804933371602,0.98148073811740422,-0.75667045479320871,0.94478921489275247,-0.61592920945177365,-0.43890761098750974,-0.76977256588244147,0.46787617240051926,-0.62583701186198026,-0.19739714928134414,-0.51645327473631852,-0.15508061719251731,-0.58680999720796823,-0.75284977699834243,0.85056560220210675,-0.81497232212490234,0.57076919830874984,-0.36848712662555982,0.66770375069229648,0.36167377228706749,-0.70957999602934341,-0.20108858382583816,0.4977435972792067,0.58809378003644763,0.5037373909151972,0.90878890003630342,0.28448343703042223,0.22784973798913566,0.79017627706966331,-0.54568920653445452,0.77845583917033701,0.28486290351265603,-0.071566539580677657,0.49595398039811872,-0.71551240367512015,0.33748060567015237,0.24407240613972081,-0.19080501693553648,-0.022603656688019683
0.23293975263808075,-0.78574078801875336,0.21604661839618708,0.045791684567416953,0.66820001674032592,-0.95466033569536735,0.75344071020940173,0.066051295178037053,-0.10780132725013875,-0.047921198050585284,-0.69893187796796075,0.6962699896178659,-0.25771663156481828,0.29120187475832388,-0.62390666614505397,0.13914828697704532,0.11167344987914439,-0.025782515700427153,0.26460146557638492,-0.74817660146216358,-0.031383037639708865,0.95741988130448752,-0.00091530239621051687,0.40575551727623155,0.58357753077986452,0.30526136044133528,0.13540225975017331,0.75099019985891247,0.042650088451465042,-0.6749695340328542,-0.1557975922345651,-0.68254309139128144,-0.59770743396268233,0.023878339173701749,-0.53421692985760039,-0.76508505144829941,-0.42622091866255252,-0.0011550040374882983,0.19518945939182172,0.48246146562800918,-0.16392955631883807,-0.26069248146855839,0.58671027171147361,0.73758288706348507,0.53383267269107504,-0.87271974388171858,-0.17905089566561513,-0.49743029450534104,0.031651527695598307,0.51322113377031842,0.06057214999383162,-0.28422409897962636,-0.43500770995922716,0.17815683971298946,-0.0061173447426473735,0.25973528661363293,-0.79801924379933131,-0.45275552517824136,-0.90781895085364295,-0.5787222244921445,0.51276013400043774,0.49634199938080831,0.70580010079787969,0.61483780555855461,0.24568897140343227
-0.55074317931439909,-0.27879335380776393,0.36593074521895147,-0.17828329595403278,-0.62548783780578321,0.18302531218051163,-0.64629438938517958,-0.89525367916621801,-0.79057315647430415,-0.24299015833299417,0.40489202973658073,0.74826731303327954,-0.90555568926069874,0.13897558550639655,-0.141700323900771,0.93907843775364619,0.22502725280061273,0.50255472303718884,0.21263229707281259,0.0032622588054659891,0.0025006823945068991,-0.15588899749030657,-0.58789263609410036,-0.41014816177290719,0.0038341164575693421,-0.018397555045174929,-0.010497289129026074,-0.35488198425883161,0.18692616035620735,0.56780919811411046,0.59952885997822591,-0.08889533718209576,0.30296294854891248,-0.50566693593953949,-0.039687880519872036,-0.64760072444680139,0.32978265064816381,-0.67979365617497234,-0.96646525818330509,-0.51518113762259921,-0.3469915316807492,-0.24050004665274841,0.17125827945532457,-0.14775864275516387,0.37008465510833938,0.24816326870132263,-0.33545147521951563,0.76099637015949695,-0.56186448584538284,-0.60008566838395183,-0.98244932497277382,-0.7646847113317744,0.0029197473531527322,-0.74033361910240336,0.19859367451540641,0.017235475083417849,0.68300715932966749,0.89736993711987922,-0.00094195428050508178,-0.86722884623170293,0.88272678781183522,0.93424994841334275,0.078958753525255818,-0.29386585310450569,-0.14119213466423911
0.86795591488517188,0.40917873395490784,0.80762738968593462,0.49346332576810165,0.47438257750777429,-0.021844366211871035,-0.83090518260918356,0.061259980909751474,-0.91519552651317626,-0.047847903522443676,0.92145879805972963,-0.55369193644189896,0.53043753761027557,0.33727410256799334,-0.73754724026271601,0.90728538572812201,0.26518746232346635,-0.94602022718688372,0.61249408331075494,-0.65129754355649838,-0.40800151413997027,0.44978632586520312,-0.60039193154433668,0.35101642819112366,-0.47077660242824665,0.18181310994113573,-0.77942093759815623,0.28460229646573715,0.030828210297907062,0.31031361461970608,0.85903403412037393,-0.75240171583211302,0.086679736890495448,-0.32746264567294775,0.68974152180306603,0.5054620194689522,0.27851413797346875,0.03755204973819571,-0.52783784437575865,-0.29067468384249462,0.58101524010941352,0.84010098092944485,-0.5166598496739776,0.4349604601841307,-0.57777793372085662,0.84625744696303729,0.094950547942560234,-0.52342617358161658,-0.74992254820882176,0.89918442461988413,0.78231152601991272,-0.92683987570189119,-0.48087038980085717,0.9952314472514241,-0.059836809409524815,0.29763713209538795,0.8175828549352,0.32818880352400598,-0.24651272051125897,0.72581669949073335,-0.64770325515941185,0.026607370731658007,-0.1870816873032943,-0.58561989976345985,-0.80242790369131101
0.052667181516247288,0.11505249484225528,-0.28567555795457777,0.27559907085809715,0.18618101959947647,-0.12295240054707676,0.25711011958295665,0.51778800492815691,-0.88302890850623117,-0.011041489368710748,0.077541400439502459,-0.59567646029859034,0.76459787233869714,-0.17376425468522302,0.97231769920134126,-0.7261440526508558,-0.32357747812017695,0.038505222693067137,-0.1557335138778885,-0.64145287458363187,0.78193244280892282,0.78400060215855827,0.14034504463807754,-0.58436066990468993,0.66785812400243116,-0.98585600790428263,-0.21825969154759914,0.40362045193224938,-0.16140867660737399,0.015958620039308605,0.83941544173766547,0.38992108225718158,0.97262191202084913,-0.79805644192928649,-0.23601420267315107,-0.37870833134972803,-0.95453116514374736,-0.14013643760372349,0.66871585618208984,-0.92221319449594585,0.51881873713682147,0.4554433675783609,-0.23283524032413061,-0.85741147149896979,0.84755653500834804,0.37973074402138768,0.5892959319935086,0.97526242212794334,-0.27251672626866413,0.069428137164007087,-0.35510412081198189,0.75670135487146561,-0.61903256293679276,0.41489255388266089,0.086353541351398069,-0.50819134256697596,0.3713013367477116,-0.76662740416455488,0.63925959104061303,0.91097329160193252,-0.11837721486128409,0.18622758422898927,-0.15018131989762654,0.87910375748873615,-0.4505715787410749
0.28892286302461484,-0.57056898858177674,-0.57387117889853567,-0.79979299955666761,0.84598958570614113,0.62952822826476929,-0.41058013682119832,0.41206558473718363,0.0071681116502501276,-0.24166687302612411,0.1709001602005232,-0.7898832836264239,-0.29821231143449267,-0.14137695747115847,-0.16329014860241725,0.93865840320402461,0.66802570126224303,-0.079037572211138232,-0.043408637623903422,-0.11083377093383918,0.99524102613733156,-0.71346250806766276,-0.032450259702304855,0.2459356444278234,0.68632962393834385,0.68554989468886529,-0.16759022766811724,-0.75511191823324031,-0.70761589346825515,-0.66493204858470112,-0.65665736203888436,0.99901185367086598,0.37158222302050464,0.95890990091453732,0.27700639847509873,0.4285556103228263,0.86723616346924826,-0.97581868127618698,0.46533391178175437,0.66996320249698627,-0.31362791809284057,0.69747005178500088,0.229446671305091,-0.54440365713220773,-0.32096348302269923,-0.65810640070509629,-0.4476782110659871,0.93027580730925907,0.27354866682151796,0.41097778930260565,0.66909685333145374,0.19392840971399067,-0.84927675224802956,-0.50258046213254981,0.48261242826219652,-0.26563533794384403,-0.81977113180177219,0.60781362546035334,0.29186247916332525,-0.180098450417709,-0.19181565599071967,0.26959626755074184,0.074500063412225606,0.1569606667026435,-0.98929436779903157
0.3781197790949532,0.09703396314164002,0.11942276092431295,-0.45186965702953402,0.27599659263750831,0.98796878632924479,-0.12958370558289037,0.4022292041849862,0.079900573452575396,0.70160767327857432,0.63510521136620679,-0.47071737040488471,-0.87366919258654407,0.4448257568806408,-0.82395929903132847,-0.29790707782978681,0.62299953881200376,-0.1233758424824731,0.52498138270643213,0.55900861468144547,-0.82559754168777688,-0.068864222625107496,-0.9736288789335843,0.98166347294860545,-0.30730097678701263,0.4840213682014356,0.7736729424436064,0.57595046725816879,-0.61173045023399353,-0.36143811256619873,-0.99055064422618666,-0.51280292650971615,0.12464786779439445,0.39028251120653901,0.92787891214459572,-0.90800766662058507,-0.54992413887086455,0.13907310589436334,-0.63220299818427195,-0.84014967372438309,-0.36128301514735678,-0.7895125288003968,-0.72231898449161236,0.86418448513553758,0.70709186295660076,-0.91531561793344884,-0.23457117616487014,-0.20161116272824162,0.73018220254402622,-0.6288714549193648,-0.71179224132578556,-0.6503948086708049,-0.77650510019588004,0.92826985889357971,-0.86179739776416076,-0.94095365351099225,-0.70479642722024072,-0.80441799632401645,-0.78568351141624038,-0.78822663910838986,0.022427798681784798,-0.84195651754673151,0.99523488202846633,0.15586189940631001,-0.89008305251898512
0.30320175981528824,-0.30096779531244672,0.79141012692554791,-0.28490145066087746,-0.49739566434103361,0.43996704926040286,0.63147888688820686,0.62432223030776901,0.67436124306963086,-0.78401782865670611,-0.99208992306901966,-0.36720662970301027,0.12371832578833154,0.79859165610111349,-0.55885632715207689,-0.015361758192924532,0.551042005919681,-0.13069432386955693,-0.91279473608977768,-0.35128363807952501,0.97706234129789893,-0.90779999878958606,0.95019695396286696,0.74729867638187841,-0.9886535421283752,-0.28986585916734353,-0.89400437756727735,-0.66714084861427836,0.28780505705135218,0.79800156870794592,0.89033731954571249,0.86178640686302077,0.25188644985631464,0.17228652203390285,-0.57128387063267394,-0.51735697637951461,0.47257240651834265,-0.6178914689491769,-0.59561457997297496,-0.82944113106346729,0.81334326792068634,0.36598315199507409,0.07478227741196522,-0.73440607419540538,-0.68805753625411559,-0.084417945581753487,-0.85343749677111258,-0.65017673319269009,0.87327045780749457,0.90013880086152465,-0.031449099113173708,0.83023438632917912,0.56764675045047008,-0.60383544453749571,-0.34866849803674266,0.70111999420037618,0.0030761568915032827,0.93142223649553613,-0.77975078575962564,-0.13049848414510107,-0.78611734343715678,0.54637444569493898,-0.84513308179838798,-0.68422849488596049,-0.40185720879653813
0.31207013865757482,-0.99743232166145923,-0.17711160409705493,0.91863547328269834,0.046271044200736904,0.54274795403244069,0.69327256113991953,-0.95366460496929872,0.26601031119419039,-0.76511000650156724,0.25720162385606909,0.91320779143305186,0.88870404014507509,0.75164493205011962,-0.10172311898903894,0.17415593344899638,0.53684048178365218,0.058694246617647015,-0.91341245520169356,0.31313631887250581,0.26294408531878893,0.13289917123612868,0.81425592962448134,0.3020980138481531,-0.055890297073865808,0.27194470415254507,0.50690825065840583,0.12981431167490964,-0.31863656860052014,0.29881379830068416,-0.5569703834743025,0.13274143412748499,-0.79723224996085129,-0.087643566916324467,0.63643121213262688,0.7015737808953546,-0.94877211137618844,0.920187383181574,0.72203259389354946,0.96508893045310251,0.76660544537266606,-0.85791445583736259,0.23261496318440789,-0.81508976028594926,-0.92241956315230722,-0.35438526581771584,0.060900222228976661,0.46691843495497853,-0.88834806348435158,0.69038043954219541,-0.96368152141874663,-0.96289822056256036,0.93420169380798945,0.51764535232723174,0.92867981867164973,0.085544418715303411,-0.54588587819121581,0.46582846738239347,0.82691308113814044,-0.98701854090695673,0.89944103678700094,0.7447770462335086,0.69910648493414818,-0.10453014274412276,-0.36682753355566966
-0.70038377917377981,-0.76902466329783914,-0.76208088769642268,-0.052564063053776221,0.55890328711656856,-0.70631418755715003,-0.66135481334617929,-0.43486039888246097,-0.8456123082183733,0.74076469822553259,-0.4747532869756676,-0.72659205491042933,-0.45110458883547894,-0.83467102713687291,0.090392538379037352,0.26697917455353942,0.69345889612739153,0.79191735776670658,0.4136781497564222,0.51532330721664177,-0.7614790360167637,-0.10012712967059913,0.50489791573801313,0.39781555730198187,0.53066406996196691,-0.69571225604574993,-0.39271120486316463,0.29272785194861928,-0.0017587598300582636,0.67506000443275438,-0.82514671432784215,-0.030745702911183444,0.33759465088382745,0.90453044130829641,0.19362073091938303,-0.14690763005300858,0.045552708474726193,0.042626893860301905,0.7223834505608242,0.55713754291593154,0.91332283539153825,-0.59375621355104036,-0.55962179905417808,0.31835750368540877,-0.72693168204996528,-0.30494639035197979,-0.27664149668724486,0.28774689416945332,-0.38847439004408613,0.022967112609707692,0.90954158613977254,0.16803090305385776,-0.55160526966859591,0.68800843280333934,0.22698298744453174,0.8153800723940865,0.85354833142475595,0.31923090705050589,0.73799208455739074,0.63704892983634309,-0.36215388803746451,-0.3798850493403883,-0.33104481115227435,0.33803685876611134,-0.47185196978232047
0.075463992506428643,-0.35075801168286763,-0.37212478498086055,-0.16153506880891488,0.48438026395553951,-0.1240108334583106,0.76780462700452745,0.17166201814385895,0.090965027033529433,0.73710111305025761,-0.61294564073281432,-0.3237588736062833,0.54676450398744569,0.37165570595552982,0.79476116820510401,-0.25147328543999165,0.49111331240306677,-0.18979803108266977,0.97537894062225594,-0.11819282268111067,0.076882709754223816,0.4874720186149738,-0.57187111622598641,0.49850778410228341,-0.68068933715285584,-0.16589414022206492,-0.38491618269693378,-0.029516837582209125,-0.44166634943607963,-0.47930850376337025,0.62047344835169338,-0.21160076992332247,0.96010233806810097,-0.91669587749122416,-0.95373864227721639,-0.068624107944256052,0.021170170588056366,0.80534564594722269,-0.27018263153320343,0.16017449317659829,-0.83157795615497543,-0.010159675248196019,-0.54966146043676234,-0.82710961300530961,-0.21969728106505085,0.81736549580748397,0.21274895193626242,-0.8543336440770003,-0.76000315952032171,-0.10835488964321201,0.72263135689593649,-0.46553775554025428,0.70259676789078351,-0.076997219570465042,0.017288065009256171,-0.8447911257022277,0.87175118887198366,0.76942517385735498,0.051476239313187448,-0.57004154060051837,0.038108383258825318,0.60453006870336967,-0.82156091327226388,0.77616845183055572,-0.57194246133382565
-0.91724458896402816,-0.15760210864281379,-0.84217097341720315,-0.90264536928209382,-0.58508087622081717,-0.10512411387606599,-0.62390980926742146,-0.24010219704544669,0.1417634548403934,0.98169574835562334,-0.86279877375901937,-0.0071243116888190126,-0.57047453762088585,-0.32574379897889388,-0.31350915801296797,-0.93612018460030622,0.30965402635676714,-0.012115320107951518,0.7749195794368644,0.25315481891066316,0.81746985055633892,0.4440061455240768,-0.043463506460497681,-0.89408381904806089,-0.43758675086244375,-0.61743081999935912,-0.9250208991014669,0.97624734704988825,-0.91602397610156294,0.47217484181250846,0.53560055134872597,0.90933740494267046,0.7881192857396635,-0.64527066755378071,0.56544689467372256,0.37883428587178308,0.3677647204816043,0.12847753974489665,-0.88372434854212889,0.0038134318982588318,0.0028158037321035011,-0.066788910355462347,0.080876883097383584,0.85626364394607968,0.29758178073594088,-0.0048371222093952174,0.75290121539206556,-0.53984935432771963,0.26844763223463891,-0.16332515973982487,-0.59144224270466683,0.85721548606658715,0.8110684462309522,0.69722661879020553,-0.28485219699078995,0.71337849343130233,0.64674944388280009,0.46503792030147406,-0.57381646601856362,0.52554936996120405,0.89354110437796574,0.18411152681984555,-0.21016792998225961,-0.14210498914582351,0.14970982169537753
0.31293335091611524,-0.34914360423473151,0.50602005457435284,0.51976039407227503,-0.4903131198869824,-0.90589516546858162,0.31835917148619203,0.21376374839361517,-0.63355058519314755,0.68283100660610119,0.95323922989894716,-0.27745787456767718,-0.3307084819551917,-0.21988730257236788,-0.1683472753522289,-0.34580510453964586,0.44676238916591926,-0.84543172291562574,-0.10605931822826008,0.14791621136739946,-0.69906883432626543,-0.0032040474166860492,0.1169248515062306,0.26645405825362117,-0.1072060807248091,-0.51586386527067896,-0.59671584241998155,0.64998957524303469,-0.33375430416881186,0.33482802079825197,-0.11821633524162557,0.90788016090196533,-0.89590034788531014,-0.42447472095127342,-0.9667373434708828,-0.67939054184571823,0.40564386024517485,0.35093045991168331,0.10083641956646769,0.83708351292976646,-0.4928274890414362,-0.27737954279548327,0.89217013076847251,0.48305849838633785,-0.76217036839351204,0.30085389895661058,-0.71809787872698716,-0.33189914988107205,0.3378192403307344,0.38489631546864839,-0.54650533186740147,0.041712007309697027,-0.44398300221688836,0.46945133767057318,-0.50598523600235112,-0.68072633090041101,0.95299612999090966,0.18004252535416448,0.66553823291212844,0.0057598528628493208,0.96207228437463232,-0.84878892889125279,0.35090966494444503,-0.90418345736462302,-0.24111959369258548
-0.42831675963141952,0.53191514914622195,1.0010819095518284,0.95152684453699943,-0.79452660780306328,-0.12465139515179426,0.63463020922399316,-0.48673227062986529,-0.094024490316529319,-0.0021118880735334906,-0.14543713856630572,0.92323528188857173,-0.82320260667583756,0.57136079592200173,0.42846919791469318,-0.85296278191904218,0.080520345797359394,0.70416961697764613,0.92622065208069027,-0.068875683573294239,0.45137950689405082,0.90881237586123242,0.077849860527743051,0.038336361603819168,0.37120692226259538,0.062975488852474115,-0.47527898694856341,-0.47922245645672618,-0.84301521563192838,0.30630224972139231,0.24017875938104033,-0.29963180010572155,-0.24214965433568,0.045538075537734375,-0.23612829538334706,-0.25541599319649605,-0.55209226653248578,0.60251274721723447,-0.25998645324255526,-0.34860629465589343,0.5044736708858244,0.68458271945009697,-0.049553408927813181,-0.25650955061891562,0.27916452019337645,-0.9732875273819892,0.59693264897668452,0.35087445373973181,0.14452290526392611,0.38315678026055233,0.82167085909918625,0.99686079693384821,0.64235224295032234,-0.012451877483191053,-0.22976823224139087,-0.53288494861213831,-0.28078533565454916,0.0028928484437902011,0.42356259147677827,-0.66684499636570838,-0.62231039669296517,-0.10113705740213336,-0.46643071834338068,0.45614955820582737,-0.37287345701162339
-0.74868928728228612,0.60641104689011294,0.49512975897714867,-0.74610007650903531,0.76932224583037023,-0.94449020018380125,-0.33082498828214302,-0.29897027157711864,0.90834790505776075,0.9172573942688802,-0.12177593304607179,0.095642033612146307,0.072099711994347462,-0.77334916479262705,-0.15691161627741113,-0.61627438204185558,0.39589734247140279,0.02492483509185547,0.67490532808542103,-0.73872751065564146,0.28859034813225981,0.081847360764836341,-0.06917713264921431,0.68399103492970603,-0.49237772510521216,0.3368333912236629,0.26150548963319614,0.31433902754295939,0.63577376815234965,-0.5371421923095574,-0.24693646758346569,0.46810727540034835,0.70526680154589505,0.84563678413083898,-0.51951989732514048,0.34389077117912148,-0.26288377863978318,-0.082465980198556874,-0.039034234033340907,0.92903510355070096,-0.43406555016340748,0.76691514751353551,0.5414080079847482,-0.98508549241715893,0.84994885027627565,-0.97230812324637939,0.11568279173200188,-0.40737098339711103,-0.38244723486521981,0.60383115223525152,-0.31785158624405074,0.056924762834130851,0.82719427002298362,-0.037501624979695572,0.76502632750881705,0.79291322676131526,0.30868061420402787,-0.46820894806240171,-0.46121974491937229,-0.18574976259289133,0.2175941932408571,-0.22574264557537529,0.10093387633383596,0.70221654911657383,-0.22356806484565869
0.58169862613852297,-0.62538214898124445,0.88602363803669171,-0.88717414193140332,-0.80293502865538258,0.34640063453023184,-0.95465646732058906,-0.7043251433359804,0.37942271758866558,0.35734892927247858,-0.86876344847113973,0.65135582674194437,-0.79241486768505531,-0.78645191613853438,-0.57309640124132544,-0.7286740389927141,-0.44896368181542667,-0.032513136952818197,0.84537725471685843,0.084071158878581631,0.26391587462300969,-0.39733828137726607,0.084296584449490203,0.43185662372425099,-0.65109231431439629,0.63513386725761489,0.34396925116594773,-0.29040184590130025,0.76929732614252055,-0.80003607206860572,-0.12977034555867864,-0.132611319085854,-0.45410914278584941,0.50675092781121134,-0.3486462200255504,0.7720262949779414,0.16771498142532387,-0.26257575287081869,-0.40544680892646517,-0.34362024145220443,-0.93183766202757889,0.087333045889869232,0.6547832571760881,0.17387921740807169,-0.32745050914042373,0.72009994104134412,0.2269759030472471,0.41612483152052676,-0.19375924493607749,0.88393424503846973,-0.27705957267449821,-0.018603598019091151,0.11052255065861616,-0.078182256341689751,-0.83488148304625953,-0.30706371344650973,0.33330388022404639,-0.76768968445888564,-0.38346930227156889,-0.56266541383547031,-0.95292535015494595,-0.23306753114454823,0.98270198234510908,-0.44423965609645638,0.77684930070909752
0.88209073241576519,-0.38693647677445681,-0.45754871291249927,-0.93310357360395957,-0.77148077289340411,0.040307890780703563,-0.83801145160866364,0.59056267902661175,0.59885942190836594,0.40351074243496521,-0.68153877609500402,-0.19269125052058309,0.72978968818101086,-0.12779531109286021,0.73182334708000185,-0.11711463041691679,0.21473292401789387,0.92465285520605767,-0.3331559079187314,-0.96703664585019145,0.13439889963900487,0.062145226939691461,-0.39479912766201408,0.80579055255281129,0.8064778049225434,0.55151944321634483,-0.027107657439182968,-0.31633776815657705,-0.90148888645271352,0.91383112258565857,0.67210152828450931,0.18672850044380918,-0.19313096376366917,-0.2178782778970548,-0.92362708628370005,0.26897969484990791,-0.22204096160928921,-0.76746567332468207,0.57964619439655674,-0.54271127540085395,0.64479670748448359,0.22833290723999072,-0.78979617039511829,-0.52556612528604019,-0.13255073668382933,0.62249737506804259,0.94319017341478273,-0.56032311252285005,0.65050765678330369,-0.29278836591797847,0.39511373759868074,0.49634030031420168,-0.75551606160991125,-0.26261485993003797,0.53716980051795449,0.28847226659211828,0.17146794872106624,0.18706734399943106,0.35200921454659484,0.80069430313457202,0.28383329428979204,0.60573319101013279,-0.94871430156703551,0.029932656890308811,-0.42114601690633541
0.91065778459364344,0.1702922584224846,0.63255826255666969,0.78518393078882753,-0.15317159410017775,-0.039703145820394276,-0.75705256743894989,0.96038988409053161,-0.83929044493091587,0.41098478747252298,0.31046633124837653,0.039605730839078278,0.69299766896809922,0.78533726673182847,0.32272394995906595,-0.40476829777281714,-0.8188287182776276,-0.13787070612869598,-0.27043044168553154,-0.85543244035244237,-0.98828998481170272,0.14391282300000949,-0.54450946371411324,0.5333253911684559,0.24513886317189212,-0.581809869705599,0.3794199131575362,-0.670899377666337,0.1762747834083756,0.91681540672478457,0.25332620722531224,-0.50839161865854454,0.76111731782448533,0.43432668346435777,-0.73965807837239217,-0.97295616760769466,-0.61355280010316682,-0.034940117267481446,-0.31630803153283382,0.82319787227575247,0.058594117778393684,-0.97710845059934948,-0.26956592822745196,-0.67538216101126991,0.49361807162101806,-0.62066190836598611,-0.2112082000671068,-0.079754272836583665,-0.81617783007240563,0.042189115185121709,0.47002112964635279,-0.21865469468148635,0.42057395431346695,-0.35333120386388878,-0.26077651768862425,-0.73045963435444528,0.62457745424955946,0.3079398539803524,0.57154859276474324,-0.39587024852263014,-0.89977724309571949,-0.72509728791261441,0.98439001198496368,0.46328564979501907,0.52383613229127335
-0.26629015157081298,0.61479319409961675,-0.55396824224798003,-0.46938273068667957,-0.1569099216664418,0.33253956685452829,0.82339746190121654,0.49139137029799385,-0.15131063955347709,0.38819073730368581,0.5394382627035289,0.49529675089762665,-0.68124036643158514,0.73623069766328397,-0.047438961183728839,-0.33440567492686224,0.55603805393332717,-0.093334061908097732,0.35533911339551505,0.44598546431641056,0.66890185888032128,0.80170969020603977,-0.74435431383574957,0.35561770534666981,-0.30026190838782307,-0.66790099678211123,0.68614632700305456,0.30289603599724674,0.21860890435875588,-0.67860565910549775,0.4042984807111028,-0.79330221319139216,0.62491568436903366,-0.043783648795168585,-0.81356101477769005,0.64164450191488454,0.84432338988501021,-0.37180358656275159,-0.74030215166633595,-0.37618236167705005,0.028702339527615878,-0.35340741724173896,-0.83396330756703985,-0.016073147527254097,0.85424535954614123,0.47376177564194921,-0.64211310715131664,-0.81047800500208866,-0.44215682393190614,-0.34258123219684972,0.095816283526441087,-0.21472171010189689,-0.27743571780962001,0.83496966894993863,-0.62725691571845332,-0.57019472025851747,0.67804897855073454,-0.55932098889634907,0.94953827578429273,0.26079458717283949,-0.40613571812844951,0.46180249293560743,-0.17103820838733816,-0.81842226721329159,-0.48990185965002842
-0.65471896417626896,-0.31005577972160203,0.22572690651500824,0.54501701987824924,0.59180043267687243,0.69917983545506335,0.84808427513960183,0.12357113844820977,0.43118937605507057,0.027866944189204743,0.34987533142482191,0.24829924729170705,0.79105732770352566,0.38498213214035465,-0.79607831221436687,0.78538411530011709,-0.40846374072069197,-0.13661100553548614,0.28958719836481123,-0.67601355843108069,-0.21786852237252652,0.95780516394226323,0.31096172261751226,-0.65596220634068569,0.41897376625368205,-0.0020450143124511955,0.2875945206488989,-0.27802124860097538,-0.10930969137539744,-0.39824623360521078,-0.29216192032553273,0.64938153334594406,0.63625164138309009,-0.74835219932282859,-0.76376764755449966,0.14161889019600324,-0.015553078360068515,-0.10335239414054549,-0.034711294519966761,-0.91191703069120689,0.085431530532540226,0.7016456367589079,0.53855640300512631,0.31090560961057895,0.13339240410666059,0.87540795802921345,-0.40038698296253311,0.82475398933362309,-0.58580839457986711,-0.5891262561025763,0.73654097715215461,0.56105308886022776,0.66398081655750285,0.51014679408951291,-0.58227078410526545,0.38375778386186948,0.79722691528739276,-0.50741508223083831,-0.21590768080958028,-0.05673772338732945,-0.63660223381807124,-0.050114417411038566,0.56643038799047996,0.49136489477116596,0.090404271190565072
0.78332679140455685,0.096331057027822159,-0.58247656648041368,-0.28646794970987516,-0.14990561739567079,-0.57905162686565692,-0.25154262519809217,-0.011334247656070807,-0.7257206524498051,0.58489323833936913,-0.60165924743633736,-0.5276363023437316,-0.75032097169650636,0.34995479761870923,-0.52505733808598487,-0.44711287116220599,0.64598479962771305,-0.39003300256510609,0.15625504889258254,-0.30390861105519035,0.69236490691335195,-0.59591413412064287,-0.98976111700607827,-0.30451212674866063,0.104035845039671,-0.44272274271485451,-0.13198361412427664,0.19542920885093226,-0.72822509436898986,0.54563769410831031,0.94359432794038023,0.21609569697328659,-0.16177864176975612,-0.64599967185483598,-0.16137244962365074,-0.54111682834610431,0.20908994972393263,0.23400302784515015,-0.71016259670652071,0.97392170079006124,0.38246539434558169,0.7237559385187905,-0.68719042343024217,0.8333028081102889,0.81101211965477948,0.043845604897634387,0.46067158377235801,-0.16674061407145557,0.26218163273543149,-0.47431188349424092,-0.63645850858166453,0.94260971369133839,-0.93422917096465341,-0.93688705824504692,-0.56414183005737195,-0.88507655250177442,-0.093192497579685243,-0.98379693177635419,-0.47741195513081774,0.2999176733726765,0.39177029253956674,-0.31491290748286405,0.91150123343271927,0.52363646350292459,0.46759597777874862
0.38075344175470677,0.42575340293710773,0.21205138545090182,0.15244113620194497,-0.15209121140617196,-0.7850339738575064,0.071671425756858337,-0.8986286483482504,0.39506649584764109,-0.81831153595054718,0.77948484738192358,-0.85279017170103566,-0.12935636046105181,-0.62612252350533359,0.13004075600375539,-0.31322464660712246,-0.43028197737026974,-0.61496544944585974,0.083217028751976563,0.64791306942996518,-0.50676438109937438,-0.90257331089233395,0.69055128241022035,0.92211422081083161,0.77192557595940681,0.092622590441419239,-0.35945576329559464,-0.82623859355961127,-0.17684579313883889,-0.58467030553915189,-0.82759812950597111,0.553307716547214,-0.29631257319263071,0.57528292666897984,0.56277058166014138,-0.93653978418607731,-0.41994633535977677,0.74931551434229715,-0.55534418754176751,-0.3209771947255039,0.31894527704910114,-0.96141174411437458,-0.9197569467195017,0.93486153270543648,0.77005051676433378,-0.016877381968054543,0.30683380531742505,0.50420116170674267,-0.24189183778459769,0.96530132638342925,0.50226915530991234,-0.68819265161155541,-0.77367308394752554,-0.24532107555927904,-0.31269797963602858,-0.77376969223080638,0.97528615573175681,0.66594116039439988,0.7168338139503454,0.98251759460512722,0.86227504708267577,-0.39399376939950609,-0.56580075426270515,0.60413436173883395,-0.33215088231539008
0.35701457876062659,-0.46747141937624098,-0.30986422478135006,-0.66272291146973172,-0.79261601559160988,0.38779630143295218,0.16167930021133547,0.10206602969680612,-0.12285878071646809,-0.59542521846693242,0.86000788179080068,-0.88694814883851159,-0.98121346857566039,-0.52822584980056664,-0.68027498575158418,0.29855456941051606,-0.60186453272135854,0.53172641612999461,0.31908714742718131,0.14748089630531594,-0.33150504484737975,0.87678782068764216,-0.60193451296609668,-0.56252764075495498,0.38753780283436712,0.74136952455934957,-0.74112812479212653,-0.54123392353126776,-0.7542231239367313,-0.22382665229090778,0.48653813037592297,-0.61575176398991538,0.18097128880395333,-0.83917658729771916,0.48759887628471404,0.32379104503305933,0.79780414404090061,-0.83782472836252286,-0.71052127330468828,-0.5803280853566779,0.7814471986077095,-0.2808464348708683,0.051385875613935025,-0.60060478759780456,0.93139592095954749,-0.75743420118343385,-0.68337821926737174,-0.97638992963956639,0.62246931561535634,-0.53695768725349424,0.16959942984600962,0.89084868412405716,0.80371318004081527,-0.1560489266167748,0.2040933084075012,-0.8908673541631148,0.48983851411987461,-0.71824361503619527,0.062610585469488583,-0.92291751532505051,-0.75000357596168243,0.68967684362430082,-0.59625339158488766,-0.81749130957677596,-0.91024048503012167
0.25988147834322195,0.66171208205620291,-0.32926480205991365,0.46822039637516233,-0.8666275536986987,-0.57743171506548174,0.70910488419094153,0.97585170037513536,-0.5947883964057874,0.93554303730986677,0.94332302505515253,0.71095813868612123,-0.75183870434338562,0.54480035836208718,-0.89362600983423435,0.091420950541807683,-0.6487501804558522,0.10709239671747821,0.77023930148992437,0.84350943072550755,-0.59208575318825896,0.73361575551215374,-0.74867357009238578,0.18148903056680857,0.11521303102745542,-0.079336212349923552,0.39471182175724046,-0.75667248771348261,0.63815282260307293,-0.56950083218477232,-0.43200297243546115,-0.48453625910796633,0.81922921744686539,-0.20253434580264693,0.43462848118809783,-0.81613957464758591,-0.39722497317483046,0.35722470666904865,-0.97477950941905767,-0.043909902362180508,0.64620650268168167,0.22837860438753893,0.56505049384201655,-0.6994775955415844,-0.53231776073270964,-0.48645346816904717,0.84104326619572678,-0.28944063787269797,-0.15961000858237473,0.56228499249942188,0.18192583545675448,-0.92304131478450213,-0.47480849150598581,0.12932401926638792,-0.97136192371344932,-0.9130756085208277,-0.28950029757779594,-0.49895815473649185,-0.79948975457461269,0.79522913877945767,-0.17806378323702526,0.68242128799708646,0.65711550007117048,0.1698260696439913,-0.8540144983264718
-0.12988521535836225,-0.49955407268610247,-0.21250647968549591,0.097264548715003812,0.82355229722399115,0.38509245313166379,0.066254284212786688,-0.031206230341083531,0.85875448682129241,0.73016297225228832,-0.5147219410204853,-0.15072148566003657,0.82393007480977187,0.20135011870231309,0.89522661034654316,-0.045843414027934321,0.11245003307906659,-0.066244544668041819,-0.14570903674743221,0.17424103153148954,0.29383982596484176,0.92952079432843449,-0.83862621093751089,0.4840579688773341,0.77205701358108791,-0.97356719711899009,-0.25737800133208999,-0.14924930007461681,0.32866297015529916,-0.22965374887544374,0.30162185305358719,0.37096017848167268,-0.42388337571288659,0.36997298617690538,-0.25335607527349396,0.78884202091860156,0.55089124020169922,-0.54058587352515619,-0.38798684901927438,0.46245534729661913,-0.0026508494471050793,0.27996893061246975,0.62793571554553373,0.087723341944752231,0.47841770550606227,0.67453434205478058,0.47935550882530298,0.30657076087636281,-0.30334125483908064,-0.7187547394096836,-0.9065341471230528,-0.36078205320688012,-0.84151775509894466,-0.089420583471709614,0.76084179136765184,-0.9072466707451482,0.63386167472447685,0.45508949352012057,-0.43258026147797995,0.44200080605635078,-0.78508058554687066,0.29543850932812377,0.78897493117807016,-0.88495797552055133,-0.10794982044390501
-0.99125363951413614,-0.49640528771933184,-0.21032626577350333,-0.87258804825305569,0.22417141171885013,0.88460812604731309,0.04182330048337083,0.92286536164148103,0.72827820671691257,-0.85009504185237061,0.39284821275140419,0.26303772159879024,0.17261721264300847,0.97751754516438616,-0.11640790208196768,0.19691116070490547,-0.3987687301309325,-0.30088564546589308,-0.23845476776701133,0.25869610320912662,-0.12555026451076051,0.49576455729655022,0.19839619870789979,-0.41700796017912439,0.72398387239405593,-0.58924426834831545,0.9386158527040116,0.41856847876953418,0.78764484499288356,-0.086479716849950317,0.19001110669710589,-0.59198796379513574,0.076910725726425752,-0.44889080528799913,-0.33689374280900786,-0.77760856283724034,-0.17823550916895797,-0.66682561124802386,-0.72493072268327396,0.70371112873084929,-0.57190131744271999,-0.67310646121769391,-0.70484688258512418,-0.098529771788568629,-0.052262537286366761,0.021916644568339548,0.52019806190570572,-0.50690104851368389,0.46394555766108087,0.5651274955237825,0.90311106654013429,-0.63814460353605496,0.49963111304074465,-0.17202791690855854,0.10104221494465888,0.43283326026643476,-0.22277943893240362,-0.76628043605302409,-0.2794436562463366,0.86582401503298889,0.34905201196036928,-0.55666924640874627,0.52006870930071303,0.24331683679530042,-0.50702666268933549
-0.74647592963481524,-0.53572424081754355,-0.35729469962629434,0.88666754877644516,-0.99524963405949729,0.58614256641959173,0.88289898339347628,0.091574931459824094,-0.81145051141012692,0.7677183667828178,0.32784529306543897,0.30700908736939025,-0.68798464700318362,0.87300741030179307,-0.1046304964917103,-0.26514338093742962,-0.72545939557256445,-0.76590380611218156,0.59401209170860958,-0.87368980933513996,-0.93869621267022185,0.76536561332879294,0.99025772830737879,0.83543411157050074,0.98497359432569709,-0.5222649277757776,-0.77685050791865351,-0.12037335693979324,0.97928230579778974,0.82999156973782362,0.41643084045662732,-0.245324072142421,0.26628086297379117,-0.045550553639101529,0.15860516361821309,0.62819851420442807,0.74796258284810047,0.22948392430811887,-0.95530420614236955,-1.0025032087749686,-0.73831360449121841,0.12942978352611059,-0.27377209285223003,0.010252976091761184,-0.36385614332098859,-0.68382381658936242,0.7401246291103587,0.70443905791542472,-0.30456013167828233,0.63821174027320693,0.10150009023545216,0.28734399174725755,-0.37160357444409536,0.37457484451630391,-0.67143790223975919,0.66781766045277369,0.26238451537635793,0.49267717851107101,-0.35122707024870553,-0.73774849099581263,-1.003697282134137,0.83259444833004892,-0.51798888524879172,-0.9543661003920888,0.86502372346898493
-0.318950968436928,0.065404954553707914,0.36382706566099032,0.4193891606620474,0.3899175638674347,-0.47050985378981436,-0.97386912556318728,-0.22272844661886854,0.35939396291123915,-0.6260608549865313,0.47540835741692145,0.98129885743937406,-0.88835844561715216,0.39181562355662602,-0.99132409549355749,-0.68038457788033058,0.25903326246953817,0.17306005812659753,-0.18844770640090452,-0.56885069216290507,-0.45778061143588816,0.48037187873658721,0.76166385576807638,0.28173823346272581,-0.53197436657191122,-0.74355481889350061,-0.40238717771220317,0.60856504277577894,-0.61186161049891585,-0.46348429130890012,0.55960622923872327,0.082833884663931379,0.48653652636655498,-0.34255982350513847,-0.29817514651610161,0.27198848439751011,-0.10581694098920197,0.68563834130858248,0.57189737903422067,-0.8568326448095428,0.62522017486003478,-0.090951896984596034,-0.70641404785528283,0.60123794573008016,-0.51488636435996671,-0.084207610672256822,-0.17241291102550521,-0.21964100398479194,-0.97525386803690317,-0.59523150418411508,-0.10488119489445305,-0.106067868654454,0.9526081215179889,-0.38301191899378301,-0.6491410723850024,-0.86325515796490226,-0.64540587849764053,-0.84766904066464877,0.81059602137581788,-0.91833931155892334,0.91030936246796457,-0.98203412323932071,-0.75102144682075955,0.060956196926975806,0.63993822360254415
-0.23412644155015094,0.58700126426113353,-0.51288694685138081,0.29682708058153334,0.78472145717551733,-0.96593802587519839,0.96524699636161093,-0.63837435228010064,0.1225542916405913,0.0095241736117978471,-0.62997965220186092,-0.61130790632176368,0.30022668855482187,-0.56577131269697345,-0.56080966475918681,-0.54077242881316112,-0.025749501956318845,-0.43329399157338921,-0.89736402220504696,0.073941357761784329,-0.75624438731416277,0.58956995287492553,-0.25954773513938739,0.9721028576131846,-0.22478516836022203,-0.98945184974973188,0.85967661968934694,-0.38765432378430115,-0.32580114395891224,0.50315807287028036,-0.60824716541651191,-0.5205950387364866,-0.13591725760750106,-0.17090735115571185,0.1605045624934823,0.035066775745823307,-0.49755581172234487,-0.96681422722636579,0.50023530242874559,-0.61776529232107313,0.28910111326376464,-0.23461186684269086,-0.45247176423660412,-0.7401635597654258,-0.70988863379012468,-0.12340199711457613,-0.859526428705921,0.45335463104512386,0.027880400564967524,0.49308057969009572,-0.82819698604129188,0.71274924175130749,0.40750449775103376,0.24163048855218558,0.9100358787926025,-0.5229610352420242,0.40767629004597322,-0.1837146097480257,0.40551808551479013,-0.80089015440092737,0.3092955135309528,-0.070182589018943975,-0.1865285079245762,-0.17739913603589033,-0.22742753052433759
-0.055094952959419664,-0.33687837921930591,0.42778293105482962,-0.79788398095603563,0.84303188490600001,-0.20460122410135814,-0.91646439335487184,0.64825406356952486,0.57616848588471492,-0.19388167559899369,-0.17173281915828306,0.81175233647304879,-0.95297305733618343,0.85483010235120327,0.79050765501768316,-0.16544397746729056,0.89247108590421531,-0.73090743995584972,0.16189309255189546,-0.75173543652438934,0.88384757296384087,0.14053759680405598,0.33353162298337169,0.075950649444960716,-0.39870853056572642,0.22089635104539906,0.66794699180046235,-0.7835994120204004,0.563739914832323,0.40555172438140985,0.2097713505681108,0.89090075061873231,-0.5021380097319289,-0.62645793100182023,-0.72251581368301476,-0.67783136629752661,-0.75201047866905246,-0.32758184210612068,0.49385632826258991,-0.93752450907232121,0.8908483659498363,0.94096070035439427,0.85827191071633047,0.9332823213925181,0.528398767049306,-0.60659569173768535,0.52650305122118923,0.94771260288059567,-0.2693165072830509,-0.82962783116670524,0.041952473366854023,-0.59700867696587157,-0.90736281448813072,-0.90327323240873902,0.36443419948214223,0.016740890623551403,-0.8453528289026585,0.51674147466439346,0.52470770009765422,0.88279609412526494,-0.31323396324966407,-0.81831592153096055,-0.38102372660277656,0.32599179419398278,0.69893369488684398
-0.89864784195267067,-0.89462718306086464,0.16640349602218207,0.67855309908068928,0.44960334992334017,-0.033082696878199237,-0.48400797857986505,-0.77915994679391176,-0.52421219878202086,0.95401067874174206,0.93227386889132102,0.073132913084350673,0.96935873482111568,-0.76746770877098369,0.53638219538905452,-0.44336797583944448,-0.67269880962614692,0.30877376436624099,0.57450549232541459,0.98353494592858404,-0.11405408094819205,-0.43434229585607009,0.29493374999962713,-0.83128884181403895,0.13375619916611087,-0.32636865960949768,-0.35252312102095956,0.6913999802186056,-0.48472531597143864,-0.085571787196749613,0.86144194730448542,0.12897763374326929,-0.42548204417850882,-0.95513544007967355,-0.023131037117365225,-0.62641547792697916,0.28203516013641522,-0.82658783309496653,-0.58860497149530333,-0.25430350651332734,-0.65785654609763067,-0.27967739262631541,-0.44483477364856605,-0.82549522615410109,-0.36791731286792428,-0.037798938433422545,0.74022957087612617,0.5802169961908058,0.72604575519607129,-0.96560560107625215,0.41160251864089303,-0.65153067720830871,0.70221281739502395,-0.37016120151482917,-0.27470650817917441,-0.56442263259783398,-0.11430637085759343,-0.90093846221374152,0.29720973578088117,-0.24288854801119814,-0.076152060772994024,0.25736294500102308,0.17413920419895454,0.16532728673066963,-0.00052051317604191738
-0.72166582527946255,-0.21012735717980793,0.33050032609580254,-0.099811371510596103,0.89954326762249093,0.040566409293338601,-0.28194776082920181,-0.52904448821326477,0.53203934389620189,-0.48861316495691809,0.027682636670584383,-0.5647493854492921,0.83228553188521615,-0.62457377642432066,0.52000289447243475,0.53274123091879211,-0.49855660142066499,0.10396529395535035,0.97480447073066823,0.039818446084037035,0.078138850726537049,0.50825082350838413,0.22279233003298443,0.92189090866264367,0.15944523714174313,0.73795632839110925,0.84419611233389802,0.92791286380658533,0.84413947818163437,0.63378133171743278,-0.22837937846467818,0.27366465543189289,-0.27890176329317118,0.30486114051113716,-0.43758736540160631,0.78372858690480218,0.22831030870575386,0.65695851424739493,-0.049527548637445719,0.97640255185116875,0.4165797025908341,-0.40491326303707731,-0.77926274647835225,-0.4274867013514877,-0.37364332179750903,-0.25856642754206249,-0.2187396666271148,0.15477525591448155,0.67834832116982868,0.95917634403478991,-0.76604388558990977,-0.36560038465936517,0.84400165436948582,0.36419831820314946,-0.84175128038228864,0.69115344761369213,0.39607969476243465,0.98078715464921207,-0.20511619479674414,0.093263175868688639,-0.65338727084983117,-0.11398549626115403,-0.057239632733427581,0.27744886790833195,-0.99801864055833789
0.124277344737155,0.59227017406599636,0.88005765929092683,-0.76277354612077441,0.43545940164993141,-0.93621685205812599,-0.352873212010827,0.41730158852315996,0.70979025461935663,-0.79772287649196583,0.084317972780675016,0.54068271119758171,-0.20527076041040621,-0.24429820985610637,-0.81327368842090741,0.16471827085678217,-0.19381629538854164,-0.093777846172928767,0.17106042290348783,0.12832954545467212,-0.22312689194804092,0.64243217680654641,0.9392852358700261,-0.72940652433174236,-0.44701768882766379,-1.0035930102119572,0.67532788117109044,-0.097930212062840971,-0.87894715395046963,0.095074357658128009,0.50773108565525737,0.22504010765480523,-0.57687061921527405,-0.53657485950900929,-0.1526038644726333,0.38260138329036342,-0.062100834571295137,-0.0081248521799779632,0.75395550116007759,-0.025481656618298012,0.45917610217542087,-0.016329154404772502,-0.79116891187680338,0.084234390793615943,0.97212830976415121,0.065408621145397111,0.4052859131682614,0.51289945056313146,-0.15121294447731343,-0.97693406072539324,0.52363670537615148,0.54955035901306271,-0.54459681834439211,0.16777389745701968,0.68500564829341481,-0.70667540677339724,-0.33852094515919767,-0.67624691787904068,0.89255632418907793,-0.10443409826618801,0.38899646045827513,-0.61066841511032621,-0.52103585899101978,-0.1863587433182062,0.10814309916361056
-0.013575739858257026,0.79060737592102859,-0.62581306393754643,-0.53263124677102003,-0.59414641674126545,-0.11735772230518671,-0.54124794709044,0.4818279516995122,-0.28524383746869258,0.17370084901176669,-0.65644160593431067,0.72955146201808141,-0.035465814804211383,-0.71494530573882709,0.16506462512826553,-0.75396793198735268,0.60532967703150431,0.0096201546478061721,0.74537817572741316,0.92073586284467202,0.063262530447217191,0.67427306999893677,0.89041352688992603,-0.31778071613900621,0.18995469373903801,-0.7710539498074892,-0.76105886524206523,-0.72851111085164488,0.3605401877094897,-0.97402234165548307,-0.30223646330226978,-0.40720488915467051,-0.31239063653147048,0.53547642491699166,0.58785744555365127,-0.18959334341129608,0.33922639180368697,0.95654537790497329,-0.37434819484331328,-0.66703720738897065,0.29414638971901463,0.1880956142888105,-0.74564176725084075,-0.50386976301312236,-0.23249781482775445,0.23569753223135859,0.81454485026738632,-0.62030908638295412,-0.04108318063216939,0.014315033710280867,0.35770512895613993,0.96619441759764058,0.48655513507000031,0.85202876565173591,-0.16386915711090089,-0.10578239976791455,-0.1324794387265229,-0.59247737634775388,-0.60180227460028024,-0.32963183091786036,-0.16528737227734697,-0.46759617718130753,0.49689706174584219,0.090610893056618985,0.37319746177358204
0.3627963051916146,0.07255586638331131,-0.95368225600961753,0.067071032392714544,0.24826574332658519,-0.44737344215868824,-0.24474355246595692,0.21517313647147432,-0.56864663462383935,0.47179872576773818,0.68813952592361305,-0.022393260880692958,0.69999554982439072,-0.11737643189969209,-0.25645714375116513,0.80009486190537071,-0.040586036057437595,0.78688999244815994,0.1159575621862298,0.80771262645091557,-1.009727689910707,-0.69976453575180109,-0.041513083565872154,-0.53630334815633673,0.97689476082552373,-0.21503675380642565,-0.74326930163505855,-0.60272027680537998,0.073420252556808452,0.61691770241513133,-0.61729692343791154,-0.84144578199904685,-0.8140746214642105,-0.46598734399922687,0.88401869366654939,0.92070540435408044,-0.89971818891329269,0.0247140563902686,-0.31847438777693926,0.95000161491753432,0.70310087259732434,-0.3163683043957719,0.51250266611356143,0.82165105271324268,0.37025692251292786,0.9109311061633466,0.4392652872879052,-0.98148688479527868,0.09370250608516574,0.24468113899699126,0.44332786956280079,0.15477893580585345,0.26637187143714974,0.070402626685141259,0.94737557198952027,-0.34086942205623805,0.064263373333952489,0.42830335575151463,0.78422108607548546,0.073620584409860676,-0.2112609539423991,-0.71099480701572848,0.23262894032248654,-0.046446565069839553,0.73944105517221037
-0.52017367884498333,0.73918734472615022,0.72362152549833303,0.20247769154913398,0.95586162345161774,0.84091400389508519,0.19688785400774275,-0.7082858243542477,0.76293330467694231,0.90826455134038575,0.42335600117090344,-0.15046712705251436,0.40593134724901547,-0.98260659054398314,0.62363867097147485,-0.17616637490101636,-0.54905731618906839,-0.33497330276027787,-0.086214226523611659,-0.89261911486166878,0.089585118416047591,0.41051506082280648,-0.82411044887818852,-0.93739101290933413,0.11828995289536481,-0.33017491593428061,-0.62113874529196667,0.64364297816546678,0.51013542171908821,-0.71202957422275326,-0.43215862241589054,0.049902004126464415,0.86569795985278142,-0.92287893350856143,0.92991765077297506,0.58260408652487061,0.62436037368124397,-0.086380052772213944,-0.84506261930176763,-0.86487713067236593,-0.59773966724266614,0.93205214108553192,0.062568359091304954,-1.0027302470442054,0.81155203894961903,-0.29388171521067546,0.52257408202275901,0.26267199497519012,0.55431495844275125,-0.30598037351411028,0.49332191829007166,-0.14219860260977496,-0.62814994831584348,-0.16663744540695297,-0.30615472203474747,0.13218904080781382,-0.26175123693268249,-0.85451337053249188,0.42406229988907385,-0.16678168365160201,-0.063497477614840703,-0.89695227117537768,0.87133170455206654,0.0075704609223817537,-0.52946480149514086
