0.48922688785486357,-0.73948331144316126,-0.0066571355257621411,-0.45643983556038803,-0.60159466001634421,0.33420719517859943,0.067776850033321553,0.41067792770523814,-0.46380184551848624,0.79472563238448779,-0.53840113358665975,0.0032936141780012299,-0.80968084469482426,-0.73987165811866884,0.17557533680116857,-0.0045624191976544309,0.10504479734437662,-0.026577728149173616,-1.0084114021486161,0.80617323558606924,-0.96354997737298853,0.92892917781832618,-0.18889833296742636,0.4245784784233473,-0.74829823057789946
-0.98276066556655406,0.86700677503410983,-0.45857684367518831,0.1191504852738083,0.74789569217187957,0.29535153509301282,-0.027398639341473279,-0.30666795858402163,0.19820533885458544,0.96054884132517893,-0.77269014996832053,0.20168508433034929,0.78935143695643406,-0.51115685645091236,0.22992075482791521,-0.026959963577786961,-0.34044017622115114,-0.90388848947689715,0.3070858851553635,-0.52360362714572795,0.44421585123474294,0.23937646461087136,0.71184599969837992,-0.39956206566371,-0.18291941370366169
0.26184086226285419,-0.21861565913189915,0.28631977184157154,-0.65694108963257591,-0.13452568278937177,-0.052184490228251799,0.35531917345811337,0.4906799343644459,0.54977818011090995,0.85520145838987938,-0.94329282338305986,0.27508003459923691,-0.37225990705573553,0.15560511967611892,0.5846583823081043,0.67400529420687194,0.78731097262668903,-0.89171272693939752,-0.071201444867841732,0.98813007481734982,-0.89562294359504024,-0.40638070566788542,0.69019899378089244,-0.2558866342613,-0.60389498473148617
0.69966156327538076,-0.78944078261574258,-0.20048947223576269,0.3221410168453292,-0.47534372590613666,0.36026642893411021,0.2013932898323354,0.90283819329529769,0.46457957746277007,0.36712754192378771,0.44735444845091765,-0.27281527538856043,0.60282223179061623,0.54246874735461392,-0.31229442582115824,0.38371605061647546,0.74641609538682874,-0.3705171617655893,0.47876821594234958,-0.31906526652208739,0.67287613850864569,-0.19117783231778049,-0.80008677572996756,-0.16219736374332205,-0.020277039483090512
-0.80020619901364498,0.055338580220901025,0.74362266940456911,-0.75695409773765454,-0.88215518815161476,0.37762320362358565,-0.39827033976944587,-0.27611539716673039,0.073105681351650298,0.46118412489751137,-0.33881455996217696,-0.74950557308648358,-0.83298577191907441,-0.052080475971613222,-0.79621770999738883,0.32847219068131944,0.82847274628330458,-0.2793647169258392,-0.50565733164169702,-0.57083919351311418,0.42178507790777225,-0.96620471040242695,-0.23477501492255584,0.8953773281917672,0.25110964760267923
0.017732531813057801,-0.61018606527365471,0.50463611992503132,-0.9616894632805929,-0.26068648997311783,0.34719237467695208,0.58612690029501824,0.57288325696176268,0.63295128764535258,0.6693695972644953,0.63883818545710636,0.058784357967130121,0.72467619743700451,-0.50414964243725002,-0.63866888852830217,-0.62912986189166886,-0.61693096630322342,-0.39916414157385338,-0.58228206478203781,0.6452164264055309,0.73461723252337585,0.9595831842283673,0.18984002943835185,-0.4631219040046395,-0.68123470603064673
0.06852942532813687,-0.065332891501223705,-0.9698404595335095,0.24324223730868463,0.62293776025353753,-0.41409596882979061,0.85811983013830551,-0.92372349721868507,0.34598370008305945,0.080422674793074772,0.38770749558352752,-0.72827813877282077,-0.74523097571671382,0.43253257104893456,-0.70365006314046086,0.2333360205337123,-0.010402528041027054,0.59710425310814952,-0.091996279794180236,0.13399352783423318,0.83325298008644477,0.055033577048947749,0.046008220323774988,-0.06307882930829423,0.93966877739634669
-0.24993578456260995,-0.65071220163234822,0.57238402558042623,-0.32943061815491675,-0.63152844966380106,-0.15907515280743678,0.62301669728786702,-0.064870470301309074,-0.27180843361356111,-0.90311402891470505,-0.97471129611606733,-0.80474192451671922,0.21386353549429188,-0.51891879119683748,-0.19396943095332503,-0.12963384985160312,0.058515381863817453,0.31029802845276028,-0.36716684976979552,-0.099571935334491976,0.60646438458430074,0.41925066010402295,-0.79021558229406796,-0.05633497203285742,-0.62592128576430706
0.99148205500387754,-0.23433743890718747,-0.43357946464176189,0.17642803892190884,-0.35270888073031292,0.082986813650838737,0.6686076493756804,0.74619109732260325,0.43136143153253531,0.55449281882055834,0.72621233432161103,0.1613015304300893,0.95000920497161523,0.082800206165801651,0.63817184510134273,-0.74878094242415438,0.48552588041413464,0.42110863350978384,-0.2284347617120904,-0.26379524087563799,-0.37394596111637435,0.19723913930668427,0.98703705478147385,-0.10174634234538371,0.30181672790567321
-0.4667755486027233,-0.92195119896149091,0.62122239110327293,-0.20737450545032515,-0.77033581061310086,0.47070004367339957,0.39663647159319781,0.19834041197586472,-0.85345082277337869,0.49065211820337412,-0.32848020088985597,0.017828741308165624,-0.21753997337804601,0.89819421312228143,0.45716316049003031,-0.59887238490831984,0.49549292480041029,-0.11460933605975698,0.6750651911427904,-0.54333185147339125,-0.25335928069118313,-0.42987104237428181,-0.48554061537990223,0.9319049865168423,-0.9415601144321567
-0.60238920018820519,0.66226715252599411,0.037575771254935442,-0.12363810398391865,0.068164948745151499,0.28253252586214694,-0.30676239884387962,0.46976890317513248,0.15235330290871774,0.016774006884301175,-0.29910545825111101,0.69302242715573059,-0.18974049662674292,-0.35255368727796338,-0.813460635917022,0.57120815705606753,-0.72267646811242392,-0.94388234183795849,0.62634544646008572,-0.6236686466595267,-0.41391950190772164,-0.89063729994295027,0.947171423194762,-0.8498956483625715,-0.14744284429342452
0.25553296271470199,-0.05270015166973499,-0.38834264102351035,0.60455696017980931,-0.01457577645578869,0.3156665921397257,0.33352398764623881,-0.62260988636231085,0.37912009674135932,0.95430723882331892,0.14432596685852703,-0.65386719589241449,-0.070779710663468318,-0.33900999030326096,0.010492234379456527,-0.94729830061271647,0.98212469538797686,-0.60968945187207346,-0.17270822741499114,0.077713615475647854,-0.34530531039384721,-0.70073426118540016,-0.94427598914207034,-0.344510732554111,0.61010179430066547
-0.067235120974446408,-0.46881314323373768,-0.61291992371100223,0.45545192476041046,0.18170451827030715,0.18300494724819946,0.99153627380748499,0.51573451656408942,0.6555494099551824,-0.52842042484764362,0.37119243000081431,-0.20033750848149381,-0.39450427198525101,0.79707643269931328,0.058951848902814109,0.60916657009451414,-0.55362064683776269,-0.68412674644913518,-0.87219485392432961,0.23522770830465425,-0.78638806651475301,0.10868137098522929,-0.69267297005587114,-0.4973001740795844,-0.15189198814017429
-0.73439297280512927,0.46931622015378172,0.62597667342545182,0.39162662782169966,-0.89260538252228194,-0.47383978574302632,-0.37528518878926653,0.57635868347190244,0.39579629867919147,-0.20059188243544704,-0.89543601684470553,0.71284171342106895,0.53295301731549594,0.70474438910469583,-0.6295968606615312,-0.28178696010175652,-0.0112814857280244,0.93229731582612851,0.042367631979539126,-0.18517326111958032,-0.49143417027236913,0.68806553515516777,-0.21184732070795104,-0.09754758313074108,0.90680797021966419
0.70617498752542596,-0.47386186179307604,-0.040801558266512779,-0.57713682370625485,-0.45104577475065483,0.54245116954115213,-0.78914452566338178,-0.69808726008558841,0.41452826429668543,-0.80497237579106173,-0.87822681696903926,-0.36245929132754418,0.89693753067907789,0.88395162744234035,0.21348657002451099,0.021068542920188404,-0.31323369365428777,0.94746937313076429,-0.14978811489569621,0.2133579643574543,-0.14772205727098123,0.21927480662902382,0.40208728578269448,-0.2667005906625506,-0.85000850085599089
-0.010779783897688845,-0.51245222228155585,-0.81445137606930662,-0.10937216022871002,-0.3450141854554829,-0.73769054685484969,0.42243741013476932,0.31638137773854413,0.34169015577885048,0.67522117802210802,0.6916768745243046,0.23585688360828727,-0.67665057791852967,0.59305805601439177,0.58180790481568567,-0.43570787781368614,-0.52166336045817996,-0.62249581342789428,0.91066947999378145,0.78176566249655588,0.53305566781664382,-0.63132524949432045,-0.44282662397355177,-0.9065973196132089,0.81491821285323063
-0.11163342178093016,0.36283217856749583,-0.21708899826687583,0.38507433517215173,-0.68688726902149644,0.61037653401922554,0.72598331286284945,-0.70632837599406206,-0.70513669384196009,0.27714290660695523,-0.46173630284463119,0.93812125735609297,0.92998052426365274,-0.048546974563381209,-0.30554564164656001,-0.90575758219049751,0.98509500376511061,0.16461124585026146,-0.65865518831873449,-0.92791020005367231,0.28557482334880929,-0.27431321328492653,-0.16491791962549787,-0.5659402882939744,0.9179661017978844
0.67407668894557105,-0.13797552648174707,0.19393756357752076,0.42136229065757164,0.58311557025163974,0.69471479531946678,0.08963183642823877,-0.9681568035033683,0.87950793727432464,-0.53219261930557138,0.92815836736203294,0.96169011014709971,-0.90031942207858473,-0.79821586669815403,-0.93919281812330835,-0.10260206445665737,-0.73466893967565428,0.5704229774995726,0.26737303623965236,0.95150705440213446,-0.39343875923138272,0.93532992537849291,-0.86606549297592139,-0.27654295737930634,-0.85468816861963581
0.1995229650557451,0.055489473859136683,0.21085785031533238,-0.97617264332101472,0.22840261583714247,-0.32598448955459269,-0.55453995380369026,0.70169488333398744,0.71040552934477963,-0.559640538464514,0.32192227937191265,-0.3930615544660459,-0.2322513694894415,-0.67158187004404613,-0.16595028865093039,0.37067888334372151,0.77115030693977649,0.19955436607675661,-0.38386186212747464,0.067494969150404621,-0.81375875857801006,0.51726621796096095,0.094654624001185003,-0.9993173451764878,0.79670314610574511
0.84949503867360077,-0.45575231131732813,0.90366650054390907,-0.64750251867343456,-0.10799153774173438,0.89610737652808303,0.59617955119071153,0.54376717142666053,-0.20879211005015391,-0.59820985082686828,0.38089108380570807,0.34447668113146795,0.79082908632581095,0.81675945803389183,-0.1507913086641394,0.19468069189747111,-0.83922844394841889,0.917804448688326,-0.82636638150516428,0.66168010764601048,-0.20493659219787716,-0.78693945859222947,0.49611875113272019,-0.3331650567037592,-0.1510552271216393
0.41484981374822583,-0.077489145602935752,0.34553683791109313,0.70388803325506477,0.53453834078441942,0.95014678867374602,-0.87400871382255207,-0.71052105510599928,0.69217280892232724,0.18777342582593595,-0.50075155714377972,-0.82775330532824265,-0.81032110724607731,-0.0856147716087126,-0.091399163429386213,0.70863163529277318,-0.27683030086906207,0.68261661114431416,-0.97705221611040327,-0.67973366408440428,0.14542353321441631,-0.32092927587529529,0.39110697442522646,0.7941640301516153,-0.28069054347125894
0.44118250194371061,0.33905758701957311,-0.43865637615583714,-0.3681990422140059,0.66712147460519045,-0.17926791394626418,-0.048313376422529926,-0.016253451772883429,0.54064653000638296,0.22457154238042545,-0.85698896779062284,-0.55831993079489428,-0.31106980701582687,-0.56209361156710769,-0.14900574112070195,-0.19498939213323885,-0.058824264797880305,-0.31122216489338372,0.39008550417606352,-0.84974001695904733,0.17086531967838306,0.0093675068790592363,0.7311897898347185,0.008756604749156294,-0.3411087859797805
0.226725312196009,0.69774282217910244,0.86785888969256797,0.063620332796941126,0.60850038542091367,0.099445214603476495,0.68292872615857669,-0.33934872990885179,0.61713562959634305,-0.95174257058936362,0.55579492540960562,0.090492085407830353,0.95794169221686365,0.61562568794258621,-0.37298974515651317,0.45899279198994797,0.10800299993225228,0.67724401408988211,0.35501669560870591,0.0061124628220926968,0.79099611117627822,0.731337003937376,0.38511690244213193,0.8737040772872011,0.99285473175758154
0.60064780950346164,0.57355945666621944,0.091723052998767138,-0.75716781135873623,0.099752059625347,0.57153630833852054,-0.32894627172694135,0.26018704142949001,0.84354470372555479,0.37057413515911897,0.45449098952737599,-0.44693165182392602,-0.45261049066438375,0.37002505567381994,-0.5530177031706115,-0.35246202307139202,-0.4718195240002237,0.93891619029409767,0.69084363908595903,-0.43007628941166487,-0.476303258821972,0.0089681263354252673,-0.95221772585859177,0.9707796848478136,-0.26527982601468597
0.46920957782901546,0.51080855218017696,-0.33339411630697058,-0.55080167591776752,0.21761942492631753,0.059378288816342828,0.73021862138887883,-0.70806480211681633,0.66395404359151833,0.91099320320336075,0.8406384819464775,0.29891216753509658,-0.2595627028922019,0.22305825312994124,0.29499650567924685,0.53345186447456761,0.88197670670761386,0.29087672530912345,0.7246743022625538,-0.020568895114903615,0.1393513368415856,-0.66072370699956817,-0.034985303490333047,0.31888259671555286,0.49090066214021988
-0.48374802151979801,-0.78221303815038257,0.53798798100356326,-0.090505801898432978,-0.47088118426255843,-0.36346877451411808,0.88586714636568431,-0.95890548335647607,-0.71506321679104756,0.04497679188852638,0.11406496978367225,0.64622922173790598,0.82429123231507118,-0.85115826713364717,-0.40253062996317612,0.66840692454894335,-0.53294699578120075,-0.97286774419985722,-0.35722820073285727,0.35594753604289292,0.24588752410500603,-0.47371135901467526,0.3451299369108291,-0.4166455892296894,-0.68630391736217489
-0.62113706304312521,-0.60037337968940629,-0.15060283169746119,0.10892606685411539,-0.68753779538129334,0.4299890432037406,-0.70879578757763884,0.44871479422113636,0.70589396552287398,-0.22125252750093191,0.13827610741355265,-0.81502462076996574,-0.52177730176642678,-0.63022720102518559,-0.5399839963659665,-0.079219012617047196,-0.74117260330407764,-0.098787947556176203,0.81658217008142431,0.27291489732279395,-0.18821038893941519,0.54296317701554597,-0.020861697951050653,-0.3721723293580208,0.60018814490147188
0.46480503675390378,-0.52437068912963058,0.54658819374460565,-0.049558593407401555,0.32263653807344872,0.66624323666482088,-0.22610418231591534,0.90394831285555466,-0.53810608903952262,-0.5596146599769094,-0.93110241803071736,0.11550969788231433,0.64952754050285633,-0.54491457646114794,-0.54309196801984783,0.58357032936384812,-0.45213809391854359,0.85633518600012215,-0.1401815894730476,-0.24209052869714845,0.73360970984985918,-0.1644927236890428,0.047321866681929475,-0.8448217145265906,-0.78891859274850207
0.3493121299597805,0.63916894252796286,0.60681923354444356,-0.95143792937543203,0.19734287178507423,-0.59836681519319224,0.42001345940384477,-0.78059602458550315,-0.76055690867800485,0.45170961188034953,0.99052152272780258,-0.16327815913691734,0.66501209591447075,0.82455435057549564,0.9925598852240558,0.41129644945959382,-0.77875637594355651,0.79208028524084562,0.97382602920874028,0.63659455109242036,-0.81602919103365423,0.95145115343424413,0.81702846667731521,0.8783303942199998,0.17734282083996339
0.81603141025047332,-0.049988318504039508,-0.51052595932506528,-0.66922690969911103,0.23375452971859492,0.63418803041181959,-0.94750485849747279,-0.6599260543551404,-0.17315615699292644,-0.73933328282500144,-0.89364490170594013,-0.39662373522238292,-0.18429692940434525,-0.041493201109092319,0.77573345422572626,-0.66858280906418122,-0.8538208069244636,-0.69050112966987542,0.30642790236178047,-0.75607746582126167,-0.0043809129330427618,0.62145178419705882,-0.32702418195091604,0.06040685125907119,-0.22112428748279875
0.88801905522925351,0.91473222381261987,-0.69607422960959697,0.069764985768867971,-0.80915499546055403,0.59951397833678088,-0.1568330259306126,0.69273226824362233,0.22026406000361193,-0.1185892820801099,0.91478077255192169,-0.55846414686716617,0.064746183204499139,-0.25419597673636718,-0.19823411095071564,-0.88215651404721418,0.23799095961590927,-0.68480493875195736,0.65488266433750564,0.74121276050782192,-0.75197557847694119,-0.93835365525855496,-0.064235957608052549,0.6202051087367508,-0.92601018124247991
-0.21167502187065035,-0.11352938290495761,0.72575993458855514,-0.56881802431173434,-0.39868041258731013,0.74054770333842668,-0.61742582441046623,0.48798164729626026,-0.35963832760382358,-0.66851785601108416,-0.9224702064616892,-0.1627178344556991,-0.12374459750202668,-0.99059701536807354,0.42123628434546506,-0.2147374374995985,0.91733345495356766,-0.3158890823057684,0.3743242432206243,-0.60753183380257703,-0.73186197722754431,0.79210409383982339,-0.930167130746405,0.682115766049872,-0.82771142235009632
-0.14946104946823094,0.90569266317274344,0.79776558951444831,0.27557004950430974,0.99108850623367706,-0.43922151798776021,-0.055823535216486898,0.9881492857931784,0.68345391147138634,-0.91122037584390669,0.79365453343028503,0.014726811668886558,-0.25537228042285631,-0.93014756739109938,-0.55764934840712066,0.31521853855481424,0.83495738830354616,0.61949678134507991,-0.29320217602886783,-0.63617381023084707,0.15095600640066892,-0.16897921367751997,-0.92103496629953763,-0.07313992831648797,0.94745098359224744
-0.72549006485636525,0.76291029672874033,0.48796297482488393,-0.54853404908903824,-0.1965139617033852,-0.42520014978785914,0.77923687217463722,0.38723691033565166,0.17606537489939686,-0.38588673614317676,0.41071579564391353,0.7002763906921684,0.86459708138342262,0.095286445479552673,0.65561935759548706,0.44423168620470788,0.15533697560251927,0.045006669494388675,-0.55385542460246817,0.79773916287435476,-0.51350695719555761,-0.0007425374502496784,-0.57258117254643981,-0.9126383593284084,-0.97292364384322749
-0.81190311315350228,0.57719059669955963,-0.58215671486511167,0.7291242705421318,-0.59513047726938861,0.7932167936139396,-0.48790585030050526,-0.74799639255243322,-0.2034681576340453,-0.86681504297919221,0.95763833368310647,0.63568159762950704,-0.46584288234242627,-0.79551408030088644,0.56862954080164174,-0.87699646599796588,0.29761205930836188,-0.32638067371754015,0.86585390322161082,0.2142447947540444,0.71293179143211172,0.059419649138387855,-0.74456846523468934,0.18437208898404855,0.15787626721395828
0.033163681056753894,-0.85210726421537186,-0.36219007591427915,0.21010688186104307,0.56634396928943365,0.68221202388283164,-0.072136654322803376,0.77492331490640021,0.22033804781853347,-0.29976193434511089,0.049110422124545965,0.23185728401309741,0.57111451516436917,-0.84431084939902767,0.7619954632152286,-0.87572867402897114,-0.10967739545885777,-0.81490124545107767,-0.93540970835196402,0.98111560030812306,0.84990454827004192,0.3656704095357502,0.22731303057922053,0.8580314540823497,-0.35693972442376304
0.91430278037724222,0.48560861296211794,-0.62067890791710367,0.28355057268979011,-0.79653940066131912,0.49489449660686952,0.57696079667204259,0.74131473877831289,1.000431780153344,0.62349882119039746,-0.502403902923659,0.94751768130447134,0.95288397938420799,-0.54446845853694248,0.51832221158656566,-0.35752779457959766,0.30000025990295609,0.11499919915947214,-0.20850313281494273,-0.85604035191655869,0.54407636138384252,-0.9231071139572945,-0.10203212443318732,0.4734180888277968,-0.71676288470609106
0.086336518657447348,-0.022297775239288116,0.14260903751012655,0.077347207644724733,-0.28313090104073207,0.81369168637309686,-0.26036427185705657,0.62762392993578631,-0.35497425145132999,0.93692015519957328,-0.27370652807527973,0.24918614825976837,-0.1213442552015694,-0.87352072024607097,-0.86117590662869969,-0.12616838435087485,-0.2052003789489765,0.75137850673510109,-0.84519665535396127,-0.53458684505593768,0.16887919455692046,0.56491232727682261,-0.22580559841860892,0.9958027935906946,0.70559493576611998
-0.90226403249944809,-0.75092411377090962,0.37493137743508775,-0.49650889352776895,0.0078159101553766028,0.35156054819889632,-0.73388871405261835,-0.20649156221709714,-0.022387611925967249,0.14312440880823299,-0.92059866758905129,-0.89196486577351741,-0.84327363864902649,0.43548839773607845,-0.86760886836913942,-0.15839096845038214,0.88647757627585533,0.57334355290827177,0.25880178072577803,-0.57094438558620264,0.38526422453208609,-0.31498058557291359,0.94413733714059667,-0.900843324869876,-0.37014615981986765
0.64659378342233742,-0.19060637285952431,-0.88831150926661095,-0.17596541882596831,-0.24640929845660114,-0.15564516024701633,0.62325667745679092,0.75190731780798814,-0.55934044478115597,-0.2481776563749559,-0.59517125399515713,-0.32431076350273319,-0.53841917382901483,-0.11279904308795824,0.21950096359871837,0.24957848627853532,-0.52230623264982845,-0.11271188537913422,0.61934863791528272,-0.47527008647442082,-0.32234694534742092,-0.94215406605123919,0.95542901510401146,0.43893493585804233,-0.74106129554760303
0.39943359165551373,0.63178100924778735,0.13502601550485202,-0.16630887327038257,0.52515697286083352,0.51653452530064137,0.91481121626127482,-0.10129460930753791,0.10819586559547874,0.4935355534735823,0.70734630092008233,-0.018247868481009483,-0.86413754215920846,-0.91509239089820849,0.72954231868469277,0.68701579873429364,0.37337659861443762,-0.39897852917289583,-0.31220193163563825,-0.66908488012182388,0.98886418681842669,-0.58144531834001578,-0.19458189214106661,0.7021574495046035,0.61561046424315691
-0.38592651070366557,-0.40578552370907084,0.41340127923201919,-0.051870040439978483,0.25109198448771725,-0.11789041225297062,0.96601776460603817,0.37425425276916169,0.57141311640694115,-0.62656765160550965,-0.93875555338644634,0.77851342951602165,-0.63050265126127114,-0.17185946200632116,-0.14079992954867479,0.61070546319210095,-0.72729256509934981,-0.22107912323197357,-0.41649260983630315,0.25274197127764925,0.29256535502608549,0.7260731695869147,0.30750385226407734,-0.6742633562373233,0.016280500449976136
-0.19336522143373394,0.23080636387772879,-0.27525804498629225,-0.34031218101585625,0.19873653638022673,-0.23702429188179883,0.83339312281928457,0.36267612741277722,-0.45436084222469286,0.5838092497962406,-0.078543144078364144,-0.69498625669028469,0.9316007368483632,-0.67553051693745481,-0.9474184306493536,-0.14417539034861818,-0.36649695616426375,0.32790845893507531,0.91901781371601432,-1.0064188002881662,-0.20964903951906064,-0.60813721742827054,0.90743680417306083,-0.5750401094914213,-0.72635912864744068
0.92138262858087605,-0.31075792821938469,-0.41320704353527299,0.46786536632641801,-0.27873631539223792,-0.39135339888485088,-0.33889954818114837,0.26761152980447361,0.61377963962134474,0.42187099340752898,-0.51283807836203321,-0.64282560462446481,-0.4313244931732666,-0.68331927201956821,-0.55494749586560144,0.19128573116578271,0.014255408601590672,-0.97887795149616452,0.76028442836483356,-0.81897124144859212,0.84787198520689677,0.89156682259463682,-0.69799749102028552,-0.3426093402743564,-0.064592624574755841
0.075765246176164563,-0.23012088027876829,-0.81345668212166389,0.47023808891326713,0.26234946748763027,-0.458335921834224,0.8021673503336787,-0.53974996795161845,0.56796554832908563,0.51091208462177662,-0.256773494174793,-0.9235175892625701,-0.3377221084750836,0.65870341001470289,0.24536029654028094,-0.44753283335239602,-0.80993251322766202,-0.77252491975643556,-0.64681846946196986,-0.20333536683341769,-0.40214640599446672,0.58824075962972389,0.60169117040926268,0.6237658739214804,0.87441982770853754
0.02897112142230442,-0.81894297435053942,0.90626530920665993,0.6206483953519436,-0.61305519087733329,-0.57927256155523854,-0.054059581158446272,-0.060567960640767207,-0.27571902589436037,0.43983625552193156,-0.41801014356550281,-0.542106891258062,-0.53306941789743556,0.5345024517517909,0.62489469169695244,0.74493810542552252,0.30656410203537088,-0.66894154025310482,0.6235183481844484,0.60437503960875538,0.21832378109989206,0.9927080501987483,0.68652113741301257,-0.07021852014366559,0.43482715091776364
-0.15275357765777481,-0.13175023291646296,0.90526159091168046,0.96741504409331613,-0.50795968608164266,0.45854538215220392,-0.58168917125350761,0.76589639066098447,0.94057808966369505,-0.3560939356629545,-0.3919386215087966,0.49290671197740904,-0.54297109386296194,0.85953862761479649,-0.47248611750990582,0.75610409670659484,-0.56985523306568409,-0.78266453735233998,0.0074136036629073917,-0.32173805703218622,0.82755425851896336,0.3422896209903758,-0.43421447214628295,-0.6145621019358869,-0.20446335948416394
0.81047666228990933,-0.620001315017076,0.051970184348801657,0.5583958827671559,0.096574029345717502,0.91433700391147843,0.67218270386327872,-0.27407080012520513,-0.014179070483858634,0.23805765424264183,0.01316306171008561,-0.9255522144593441,-0.59179555867025657,0.15776897490903213,0.17761985435856578,-0.5899188207966013,-0.06768207901754858,0.16225238927990696,0.72730180149140211,-0.86968869527616355,-0.83825341535150755,-0.11416539829767701,0.98043319916252847,-0.59427593605838,0.0020209149972702607
0.1581092665988108,0.73675792398724826,0.54785250689411369,0.5644876587459875,0.040510866527517425,-0.74596840564715317,-0.43928753161614925,-0.45963971929008507,-0.88588029556113757,-0.45888520783034059,-0.84682905928483443,-0.36758053096148691,0.96012165627540835,-0.20075438108648497,0.26892347628399432,0.30852630123758279,-0.35564095634639209,-0.40954940051022032,-0.76330113261804966,-0.47987240998632436,0.96073731304948651,0.079765505789088725,-0.31227055654065855,-0.3749122660571096,0.7920164068163289
-0.46156157143894661,-0.95903477035115325,-0.6359431641807044,0.89500285413125136,0.55886555266300608,0.54200619915062531,0.34129958747082711,-0.23291134970762783,-0.50286575642742148,0.082813693667783989,-0.47707678722854496,-0.15581899552146736,0.75898067764314658,-0.50544145324096723,0.8188846666003291,-0.51946867116770934,-0.75198319986292839,-0.61590690993418151,-0.7785267854984772,-0.79893721510031279,-0.94864757430549496,-0.41599947943116911,-0.07816445072813781,-0.8445086829101567,-0.69557952506758214
0.51837086261530885,0.55302953892476503,0.82175359334317366,0.56801499730608274,0.22358175180054432,0.94777323850359085,0.090267046550146307,0.35099020903323869,-0.24755022810332403,0.16616648806580389,0.83052941000630953,-0.47326446909160907,0.023836305026275175,0.90214963606287313,-0.53265076861850047,-0.18244749865755847,-0.29464677858383126,0.49749461343228019,-0.75934612206015462,0.2578998550036169,-0.91644711579865468,0.9908788221288729,-0.72978597928689593,-0.10701314162554709,0.51891207077335744
0.11698198505022649,-0.0069335070681370127,-0.71968169095561885,-0.51229945842007696,-0.34329931758093424,-0.63566215988954289,0.49620474554526889,0.9410020485236249,-0.43620637507834192,0.56457988887776855,0.60392786110444541,0.20405274205009036,0.55524640950099702,0.81617313940824476,-0.025917353838240918,0.056643289484217402,0.11401848083717406,0.45290855563482674,0.83540595408932306,-0.27894839125542403,0.048431935270371297,-0.33308151996648744,-0.36873640464717439,0.47563270180784545,0.44558379035646267
0.07019169815241795,-0.71228069435241537,0.36378724463492829,-0.3865827048586804,-0.85335352552736199,-0.028090327261459172,-0.64407168129580294,-0.99875169254369467,0.71093441391647194,0.78037557223000364,0.57889808124290776,-0.026952847255852039,0.74235021558157632,-0.018456757719866095,-0.18769872292762338,-0.77425411142320766,0.39407352861782319,-0.48214710615362733,-0.042222907532111574,0.88305229836327082,0.46868894684580376,0.59830913518970708,0.13449957901515472,0.28333871365014307,0.98658801580342481
0.55606047733833719,-0.012382110746286949,-0.48099448798548156,0.031145186437241821,0.64032955626407617,-0.66458694578472177,0.51907451824172268,-0.53195143798866307,-0.78717455297040884,-0.612691898503398,0.91739642307445912,0.17425702472710314,-0.79160040539598098,0.6120916837797522,0.79279915032829751,0.81475741015220293,-0.098615363860390937,0.54059395318061099,0.94338398290548175,0.46511857085510627,0.9047751726720028,-0.2121606006879343,0.48227965293612507,0.6086028092281746,0.41905723519231897
0.21941970126807059,-0.0033311169236664496,-0.63951350872094392,0.42743243176781592,0.57650926099394129,0.23546564293714189,0.5419961910906983,-0.71085814540937631,-0.86443276785732492,0.93489356462589968,0.018013846095872366,0.84865587935215991,-0.36124756724089385,0.37114570613085218,-0.53135213055310471,-0.24179274628738665,-0.1772045819932401,-0.35487785238534247,0.91771795477402318,0.42063764098331841,0.69175213437467553,0.93518869745421851,0.6903537168063334,-0.6569273170429326,0.62595091119281432
0.80557232183424421,0.30797893227959777,-0.85716821254798115,-0.087854532669852978,-0.65208957955822311,-0.17730530157164962,0.1833929075506007,-0.84474865433142032,-0.067172863759176887,0.94908734490990798,-0.21817036774892959,0.66617276972368811,-0.83728967083840422,-0.5367747310822385,0.25459486675517801,0.13045833200102033,0.69227370800027399,0.47801564853228218,0.068748471471986733,-0.67004324234157553,0.98526377841932944,-0.96263552415714404,-0.81532772169092826,0.7517746021718053,-0.15238790999625446
-0.81445549574114773,0.30803484392196423,0.93109195404899503,0.51374309092741688,0.78689250640993325,0.66693646775238458,-0.52798359927207938,0.60960651267374666,-0.47607063510512021,0.3294290038215989,-0.5464870454696088,-0.57310695207825535,-0.12278343113773292,-0.7543760991967714,-0.0097630787859376879,-0.15796651918736562,-0.064624878040751635,0.99462785110625851,-0.81297571740046903,0.61305056285860426,-0.014396366569805049,0.29962644771976321,0.62525217976109326,0.4887183704744196,0.64036430549266787
1.0049425230488713,0.98474504472096025,-0.9330620461496465,0.22728456787590073,0.5127379571620635,0.38596321782959636,0.40691127256568027,-0.37542981936137132,0.33295706918233436,0.13183006191980517,0.59253192530976118,0.90394062669755304,-0.54608242779910665,0.80835222691996023,0.75338109527979169,-0.66562521559746057,0.15212253110805316,0.48284442145865636,-0.20787315206729653,0.51860408269729885,0.46772988359309886,0.85757727811605344,-0.40438962219721086,0.08712189134782178,0.80451803235419816
-0.096949159106575367,-0.059329726979298725,-0.39430288129723484,0.39824728412370825,0.75966790986275179,0.73729193410702931,-0.12921791013552286,0.49402847428738383,-0.58068432285099358,-0.39686170362202788,-0.49038951654748492,-0.90820961814166623,-0.18127912770981677,-0.26756421512991763,-0.21257178716041408,0.17530338889721334,0.21713800326752886,-0.47249688681175006,0.70878324506185519,0.87986706993344332,0.80171613736092473,-0.14771096585852156,-0.50880700070531881,-0.9016962474106507,0.34552261284294011
-0.10386330943314209,0.29108473381716221,0.61385038806403547,0.62323775310058771,-0.27492294027985709,0.84672039587547099,0.88880639140770912,0.92547860250271752,-0.79495302058211048,-0.85747324085132415,-0.54108567706925548,-0.51950523744104871,0.033353737963202915,-0.16877794062221813,0.68692248058499183,0.14830448018764833,-0.6125530902133175,-0.7062980319829758,0.55480664536439384,0.57608016082447211,0.52627067810125083,-0.87496786764342205,0.58476649920480583,0.5992913526569699,-0.64021061338500107
0.21276784180254465,0.18043407722347435,0.22523608734471418,0.38143840664358009,0.6880549329622172,-0.52102600929052123,0.010054161209633729,0.80564784670054346,0.87464879190255362,0.014782660297571247,-0.68385038597298942,-0.57971901305604145,0.98115013819962305,-0.84372217649473069,0.095600509464507127,0.68537874018517264,0.077458085476408783,0.28266192029790066,-0.42158548817603769,0.68843958984243137,0.71022712260200294,0.29922801202292121,-0.20191666142538042,0.43319698496440195,0.60115278145633289
0.89997551321699554,0.30775232536266611,-0.66324242518054599,0.16696589611333351,0.42488762744296671,-0.14674008659944257,0.66326924448265767,-0.53771670223417578,0.89059195610224162,0.93443374261340084,0.015767141425412856,-0.51868852902102114,-0.49561607809629671,-0.11365802491229843,0.5385107914064301,-0.31663696866976004,0.71956625545340436,0.29716234437830596,0.53007347753970524,-0.77021757069311891,0.19688559303878969,0.96214022412693101,-0.9935313134188859,0.11455162058267199,0.62139361811653726
-0.96727566515366459,-0.097391683519394173,0.038818124962213929,0.30265881985267129,-0.80536673668620651,-0.50431540813783993,-0.69532816078996684,-0.68103379882781512,0.86638882684754104,0.83798130513784352,1.0021074931531806,-0.08427485626704867,-0.42569123207427595,-0.36435251851087719,0.23994046799682653,0.41196443705466357,0.84258065069763322,0.60314082396506574,0.23359599198066053,-0.92201105795990057,0.19275489141257221,-0.79110663706574569,-0.66703601788665579,-0.4815095449991338,0.062328744192431479
0.22942277133980191,-0.8758545824095274,0.28398534607709092,-0.69268358547358533,-0.89993994815183243,0.13114040845681588,-0.98079118270073773,0.52911201281181119,0.073672133092393566,-0.72748828942706278,-0.65370785124245212,-0.086671971447243742,-0.71037970690963481,0.3037419369105821,-0.62219652962591876,-0.92506282524010497,-0.61179116508538189,0.20208098926242632,-0.35074492819630515,0.28772828836473385,-0.24780328884520217,0.83061449445551272,-0.7074638616604495,-0.3390642930549528,-0.65565084101256299
0.26934039348518929,0.28223484109324715,0.17776813806991063,-0.44479225917916065,0.55861414342480009,0.46393065908880632,0.35749668025693621,-0.43067838702013317,-0.024351315249094983,-0.89692883959321035,-0.93103332623936907,0.21399709700157615,-0.93273739137085643,0.65499122003357069,0.79457189283219087,-0.82704299980457652,0.48443110893866542,-0.48813617588917163,-0.21560347321415232,0.20817098993179081,-0.47262269402672202,-0.33978439786307257,0.31065645235527822,0.61907686667035411,0.4420515802072979,0.95811213691637775,0.75218241691041254,-0.097915395469101871,-0.062817041195932816,-0.41404038511049779,-0.85568395009270959,-0.64445629634345336,0.55260889392187695,-0.97388848410184969,-0.40033666231295217,0.50992883475745565,-0.2845451055329809,0.44021151019315391,0.64990805817338093,0.58044102850121138,-0.24193127814705032,0.37073547110234029,-0.2862102288100184,-0.9671027237385541,0.73843004107876764,-0.78152727754141893,-0.9520099627397457,-0.90607682924110067,-0.55580882292741274,-0.73942147619766552,0.41123813757452488,-0.57113943436415671,-0.43365578923660747,0.51811841370406087,0.30495349972556324,-0.80756092254459877,0.48568161097669149,0.810920710071388,0.28844787127413929,-0.88014160321182133,0.3441587593758646,0.8772340237227666,0.21608510726285751,-0.88804101136225722,0.33940802511913465
-0.19209297742080253,-0.029915695229533731,-0.83029276297980814,0.57422653682910541,-0.81314851824101542,0.26001367473732406,0.76285934447280324,0.7326369760967566,0.1164158604897976,-0.42673868932232251,-0.58237296043956055,-0.26423940095614096,-0.82083554239085021,0.78067261607384242,0.22553374460610801,0.84658129087632095,0.83631000953146961,0.55047658575462211,0.92522565617539942,-0.45648551597677717,0.075401039400849482,0.024711676305134416,-0.16920268055234799,-0.12204459510514241,-0.97168209342830381,0.24855324164549564,0.87677399174727666,0.34037694521660533,0.97041336601448536,-0.38464274141129595,0.2570113478824132,-0.59279802179835506,-0.54467255498614164,0.73292257136397287,-0.068605115310751766,0.16343949853613474,0.04797481499142995,-0.98428189149258838,0.25388931245757113,0.2328679544729651,0.012513671328943736,-0.4188601017393791,0.75577727930751526,-0.84528978346673289,-0.87444909582517338,0.22500100685849386,0.19090871509040708,0.85789214577030837,0.32893852793078004,0.34503021172368448,0.75839695748283498,0.37608940710703104,0.10251373958176085,-0.80747279572273367,-0.60565935298617068,0.53404889478250372,-0.99192461192377168,-0.0071224620745821178,0.81401076408061845,-0.13141633190253396,-0.59340332678355101,-0.30494195043269701,0.35023225139528613,0.041791553643058955,-0.29024234287851342
0.9588799032287173,0.11304276774556113,0.25040084731177936,-0.39063134303223745,0.64616780358566517,-0.81135655704763276,-0.93801664360726655,-0.60618054878304894,-0.86856150024386503,0.27069548194016285,0.83908952647908697,0.40645938796099401,0.27766927148050879,0.70618596541958423,-0.18103400839958936,0.86333089552347497,0.2894705342853896,0.4252374008802301,-0.11283321370111811,-0.23328970351209574,0.7885489714962487,-0.87076593921015144,-0.5687380136018183,-0.37693916372897968,0.85461127977700713,0.73598919431745102,-0.72562985483574527,-0.71842543580620566,0.12297283114038107,-0.21425409699759271,-0.43482668894364379,0.94635124095892165,-0.69524337707833317,0.33877992125871109,0.70439440509179241,0.57673609867352527,0.09900491298023105,-0.51434252900412447,-0.4659998279674829,-0.13865887314691322,0.78151467441229805,-0.28986742277737709,-0.54611257535830326,-0.55836239225041318,-0.41340034816068211,-0.57553024566153543,-0.4075180022947405,-0.089415241067882983,-0.3065801021417161,-0.21537730531302487,-0.090860079797823123,-0.82877888080755069,-0.73340404190167241,-0.12885196352347647,0.37448079142618323,0.32240490602020772,-0.51454217391629875,0.28508099805512449,-0.14599755447836987,0.74079210298367482,0.30022028966721309,-0.76142184057889228,-0.81090409402570374,0.80803549405236397,0.66626227002558369
-0.055325780072033211,0.235760836386428,0.82304414131677683,-0.30797567319940639,-0.80190127983655402,-0.31785326255992619,-0.78041797453092143,0.17790427516229271,-0.94705441903191134,-0.97980017545361719,0.36447694275536824,0.42965209682938482,-0.979367987082856,-0.64672791080858161,-0.99718752383507381,-0.70574820299069674,0.51217489063601918,-0.17692368907257747,0.49561844436614272,-0.8031880395020885,-0.70819118805111392,-0.6267665814537553,-0.84323767721728882,-0.47558682075663927,0.39326833574700409,0.17828293302764181,0.43350897887081652,-0.73535457170754515,-0.80878582115975028,-0.11659534297314179,-0.27116850836451639,-0.95982920816272643,0.074561624970575294,-0.48919275921757377,-0.9049140403700352,0.68923305165165272,-0.16151296801479137,-0.17215185623319723,-0.76958327603050314,0.17895283214545074,-0.63149205305286338,-0.25999665803227479,-0.8174845240283376,-0.28225463719868737,-0.85809180396117446,0.48097213195062721,0.72022468063077305,-0.3312852700048512,0.20809693182704186,-0.96972579727340591,-0.47542892927654812,0.55020569367380068,-0.85585537871471173,0.28006755283605589,0.49623664512051197,-0.77618160225854371,-0.85806440508612669,0.90479346228610424,0.14757895991704523,-0.86086448559507467,0.66168144321596323,-0.4438850795071077,-0.7555882504550997,-0.38747626995400786,0.21168002337180089
-0.95545256553767788,0.075394028761802775,0.56350304674743812,-0.35363220921219779,-0.84006852455992898,0.58407341932948753,-0.28697079104044509,0.58590824376605022,0.079445551459698227,0.15143253793327588,-0.79530102605631192,0.89428541696253239,-0.13327222409357756,-0.61955632514597125,-0.43768984684080137,-0.69854526507266002,0.2486479514746637,0.28032416608253102,-0.75720999865332783,-0.62434811486090769,-0.146017391584705,-0.43178762294761847,-0.58262011524616208,-0.90721474107895239,-0.17397543807124058,-0.064133827316866621,0.0049241264696903231,-0.7304663436836063,-0.074455808532209497,0.47552113002080332,0.95295815182520349,0.27856600923225933,0.6905820726206281,-0.8363193596634666,-0.83670504294578329,0.94723318235324117,0.52898724638863681,-0.78902230712455823,0.87070416434321318,0.99099614616070197,0.10597906240963589,-0.76334829310171237,0.83544717019085946,0.84972551877508673,-0.46356954418646468,-0.81026861427906716,0.033391961175112422,-0.54921002673848962,-0.35281896174106891,0.47328538532168174,-0.10216984081285536,0.75424496415447639,0.067422077750006568,0.32268084270594938,0.78772019496113388,0.04642268860608937,-0.26460352211702931,0.5532151669943085,0.25573858515551662,0.5331453488042257,0.13240508867131204,-0.30987239046259335,-0.77993872546800114,0.81668235589903537,-0.43422670424034537
-0.38242894470395,0.69776442853195175,-0.2108253757290377,0.35528660741525858,-0.29340231882041751,-0.41680461263193175,-0.83577976527668252,0.73483017974322185,-0.74915585525593753,0.89673616968026526,0.17800496904452115,-0.33835008884031842,-0.96927138609500407,0.4959231662313382,-0.99790677830268959,0.75990645202733953,-0.26059332824297116,0.33149944951487714,0.41098981934532941,-0.85041289191428981,-0.54488765790469873,-0.57483721062668558,0.94552977950585082,-0.17545425907170917,-0.96672643631130772,0.51953213178764701,-0.95503172124909008,-0.60851505095765168,0.046270526680264046,-0.89723019306093887,0.28950345487688001,-0.90001228436418768,-0.11983015618847763,-0.90470193902325002,-0.11662853647498345,-0.54711514416892115,-0.78916597654784859,-0.25252045358788028,0.73524471397367253,0.079223438212696923,0.46176519682332873,-0.20591360381801271,-0.3048432364407459,-0.43085811442367117,-0.79918004973787971,0.20345734542139812,-0.20110566313936939,0.75554199800639565,-0.11640493185152705,0.97047319041187929,0.33616311747764654,0.93127765673429097,-0.82910332534429121,-0.10515232567416627,0.13244812750263296,-0.2588718347927213,-0.50509775940269364,-0.12809604748708589,-0.64561327233743615,-0.52307458228473802,-0.075509950804396209,0.9857393628745823,-0.0033367560468156757,-0.0032746972292143927,-0.18550029341084551
0.31391928210864839,0.88012533437074769,-0.715371441959192,0.052632036529984674,0.97894864692257644,0.79651187293053827,0.51473321990650656,0.09586749360399148,0.48555277155535526,0.67363182749423722,-0.37514460985089831,-0.72667754641144178,0.75077438454987167,-0.8920793405259394,0.096210877750027263,-0.90029254049534724,0.6464694454338713,0.42901613931909943,-0.49451766900568944,-0.42430349083455832,0.94517170395877492,0.48659465843913807,-0.072965734978559654,0.70678825435461001,0.20794957207608808,-0.6169986550291876,-0.42914806247627291,-0.026125555732696079,-0.60972923285748837,0.69581477467749464,0.60884631356311414,-0.68021875102526463,0.90367721925703715,0.34778396542122558,-0.09312813924292844,0.47668683552187757,0.45348293612878832,-0.16921598528099679,-0.0011872135001930368,0.22059788442615355,-0.39712075559274113,-0.12475787670363914,0.76678749914264821,0.34165761346900636,0.99816642242535947,0.75261238094744387,-0.96832065147414315,0.088522203426468271,-0.55867162315693153,-0.4245721737874017,-0.73285883152175979,-0.62360779929457466,0.62751383047973319,0.19614228101531619,-0.26007894929647929,-0.68013547434014021,0.80888391826482398,-0.96227400550216358,0.61689811946218032,-0.21121998344144841,0.32871020746334223,0.062822316482098267,-0.22215421856247136,-0.52406141334916811,0.52588821451529755
-0.6415393469395485,-0.32779394936499057,-0.84230922254169882,0.24333709699866382,-0.50475721439161714,0.47314202790800303,-0.20992513224711748,-0.7265173305792767,0.71451120040718075,-0.01834833424509669,-0.37864000507001683,-0.25930093843730079,0.37405661439660248,0.82565720267726395,0.77973045995999091,-0.88009464003876081,-0.8481234723400799,-0.91836263718872857,0.75886613144095294,-0.4201648194561084,-0.61536304015635002,-0.896798407442017,0.44526649909242294,-0.99588528654627595,-0.39817928735933811,-0.42440457324490383,-0.65412860195366862,0.24245849946452952,0.06687789272540122,-0.81244469383800111,-0.078708933843977397,-0.10516493597924506,-0.96358923078439185,-0.78475054707054914,-0.35670417696694307,0.453375229085557,0.055173131799799623,-0.059273804033804577,-0.87710437186931811,0.053475849274597732,-0.65695789988501829,-0.11173417811927319,-0.49625772616266878,0.3020033174355517,-0.10150786920624126,0.34528525884077599,0.45266405301559987,0.036987901304190315,-0.67040313769561977,-0.58234722820688545,-0.73565599671209725,-0.35183842525659559,0.92221471590510262,0.46497357986646926,-0.82317327686460695,0.32152245894984494,0.74072933265787122,0.94144538274579304,-0.65258317331276361,0.49842619707345021,-0.68249301252883932,-0.76409086834556117,-0.98890209354523928,0.070464279477051028,-0.52469477964728273
-0.80486622083452408,0.34164306356006269,-0.87618265438068998,0.29147553066756549,0.78978972371103517,-0.52188977773222878,0.38086913831813374,0.80221642465614063,-0.8797884525863251,-0.81223927844862787,-0.93258467713907567,0.77903117977100012,-0.801333319734719,-0.70019488231362159,-0.82970515224217301,0.08107519024865581,0.68809438531165945,-0.48609363568327874,0.96925288623554706,-0.473552088391547,-0.094867914192969471,-0.47048350790436305,-0.49353039348461714,-0.081943819065113124,0.29518088515862295,-0.094108289191616804,0.39796408564374358,0.7345500523295474,0.59485327826190448,-0.61661075369015428,0.15786285823957635,-0.28580139931165777,-0.65062117465713731,-0.9434975634369569,-0.8975245300810557,0.45114962376966439,0.38494956870859914,-0.30151030058298744,0.45707224595905133,0.90230122031923854,-0.7074063112477853,-0.45268552480964497,-0.021348709342057962,-0.74259590208789306,0.3328928625832081,0.57041119630430148,-0.6060070968832143,-0.31120040544594046,-0.47886669752980121,0.17107016295882432,-0.5471020970673246,0.21917842989262648,-0.45963834891357097,0.17178729238876342,-0.9003309634186385,-0.91700827180164235,-0.148294276323158,0.63793581119177811,0.43672223060177034,0.98539043382492353,0.93502004527054072,0.33081053127691296,-0.28549024944149554,-0.37330874743710774,0.24999728844399696
-0.48315788303008128,-0.28858744390734903,-0.097804358907981448,-0.5776808978304111,0.032905793705253712,0.86493142066420903,-0.89271276751997786,0.40334023752950154,0.99812896598816481,0.83427871399741782,-0.17272788475934436,-0.83242890948675441,-0.93480269003904382,-0.090103647645061444,0.4727100769855781,-0.58396716610937915,0.77803135763259545,-0.97069092614137831,0.7151556164338454,0.43946211077403419,0.1682102782744348,0.088789896379891792,0.94949012456285098,-0.91628528711657575,-0.17633455445550367,-0.59174007457357691,0.25074416541156297,-0.69172472853040967,-0.25248198203757927,0.43153378737497772,0.73314926974383399,0.57364924029251196,0.4235495343007542,0.079184115531794455,0.61279677311434566,-0.73735900084323214,-0.1401011993497662,0.99132872724880372,-0.61176795156434904,-0.2684420502762363,0.85088356251353203,-0.95317218800917758,-0.77938397106494706,0.67544317096571738,0.71567275956506871,-0.24559692701912331,-0.089067011742250318,0.08279485414955616,0.62985274781549783,-0.174535333821764,0.52060734210732029,-0.82935678171293437,0.8595598278468406,0.16222736692689213,-0.54320240274621145,-0.30230598984414342,-0.48603835214702718,0.037215458372910896,-0.20649795477363309,-0.72219642500498138,-0.12099762757621085,-0.14465231366014397,0.45141071488536244,-0.87177552163229122,0.076884616641327175
-0.32093364583598283,-0.43488499839164463,-0.80798313963637636,0.36685884227688648,0.25594904457852896,-0.16449410374607687,0.053228400723693968,-0.15387306495529363,0.42364319675394602,-0.31018954807336258,-0.41644263991162045,-0.3628690716591606,-0.0049344657162411262,0.49828679684156019,0.45342788390714267,-0.77070028615663133,-0.90414897907788372,-0.74570227124562061,0.43717166816352276,0.72118655478704963,0.98634869009870574,-0.85949225466375778,-0.39676219516465588,0.51206014015452461,-0.5272709633206949,-0.071026765863547392,0.59543911888117584,-0.52307227769787712,0.85319490424184341,0.99521290478677393,-0.036029512658671436,0.38538979638225129,-0.44617089356677053,0.88349547342578527,-0.21092504711641705,0.64488495053114503,0.54927837483870456,-0.91801641692096103,0.42484498324065229,0.94699222499628966,0.20722719098368989,0.97189727914201007,0.40208130529225999,-0.027414158862889934,0.42074183138307331,0.71658697345400546,-0.25586195125099814,-0.55388327325648179,-0.48103827527965315,-0.41022132310236586,-0.40934960238783497,0.048606015636646037,0.39246018151655093,0.94240167411315812,0.85839734340390583,-0.58988713809276117,-0.30075982168167309,-0.062988178720130725,-0.14812758905420581,-0.11484370588513555,0.37105972988554481,-0.37863978531856257,-0.6550888955564147,0.95115111724132906,0.063655973338711785
0.21025873134214268,-0.55180189003433988,0.19647844455243607,0.9560461560393162,0.58787202781046333,0.14475055811954701,-0.49240126190579231,-0.14793972100417668,-0.31514069270459633,-0.48191198428339838,0.74991418416120847,0.1085601715339945,0.6991010011748966,0.59592288120464709,0.0080239705336831706,-0.93391626660200566,0.26545615967476899,-0.38706321694606838,-0.92196491124967939,-0.94206127607250456,0.27049713700403044,0.24910713927540609,0.73624069403966208,-0.15749400093589042,0.61947353096776636,0.85673710200454589,-0.70328924327202091,0.22465828035208377,-0.26913157039243674,-0.44567308582258269,-0.88770143538660495,0.22750796899704723,0.32129997700859514,0.60958386773717699,0.35500151109581013,-0.50567544614786786,0.19909267952162613,0.63993209497109482,-0.94237265278839344,0.56182874120031412,-0.91904087815424396,0.89271421033750331,0.83905911289202073,0.02358835584933687,0.22135083015568754,0.34135263260894438,0.30209280488806434,0.1675369687347795,0.52418830869364974,0.18848801655572378,-0.22469330919701061,-0.031596209298155549,-0.78276957391900426,-0.46936522591354279,0.3139941716901623,-0.93004469441083937,-0.67105977635776737,0.82742275143268573,-0.35767672077302726,0.21274073620877867,0.50120033030064948,-0.83528351985691529,0.056709181582473844,-0.39839073680684334,0.32352124737660409
-0.89493979240691512,0.24339241324836819,0.95194824343745998,-0.45897223626140216,-0.44591102938297106,-0.043523263264032656,-0.30947458238179043,0.31755423909686314,-0.66733998990036159,0.15778598257703771,0.58991381473022098,0.50808052659263769,0.97145917519974112,0.68986304877515536,-0.12459299699168923,-0.13107261094684575,0.97490298974909506,0.57459527369125385,0.81049353676514113,-0.94344847798748155,0.9944368270769407,0.79215250631050393,-0.38964828755313863,0.42771953914852101,-0.090485974740069169,0.57703659745712399,0.45993988168395811,-0.69642632110945546,0.55308684194745694,-0.57144799472788022,-0.047087986403236186,0.28989798867561423,-0.021820371258304841,0.35389754638095483,-0.22542476777640469,0.28592570121635641,-0.62234947911492589,-0.24938100891441362,0.54143816429466107,-0.74165500894841885,0.075020543887371088,0.91387800859765678,0.97847281102857508,0.11502988992863514,0.41900694057171639,-0.10106420355435071,0.013858135977728409,0.46574043032817009,-0.58020280697016557,-0.31976151809280989,0.35971301455993016,-0.36293079789069266,0.38708218642145659,-0.49800867504349744,0.9870898553256271,-0.12534977159173766,-0.31000293377677307,0.5120003632260598,-0.84307061734208155,0.44550481023386895,-0.38891056515531108,0.34246329632506239,-0.12940320366207367,-0.012987635626844995,0.28229174460090428
0.67366129639936234,0.48800729729665598,-0.87840939751508285,0.50233565446495898,0.015630121099644612,0.089584590394211003,-0.68477544217691477,-0.056856085285993861,-0.40286042361399393,-0.8939285072943034,0.80584027191117114,0.5222188447786229,-0.065429940049183857,0.49091975531597759,0.24513567083103766,-0.22648618749643953,0.71182608815374515,0.60957361687884348,-0.20527650022849669,-0.71879301012502028,-0.18510084527235726,0.35952847874778759,-0.80555031533032939,0.65067793108287286,0.56948801362289303,-0.35169478418767358,0.91617816617562875,0.19975401983873517,0.47496702788540746,-0.52905881022396883,0.56331101093556157,-0.38742918893234057,-0.69929560112712119,-0.49589238345470837,-0.097345594906653107,-0.55573856726743409,-0.93673144975655709,-0.76493369141703671,0.80512605709527973,-0.71181836682463973,0.50096920210406548,0.79662258555847321,0.98754758570021473,0.32852402339027198,-0.070485816352746408,0.55058055027514741,-0.5408542277880467,0.49985186948038446,0.23425953964289495,-0.40839210209255189,0.83167465086902703,0.45111751645579795,-0.54725639390288505,-0.86658841842842549,-0.83090760538110453,0.33034193978638637,0.9722451709834965,-0.20443431660338179,0.68894446927550923,0.78191504018002567,0.56369291936006782,0.2202875982391595,-0.44524656870120649,-0.85430373183331254,0.464301871570031
-0.18357146071486197,0.22414984516688638,0.29060953275857593,-0.65357713794795413,-0.71162183195983097,-0.34392991966721953,0.95785660620697477,0.74499528509643254,0.67366875278283878,0.66324104994696531,0.80830499736350536,0.12404083364511828,0.69262725783179235,-0.35472101657031796,0.25735429740137644,0.19845331640133018,-0.013093454083633268,0.56706991501543169,-0.80547253080807568,-0.57531406952001118,0.22514176085570564,-0.70029040767323869,-0.94031883625112145,0.65913778736074147,0.57324577747948069,-0.92713035135404376,-0.71541811149118806,0.74888485503867996,0.90152264390317838,0.74898698732101321,0.56974263935846414,-0.8502109081434096,0.95020651595805639,-0.099499176903106182,0.50232217939424395,-0.42010202166884669,0.0051200571474465661,0.36932564006265234,-0.62967110954365735,0.66315973303578968,0.060789180455660535,-0.25725522051841337,0.73652517632518921,0.90042411462334926,0.50000620234241089,0.67113327023845415,-0.72176130088282398,-0.054237939235951743,-0.93236820864730119,0.47305319338036012,-0.54427043978169853,-0.96716656551381042,-0.87361729194053717,-0.52136633690882206,0.28710842596063502,-0.98770961423869263,0.033478455055754641,0.57891626368132898,-0.32597510430874066,0.85204272039983175,0.90270025767517148,0.44870898072113191,-0.26757472182400466,-0.76980796299239018,-0.94112090530158665
0.1984782882023422,0.43688346476265116,0.10218186625977764,0.69987480635632238,0.41877264327587493,-0.47034371105319644,0.6865559371864981,0.72827765100698738,0.63034888818267121,0.29179350511665658,0.86389196427137593,0.21561733352703694,0.53955906621599692,-0.43231871276218281,-0.67582708342025888,-0.1470740257682365,0.29389513016318941,-0.87527610384485177,-0.30201295968581948,-0.27494448917679321,0.38835789252479219,-0.6944210185716424,-0.52534084785012036,0.23133800002282781,0.55112190363617597,0.048147692072408835,0.18471815234781269,0.98556126761832974,-0.69706338229723008,-0.11428718957150942,-0.24400397119304235,0.67767300929165675,0.35239071756219387,0.48719251067654867,0.55837809262196381,0.14926960973043654,0.47863780972089087,-0.64980628119953554,-0.3243743376678514,-0.85520480174367042,0.50951652555391458,-0.30426370485621596,0.064367539591309045,-0.43822594982727014,0.4438222695066531,-0.55275406069349708,0.07593172215542196,0.13548948174694278,-0.45374560391199192,0.10914449045536609,0.99731568897850376,-0.37328742594828673,-0.019875193752371314,0.13366130395659725,0.049602707455858458,0.41684114234401476,-0.94257312809075822,-0.62068197361540389,-0.67918930017499035,0.75580048717529968,0.2712372418389562,0.94218727488854825,0.52184803475099972,0.44001054368878684,0.95600337763475607
-0.1041044510156829,0.74662396615336135,0.12755101891482429,0.56911827687773864,0.89164552369596628,0.75155128659324422,0.94130161903602017,0.2760162127165261,0.73340282930266276,0.93872534017113851,-0.21398256744594799,0.071538197655051483,-0.51087729521308578,-0.13849915161376408,-0.065479908062689496,0.10831746411079082,0.92132749840456973,-0.34175580127610955,0.73371082755412398,-0.69279274851170092,0.79676941679165825,0.68009297357504772,-0.48445502666083146,0.2253758397585128,0.91737465304370536,-0.2376406745369751,0.67375517146307151,-0.9510700592981568,-0.93722766127361901,-0.01305009860343242,-0.089384551110946231,0.76906141735368738,-0.48509019993366553,0.053109601716017182,0.96526143362953731,0.25507641468819897,0.034508842705408591,-0.48199694040436691,-0.4810432005642073,0.78097215615612325,-0.026086377972787449,-0.9667678293566615,0.96100246363528885,-0.68217832979037052,0.66544801617552152,0.15954312532279288,0.48776126176373769,-0.038943380431816423,-0.33868869501038151,-0.48700630361077424,0.4211790542057961,-0.083339725949090351,-0.76864886936749677,0.96820255853995851,0.54389744538194573,-0.9771602326828347,-0.81766035051588681,0.75846874911119688,-0.38209386493706571,-0.90926950839919429,-0.44332915093970937,0.86533764758306575,-0.53205746000636756,-0.79353772162672187,-0.45596426109990856
-0.78067742826196262,-0.54288260544328493,-0.6243994157878564,0.73412731745006354,-0.79895918330169269,-0.13231076390516638,0.63926996730060126,-0.1517698256428929,-0.98832457962523335,-0.85100171618591591,0.95471152105898549,0.19456173138848348,0.5353350476240698,-0.85820620585376017,-0.038286695578155998,-0.3538835827598657,0.91854946619214106,0.2322312992589988,0.11550041528467407,-0.16917204127292959,-0.90479540078560761,0.72117974349963965,0.81275671342905031,-0.74691434629866338,0.41026606753037514,-0.74161457348307069,0.86859070216279599,0.91720567280111698,0.64138543473213228,-0.24400318816650202,-0.39456787486178097,-0.8053051720346589,0.28829921763351241,0.76863187589169257,0.55171917451114516,0.15250669081114132,0.7112339534243588,-0.50791078828652036,-0.017124840097521028,-0.19408971302508538,0.40565250035461614,0.20044074965868436,0.74442813625797954,0.68488253734964089,0.40756391707673723,0.16256813557939864,0.49667749350507651,-0.66374396707432848,0.52491178228176216,-0.35320501580048441,0.8411782539863133,0.093015191448696397,0.62837107216854104,-0.59191071135909712,0.4928505815260702,-0.19652835156113393,-0.56498207547971779,-0.054436207253257915,-0.17759416071070544,0.64820594141190147,-0.85466976809251716,-0.80101812474245693,0.060911731340381435,-0.78740817323069412,-0.094597513622936127
-0.56830628063981425,0.93814875085157279,0.63602454718250889,0.11893203328715825,0.63723866651193117,0.61931448603405626,-0.96062025993733136,0.92050626992539863,0.095751935192492491,0.2511209475723658,0.71013835085934174,0.7787195355771982,-0.85767089110056893,-0.73846653815916563,0.028097015841813539,-0.83009657222412081,-0.80256445904670781,0.68261460129146945,0.43474662534483594,-0.675106920239532,0.33463067443958849,0.26534526324027635,0.1834012666330993,0.84978103186649512,-0.51728432726905493,-0.13722709197202507,-0.24810096849826699,0.29534466047001867,-0.51507372099032878,0.58944287374718074,-0.60983254788168462,-0.18476777206677533,-0.94562278548392742,-0.200019610713639,-0.60228782696030314,-0.48840468684606492,-0.31686224923421974,0.11598072685408614,-0.25256402142010959,-0.031289328195570232,-0.19570246617751219,0.71118256750654063,-0.4098310933607025,0.72942120427033674,0.49903647148767449,-0.8013539621522856,-0.6947058507365097,-0.69375366987837706,0.77681723671274128,-0.6282857947408419,0.36824125458317447,-0.63773529864115142,0.74952900301403347,0.78657561529058007,-0.93806284024870135,-0.29584326565060726,0.27612973075740144,-0.39212108407510105,0.2978789469876657,0.070908123613605198,0.31844924891651871,0.11805745246936164,-0.92952619278565662,0.23402441750735445,0.82466996318582275
0.45742058175427297,-0.65848363028766244,-0.89695589565915756,0.38640674807470621,-0.17398170005772962,0.42879247532956793,0.37648784686632369,0.67941345971661249,-0.73262749541146033,-0.23902533398976555,-0.11407174649422078,-0.5870119196303325,0.29562671744066388,0.35733873838866526,0.78421355492858047,-0.49534300189031177,0.8065924274709303,0.69953109724209606,-0.85289446162617788,0.6413849995918075,-0.64013871451142201,-0.88467074284950964,0.14969528207936708,-0.40711505556747679,0.55814307519111483,-0.62562736571494504,0.65517866901879152,-0.85444212220237636,0.49133697773371204,-0.1349808129723031,0.3708328888948344,-0.3490919498040016,0.54630400121228673,0.36633095531679022,0.55393570966650085,-0.70077105740122214,-0.62038352277214281,0.86218658385450408,-0.56399509137353177,-0.40765462682893056,0.38568749594514179,0.85543840699700591,0.68329294572646959,0.130630423351492,0.077694951428295814,-0.88444914564954369,-0.89948707237713055,0.36736460148119793,0.96723908882177267,-0.14520786602720567,0.97285533177786843,0.6643237289431817,0.95956173663078059,0.44082124079819562,-0.80777307690285682,0.84350774027438769,0.41846868168809925,-0.52940801341986332,0.62419909788101868,0.46844050503499307,0.17902711250671427,0.12107886171291393,-0.89334887811212493,-0.7994299622301374,0.29915509776444082
-0.94880846083445924,-0.14638286484323407,0.54016961656487239,0.61382911284517261,0.71209959972797499,-0.29831251665099323,0.80292193417559599,0.93937634157912453,-0.47916587069047323,-0.89005798780466716,-0.61632544388879462,0.2339303923046831,0.64879611171446616,0.47030652491636593,0.39030057157241743,0.72179550947393323,0.25181658720966155,0.52349618509629703,0.90104596057607533,0.48580927994678519,0.69818619881826538,0.13298717685021705,0.0095712630123411836,0.88540270900603502,-0.63449215122827507,-0.59424686607128929,-0.57887391070833516,-0.2294615740089001,0.99444965142782071,-0.64903707211903527,-0.113153018921813,0.38921025371905399,-0.0090484923616437618,-0.13406333726026062,0.94404081357963365,0.48470564015351392,-0.89151524420426331,-0.62429117609876661,-0.77803112168282162,-0.093641558762264696,0.78560227387949944,0.45837545585550288,-0.31363539171760313,-0.4949319802216206,-0.85185663685566415,0.85212359273483584,0.7252672152905949,0.1006704761045628,0.36882370033843004,0.14303785752788498,-0.72333426651005839,-0.17933359759402598,-0.84401389332654575,0.74521110938198076,-0.9076750077649709,0.55051221659208704,0.49111822867696253,-0.59875583965912982,-0.87833055131489335,0.36140225725203129,-0.38523897710512339,0.94734819108000035,-0.25232390950811207,0.54926356670622356,0.34245418919794796
-0.21398599114268826,0.12015470107351459,0.78718260035828846,0.38792789113066922,-0.42313772869640104,0.37368041286811637,-0.51321908549571738,-0.66769018670492164,0.59151189990628628,-0.7795323409453534,-0.39977683417729487,-0.99897592999035711,0.41080380080147078,0.07914960107719507,-0.34971980504486178,-0.47535333619557912,0.051043349353281676,-0.45161815419679846,0.49507654218145225,0.1792290329291332,0.39563721849514033,-0.4997837252211827,0.42236887650998983,-0.47924818980498785,-0.31548529337262854,-0.75410000965574098,-0.95067914669164089,0.88489776465291081,-0.88351897653651501,-0.95690684328146935,0.32901815722291938,-0.23160427390384083,0.80793103792679866,0.95792318719166247,-0.943950698786853,-0.086905480888522957,-0.64652247640024962,0.88660683984462241,0.7425592161568596,0.039606843686181559,0.2229586198185407,0.5869571731105927,0.63584268709765002,0.3281756933587644,0.021910880390711908,-0.015820687902217394,-0.97868191258113191,-0.66795030818330059,-0.21497808998198334,-0.4985831883468359,0.66268401749712846,0.054373251390298097,-0.94524513132763532,-0.15035272479839096,-0.835704938573686,0.41273250329571837,-0.84956237018129421,0.40005730974295084,-0.52007934039995241,-0.81456037194891984,0.48155011571668166,-0.86174784870281529,0.5852905500115172,-0.91603439332775405,0.10812352530359685
-0.77585205184213757,-0.92645417271228436,-0.0077197443081605619,-0.51513290397449618,0.35903671558554245,-0.33288680236608786,-0.63868796237290248,-0.9460267319094835,0.52622900160206232,-0.94298659265918527,-0.932738216510545,0.99063442315665551,0.76815124686502412,0.86311753683615233,-0.48860277406612385,-0.084096554408354229,0.31993168410204281,-0.21161286283283326,-0.52938215003170075,-0.51833627087425915,-0.21364932970144276,0.17158909659038257,0.098021736722846572,-0.9826347606671173,-0.24110825132427147,-0.8327782791101046,-0.94324502768696017,0.58746699943135938,-0.3708889196031665,-0.065716183101139858,0.49150604518083318,0.61883127609159683,0.05966602893520967,0.16844175545536,-0.13112623228360606,-0.35805870477550999,0.41179922424156395,-0.71806107924240115,0.048362413821717867,0.06611272870784235,-0.23244608472776548,0.14503776230526061,-0.54511817392357453,-0.54866283297241092,-0.57049303463626078,0.18050635161737699,0.54204749992037371,0.48726975941311934,-0.035124485482677652,0.20958156892981675,-0.020634076162091834,-0.1668677069927956,-0.31922096296072766,-0.64361331399945476,-0.20820089756971369,0.31592960589555469,-0.036824465071795695,0.95733195958827655,-0.86348539366100374,0.40482620448587642,-0.054227858976736036,-0.32386782373780537,0.59370544651449286,0.90045285902153005,-0.47438275040220829
0.10226834965841471,-0.2597425490890371,0.2343203348411918,-0.66273634990611219,0.693898027372568,0.9498045978284102,0.61861061927368477,0.63138362543395365,0.58590074611680532,-0.44871460955410419,0.18232510887760126,-0.96397147104520586,-0.94906935630594258,0.7077109057538431,-0.87789066702364293,-0.13548540283060945,0.21296857284188583,-0.92492400067254366,0.046629112951223496,-0.78974938442010001,-0.60709931879919254,-0.98715494557636374,0.16110848537041536,-0.39376152696049088,-0.62216506382777215,-0.66781149230158243,-0.23675879542617245,-0.55720413108361233,0.69171558538840816,-0.87256891425535699,0.80555565562182718,0.29325439990825947,-0.93864005020211205,0.57560280882838011,-0.2085468750459826,0.51877901013846828,-0.46367293413009958,0.56046676998387146,-0.57264916538992627,-0.96130930264451731,-0.74910039626254121,-0.020480229538124874,0.1475603863444471,-0.1906774283109588,-0.36234550682878558,0.86122854676021532,0.12222566495823628,-0.61226057621435637,-0.98033725431235086,0.72987239854514041,-0.73074395909500012,0.71056739003552116,-0.76837415896409633,0.18588755672675156,0.93477484606722483,0.43602361593158817,0.45433555893469663,0.66597292559763133,0.19718593202910514,0.77150056192341976,0.14173485367719904,-0.95104475155578283,0.41560628146800321,0.92237964097957437,-0.71641729115580666
0.72763527910508752,0.27315873153324388,0.17089026241600974,0.7053046343154209,-0.55784771296846003,-0.82297837724922751,0.76047272813002453,0.20404881451623605,-0.97104512636500628,0.25976265424945855,0.063765294904672601,0.035035999554929337,0.97277581597154472,-0.064811075859831063,0.38351980503831568,0.045987002130128504,0.0014737090907533967,0.20883616534781552,0.586060690369549,-0.36273729297767765,0.74891802471439373,0.070311439725129585,-0.3297816196497122,-0.028730661188058833,0.3255178343183508,0.48036158505803961,-0.98221418633376811,0.14824324587482421,-0.27696386066105078,-0.74429226963720696,0.63615082471631523,-0.34434401774494866,-0.35449313087943463,0.10934959016942876,-0.63427019648312788,0.64015758384642774,-0.16553125842188976,-0.76623117350783365,0.95493151175416213,-0.60612220111324322,0.25812785360785018,0.017918977567800882,-0.4679713951604762,-0.79936257909804054,-0.55884346833225784,0.13287070786821595,0.089781244282590225,-0.7171540979114126,-0.77923379040420715,-0.5274958410826327,-0.98609657261435812,0.70946016978284465,-0.89022335733178626,-0.14232840984227607,-0.79214232134048301,-0.25880214365428933,-0.19778342012260444,-0.41649794710496019,0.66899486430930821,0.10814778854365829,0.78882940471578744,0.23789504775888679,-0.63852134645792347,0.83229842911312646,-0.18172025027265865
0.69657421712192025,-0.52347975655513035,-0.1608660610704388,0.25725261525189258,-0.094008859029777264,0.40516761013202257,0.17824111942200482,-0.58028751259044486,-0.48880954047784586,0.83764440203546653,0.29573340252665115,-0.66793745438832508,0.6425185781417192,0.23300325945217598,0.027481298243490156,-0.60004733752887029,-0.084888844820408121,0.13976420441664658,-0.28630114721376937,-0.17926137424448504,-0.67371485867740644,0.28219956457632633,-0.93993831380965631,0.44122252140999713,0.37943033287251288,0.61405856109596813,-0.83446449069050277,0.078171909784380336,-0.34838987533255877,0.58303892904326504,-0.16878068022778375,-0.99694481343133901,0.18738642659347318,0.46626224340401973,-0.62961414063963028,0.36309858619330687,-0.82497471612654893,0.94173145132467151,0.087034521023116235,0.82578778133340891,-0.2338350040016339,0.31875794082010006,-0.46935909197790993,-0.44845374256148057,0.13047656469604643,-0.70085388414522354,-0.077932814895844818,0.0061112431673673437,0.77080547660567944,0.84987336345686904,-0.95581154725962114,-0.19170627205444898,-0.66960921601864731,0.68524090324826925,-0.53719726063525497,-0.4009428670541183,0.065820178973239149,-0.95910246376217101,0.40008149333613768,-0.090910058078297537,0.9691499670341005,0.63011948524089367,0.9367303510578886,0.97600667011612297,0.3256549579936685
0.90126360857994658,-0.67977314010390422,0.4380042743946771,0.017663144134842872,0.53708473128715639,0.31896262965337457,-0.18922631846576249,-0.071540506695660255,0.51743250949807107,0.2709828179498916,0.31659793571686495,-0.53243088618193601,0.91460919616382597,0.34429038947421553,0.46408421390543592,0.92583419788769317,-0.043017238720735616,0.46421336864039109,-0.17238143278300186,0.62267617427238464,0.68789214625647277,-0.034187957209609363,0.35127281691118228,0.62699457089916399,0.67429907512015952,-0.50269487508145128,-0.0058266284623956742,0.55204120762625997,-0.6355161311944495,0.39267974056532101,0.86536893992608099,-0.55776961202937791,-0.018851837379611224,-0.22904450649742231,-0.36330669929734283,-0.1176527160253386,-0.33417190992223178,-0.2551901268496623,0.70560565965631805,0.94529700062222244,0.62004199668703763,-0.19183069828872368,-0.9315922122077066,-0.45817569239059436,-0.23891706779197622,-0.25630253432380912,-0.64081818922203393,0.74082407809691797,-0.82247805978061439,-0.4626288112963074,-0.18284582285829826,0.15951892154642947,0.9326733391085742,0.68178818000590891,0.47342301656827152,-0.41586062106272631,-0.35336739905572173,0.97714641772618982,-0.87792668924814377,0.37814481390977478,0.28956612928253433,-0.98977882628244773,0.79576786052513393,0.019630542075445925,-0.17542458865968361
-0.53259116488685787,-0.71151432287988226,0.13414648232395271,0.69393064282723849,-0.79159089425581575,0.98165618088147111,-0.53501324778667247,-0.64642651613849755,0.84680921832137523,-0.25593713589873912,0.64047066829279697,0.14236722162932244,-0.40216616401956301,-0.7373764508457582,-0.73855530647602818,-0.80186082143798043,-0.47952787815955111,0.63697445272307907,-0.70045818713343533,0.048269749926173104,-0.87718488861448174,0.65454239953988469,-0.31864490079141167,-0.45949424980904002,0.12169163394201997,-0.76116528954277685,0.26944782108340359,0.75045391784473969,-0.76366926736934548,-0.6879285635616641,-0.20258990007241504,0.91688253831063438,-0.42593144404738686,0.020507215599069168,0.45806816802281353,-0.3139635840937316,-0.86257011399444095,0.9607333363967403,-0.18696607389465952,0.37409059431462593,0.10735192984162722,0.30996470452393082,0.74414770976870848,0.27036508290807143,-0.91147280425082389,-0.060428590144179603,-0.3754790685672651,0.47944322965092695,-0.11438543782234867,-0.0035963429756901266,-0.66564814508910997,-0.026325963520105803,0.13106062020342679,-0.74279071541780273,-0.39952239591843625,-0.87098761895900234,0.33338581653541588,-0.88614983686130366,0.12947041593636222,-0.42205003950653702,0.15048052869637071,-0.48714074291185855,-0.30441344591866881,0.91789035321961421,-0.91043999732665393
-0.65320008530411877,-0.92457744572978218,1.006092774674225,-0.95645860647335279,-0.84377929231313875,0.60568598939165086,0.17048324924680086,-0.87929148156030512,0.82208364634012365,0.87658296435200089,-0.94228400961158354,-0.82125040230048008,-0.090971822954121748,-0.98171728831871696,-0.64199693189833462,0.38371426668709485,0.1763768601451228,-0.69902849371453413,-0.79801361313540764,0.64780298080806797,-0.28851783196628839,-0.26149899316441616,0.50312987532437059,-0.10894362329866145,0.4659785316659234,-0.11606585949370195,-0.23014000623193864,-0.19083636795118325,0.38857582990528722,0.24119080677088098,0.8472168567625179,0.76234278129057875,0.75938465264674992,0.59538177536493841,0.084057060284264129,0.090544141268433659,-0.27173902509210224,0.57164700087383569,-0.62565603408745396,-0.21441396273949764,-0.65010287693840629,-0.46202409370933401,-0.89609732721974844,0.022720038652810162,-0.74237591772233757,-0.85601827674806374,0.64566734476703203,0.86361605101626338,-0.81198681835418807,-0.63880911260115791,0.57315335192420258,0.56009922005400903,0.15451866401493228,-0.73376719802410539,-0.097786223310395798,0.095771619656879359,0.8398364916911305,0.32979608284212036,-0.50833686203478456,0.36506999635341847,0.63055226065298187,0.31880895068255105,0.66576976836070934,-0.18831490548485108,0.70361552973004904
0.71706373295890324,0.46580621845284104,-0.76133239280319298,0.48938762171550787,-0.65194465803021162,-0.24300276138578464,0.89350673793511182,0.55288002396869085,0.40076707765267067,0.59682540633355552,-0.27714128737869553,0.03051148390054478,0.31090842443742789,0.032095527043725626,0.68259584405547091,0.075224170943022764,-0.69580919087749293,0.61424328536116279,0.54873857270243565,0.25334134288015958,-0.8949314237631999,-0.060450457706838441,0.4687606574837655,0.91988339217883153,-0.75348738829361217,0.065288358098109803,0.72923556022832814,-0.93145313203449309,0.90291621558437107,0.71725662285363989,-0.78024042766331991,0.12366144200857339,0.41495341027951843,-0.31791893341416189,-0.85100581331291048,-0.57142006212355023,0.05059311365908721,-0.64345779902863021,0.041971554768702811,-0.32029643210410269,-0.96506714632161894,0.35412653959072787,-0.038049729982237886,0.24158901911001179,0.23352937939917226,-0.059411946068388018,0.56218421649898753,-0.2810768029236993,0.47294844496187055,-0.69580746768188217,0.25213123283075578,-0.72906236363662391,0.78620573706368635,0.053601596285683471,0.43166606583438977,0.90840734680372781,0.11649258106505579,-0.97326584232708035,0.49917980727877259,0.74719483227791217,0.62675468470313211,0.046466431917981901,0.89869366382080762,-0.17349831456825693,-0.29902169556693164
0.83827898806921453,0.83970439416505749,0.81463811297409516,0.51190466133808799,0.28218892551023167,-0.33525808384155165,0.70911046979899872,-0.9312880339315236,-0.59496965478473296,0.47785178322791194,-0.65050876754356712,0.33870325779012078,0.9056969435477934,0.43586707886004394,-0.4179270778925856,-0.041016902704325904,0.12121971540363942,-0.9232583121899901,0.088096012674534069,0.93265855704903278,0.52523293680483751,-0.98771236905770121,-0.18560806055148818,0.75111668113839858,0.15264462002051268,-0.81440922690374706,0.31500673731767326,-0.73094501490345853,0.52505716914073719,0.33560914629771715,0.89601586211952544,-0.22994767840961833,0.35310091785507186,-0.22986738866140466,0.36672981007300709,-0.36101072626899255,-0.75060605517941459,0.93327035985391193,0.6284647304249863,-0.046755834553758494,-0.48110635129173884,0.40932461842780837,0.13853502705290646,0.39375646925241414,0.51620233576069985,-0.028101372084480884,0.1265376509802239,-0.49952346568603195,-0.058143616943615473,0.9586534473161501,-0.1188725506159239,0.62418922666402632,0.12823297128409658,-0.1444632506572017,0.22409600218702885,0.37384392396069316,0.66398416739820498,-0.34141380101983898,0.40765992642174786,-0.93677048015503206,0.82169965900085506,0.076479587502784163,0.9730387255306866,0.56667853083488329,-0.43465997021593511
0.69668523490908751,0.014719762146611953,-0.86724906579441552,-0.69861269629180012,0.34472738213964393,-0.18453296240177125,0.38702287044889933,-0.1770113969106101,-0.35340907597316401,-0.51239012657789407,0.84642420583356537,0.71511286583580258,0.27494017350670319,-0.21211176820805033,-0.38475748106259078,-0.81104333197645073,0.31736875054030789,0.74866727181839177,0.21954177933693711,0.91305711968885417,0.14012193095519421,0.64696688601379437,0.99560928657405745,0.91347879118595154,-0.72969655284178836,0.1299683880035955,0.71244746813206139,0.12313194046792329,0.22960776033848879,0.73868197694941917,0.90965543225842538,0.13663423207843675,-0.52909506557052799,-0.32413880503628351,-0.51827936486818904,0.97244015524024585,0.043666204526795468,-0.18578867529476681,0.14837951751230063,-0.11966751441093833,-0.50055095535493643,0.38276697677078381,-0.92961475485874001,0.8241716104648088,0.43522642000076944,0.24783520777674672,-0.059847656798197063,-0.09899901198535159,0.31463372507740317,-0.36182672252775777,-0.68998918067464765,0.77280730844583712,-0.48111749889009026,-0.66141626004080289,-0.53371748781926298,-0.59839036451373206,0.032866155493825676,0.44062817574954871,-0.61084263953928164,0.94405698690505246,-0.69536305072532123,0.44188729737914534,0.97695762938499442,0.64599052723479855,0.71114087056404685
0.96289655637787042,-0.14762884680444996,0.93865358962196854,-0.33643307396299044,-0.066912055989490751,-0.46756351306920696,-1.0046839447194673,0.72183110154449859,-0.82564874740573302,0.45066970168105003,-0.78796515395192424,0.16394918806290953,-0.83815837819829564,-0.35874231782036498,-0.27235778519408782,-0.70502125000531091,-0.50151475565435888,-0.25112914753793925,-0.63586577997951221,0.021362134294052534,0.21916725380440208,-0.85086115833342435,-0.59619020216018193,0.41575757952978065,-0.24940116230428244,-0.66507165084285513,-0.91015580409972752,-0.92812797654695889,0.19579594503891581,-0.48690614763587037,0.22550667581149456,-0.17322258699781892,0.84766391863102097,-0.18397269242914541,-0.17010703625334822,-0.66081326028541432,-0.51745833591327517,-0.37309421006225701,0.85475775874424009,-0.54278574759435594,0.78280646914727436,0.72091199896166536,-0.57694431390358913,-0.4321941245064122,-0.44838581470446992,0.24759749556544963,0.49672533779646622,-0.053713849751967579,0.028671925966632719,-0.77124581373908185,0.21812593322693116,-0.24391917565527821,0.51865762990305331,0.7135841981944272,-0.39394602022153985,0.55817420188951794,0.60906225284130178,0.49586538165645672,0.68252513178098095,0.064512472713508157,0.49793205507230764,0.33912144502836855,-0.62790965939855625,0.47627065828359183,-0.20338870994886554
-0.69308940743705794,0.015807568557840851,0.82299784803716425,0.060060956990501062,-0.41850026634860887,0.63905620363546978,0.085740831189535058,-0.42087663801918751,0.096295162596304676,0.88811101074301457,-0.11451866729739173,0.51956315371211514,-0.97908396956393118,0.72977483500095053,0.29846461346180519,-0.9540866110636772,-0.53169189126204364,-0.15570487379931686,0.025531812739711352,0.62204272909673608,0.34717359709533113,0.012550407801055182,0.85898435944095641,0.88755283905624416,-0.51624534821241463,-0.40308951518948632,-0.41889933087543829,0.078987011593612544,-0.64198249054343792,0.68681112497300967,0.82836249716536092,-0.32233800484368608,-0.83180033061110914,-0.46058415115131696,-0.84173203640703409,-0.063940305649106757,-0.94371407268641005,-0.35296217943634894,-0.42454371234904953,-0.76803953323047713,-0.56263458470387817,0.094073811745321534,0.87167526457807987,0.13308747279076605,-0.91207039887668129,-0.67039582818010923,0.36962922004574839,0.61449169944090898,-0.41894541022523868,0.46809396987167989,0.52720609933129114,0.84185716521752574,0.47363225290398991,0.33665543419782856,0.9625703238569111,0.39307134612487826,0.67982163527320727,0.70394066192629801,0.49025115612770515,-0.55642292271430838,-1.011466703468358,0.61521236554437031,-0.45840715808922466,0.20885164048733509,-0.78718025953766713
-0.90669163864979585,-0.44130025692979158,-0.45000956236143974,-0.57612951774312171,0.28021334293745415,0.9096433789324837,-0.48001654471914174,-0.44806947346883913,-0.73641753990193237,-0.42789207846292798,-0.16611635891311688,0.33743205201557902,0.47475481490384802,0.93922271447561345,0.55832274583678265,-0.91629621667613625,0.88720562806080183,-0.40319481093267473,0.2430681023991198,-0.88031546052855714,-0.82400028984054641,-0.19667471818005786,0.32648596012990749,-0.55572567279312035,0.86160255394025242,0.95588635655609155,-0.97124112149346065,-0.96764913428786337,0.77252393556630128,-0.72697481271413233,-0.28757118567359724,0.02020071611092986,0.24180655189554298,-0.80418900196905974,-0.67598320443587623,-0.7330539166807033,0.59268194749232672,-0.21755314457723798,0.97097912837395139,-0.30494361747721149,0.56938744621288995,0.61161484592707849,-0.59671777108381918,0.45561125876203812,-0.079293334810222077,0.89793105402625284,0.93611205690048571,-0.088764854654139885,-0.69058610187695879,0.59991017461651064,-0.46178351077561791,0.56929223698163811,-0.51465367364491954,0.61944817738920144,0.062169348120168257,0.88405483529041251,0.89901482297574076,0.63454849116481227,-0.50897352010522801,-0.91718293004543816,-0.52191023313096607,-0.95238806513397256,0.40027001339577395,-0.80538254778871499,0.15039529391341783
0.50718036153803303,0.32854695612556589,0.72470256490614893,0.21726117085430299,-0.19565133896482562,-0.66030230129972622,0.63924166034382446,0.59731496973987652,-0.10984640010960731,-0.34010617599538989,-0.0984831503716697,-0.59015733959779892,-0.079393938191728256,-0.14155708214077786,0.65038537730445001,0.60328712341135471,-0.94583866230127456,-0.25931326561097318,0.67166004789225942,-0.5474854950046717,-0.54884982573041297,0.96011636676135104,0.67470436556189495,-0.20147866113260784,-0.53997058955899124,0.82234038565362755,-0.67419512767218659,0.97560234197212836,-0.054985522805268305,0.46451948359290102,-0.18272312438523922,0.86978736697319958,0.95667221095208488,-0.26879671315451853,-0.14003104127120927,0.20473541088797939,0.54859261284932714,-0.52938175797288178,-0.26718485768969075,0.59697027946638448,-0.19147263852562388,0.43399128079697041,-0.00014021203226726535,-0.64341725275228057,-0.36974395155509993,0.70853615894409605,-0.60703336600950009,0.055822957637467037,0.22287088065650115,-0.45402430473278338,0.4867852233893965,0.75657497094629989,0.21896255297531661,-0.051892229296584706,-0.20816592017836241,-0.13823780299289234,-0.77145147869550035,-0.045667025514531688,0.00012483692157539577,-0.37689471891762694,0.33918706542747074,0.60424291431886823,0.72352110273443548,-0.34604862044625539,0.66917127886505323
-0.5842095358215863,-0.92666123524130128,-0.80733071897393838,0.83372906289292548,-0.10641536633059176,-0.29180556432575055,-0.02279113756586524,-0.47703104999236268,0.88163266430588905,0.0019129504459362073,0.50274087250691168,0.99139934373859817,-0.62679574966979112,0.26182031039394116,0.9428838848415807,-0.28145282533826155,0.75026654695852135,-0.9327504953700666,0.077931326446736851,0.2901418819405589,-0.095478811763375249,0.83707181747398007,0.019303848025444856,0.70851036098193676,-0.16296222421951545,-0.81124305658177576,0.27098504129573797,0.32821019785316513,-0.34048052894065911,-0.11435941994635465,0.62457986457809744,-0.8494432434251008,-0.025595792455728478,-0.02569928153981655,-0.20207567876153576,-0.43870871765146202,0.033491460766791208,-0.82528775907077501,0.35963659865951875,-0.47149184523316595,-0.12428850372976755,0.98694334435822217,0.97447129804031474,0.63649781777060521,0.700088615074417,-0.25294697906422142,-0.79798725165910234,0.81531642131900228,0.61075119734471128,-0.4731884188576454,0.054940306529580811,0.85467609052541405,0.48816498112675716,-0.38411574313273383,-0.19258562432718659,0.12475691335449691,-0.45532462841457816,-0.87752105015449777,-0.33712310470081025,-0.079892625755657073,0.58674355029822745,-0.0070790420338465113,-0.23306999449213855,0.46563133169556709,0.6380683594444686
-0.81801029336731057,0.0020635342528493969,-0.7836816972182159,-0.6146512884808627,0.087555085141389724,0.9417246703209583,-0.93134897703253305,-0.9957243077180028,-0.69223763799286053,0.766046270100189,0.78379355147225727,0.77156148504949562,0.56038998435125409,0.57655164517569124,0.13279407929277304,0.27445111311741421,-0.38485119406631607,-0.52765683024507215,-0.59317004499096404,0.27368293474898719,-0.46427469757538309,-0.41426662762526556,-0.31903468609082314,0.10963476771484101,-0.85668778284453928,0.74373526342300744,-0.78533838100125408,0.22637585830015586,-0.39769076592563618,-0.24810999418304444,0.88270983300051498,-0.64923930740032165,0.94185736127323194,0.53281518934720673,-0.073853536746681783,0.62927735711077359,-0.12586099740991585,-0.51559054310939534,-0.83502100987718431,-0.21217110699437408,-0.36376597076401179,0.20911724948511723,-0.62385223420974212,-0.63175824189698837,0.032492536353836893,0.62727702994724255,-0.49955361217169764,-0.48514762031984243,-0.32712508523837924,-0.55165024757767966,-0.65135326385449821,-0.98172631137096433,-0.394533016366234,-0.98380688675648409,0.32986304919092119,0.056812986747166998,-0.090440470976009477,0.90296911266660995,-0.80184337022044894,0.55512907356845098,-0.58630799006707712,-0.37887340071537684,0.53097342636618705,0.61273731111826724,-0.61040113569260523
-0.091432744469305993,-0.66709217937808729,0.72725406729964603,-0.5676702577984909,-0.53002947822707791,0.99855116750557849,0.71885006671474971,1.0000440657246632,0.46636369900904739,-0.30761276096135448,-0.50197511819950869,-0.17703397775578292,0.93680203633110792,0.52420363795005098,-0.79721880123171029,0.073242878944830975,0.24578957151375763,0.34048489377887342,-0.56378563430474082,-0.74693194883549641,0.30388386664999145,-0.59058867227071177,1.0123178044067696,-0.55539242768498009,0.92372712196154816,0.64977538631208931,0.13916756448153686,0.38887153381236556,-0.85588025263802281,0.25599970517884929,0.39645178630184991,-0.12291049041260776,0.5223784469935836,0.42646205631653983,-0.80432132502663634,-0.67340216488246507,0.65166177999029218,-0.25120753436486065,0.33269007521208122,0.95408653429204948,-0.75973584351690904,-0.62446777648806284,0.1566970684666868,-0.64308937977489045,0.013739142209869451,-0.00037814173922714783,0.91865122220750339,0.96029315272902149,-0.91471084802355307,-0.22757679602628181,0.79952551309922271,0.65827004884562457,-0.076925427793678489,0.18346279655138512,-0.71637090978263951,0.15635165509289553,-0.11416936917850397,-0.86923296061486199,-0.38410170665213289,-0.41078879228670234,0.79980378400822982,0.6755703135948764,-0.82824916420683703,0.75267551954780565,-0.21451614533460125
-0.21203024588960218,0.56353961932210628,-0.63471277987143182,0.50810863252545346,-0.33974088551316939,0.8642239938807762,-0.71364326076259632,0.39466941210976247,0.89124114071534066,0.50809365986697075,-0.040904893418104438,-0.80865735470479005,-0.017308216700570735,0.52789211022192983,-0.63341440036172325,0.40774726821342105,0.64350103321950569,-0.66671306303298905,0.10429225625600953,-0.76757196294341756,-0.60932981213991022,-0.75781175979135484,-0.076741812332266318,0.66418717275643935,-0.63437619960130975,-0.16822293027143043,0.043734151042139409,-0.49595513519380402,0.66093085458981626,-0.86079265597453181,0.25817429630908356,0.73170562756229718,0.51424331544641833,0.23344946632809974,0.45942765548686337,0.11178615576800521,0.052545612502595103,-0.39147181843707896,0.32130027968004543,-0.95410079742073006,0.50612737024391052,0.63481921057022739,0.73356960048287223,-0.37908442853660157,-0.70721087602703792,-0.30418726527864964,-0.081901870459942988,0.22190992469924442,0.70061550286635288,-0.20717818413673353,-0.3793698150533496,-0.14534353382619036,0.93332690220008985,-0.78691927885341173,-0.074929976444161661,0.90061155380790492,0.18848513504684267,-0.03041229185888724,-0.83403944476745784,0.8670140704407211,0.1818463564329531,0.95803233819291511,-0.41834121857494927,0.88388339246443959,-0.73208318225188196
0.87926289266534141,0.40580854327505483,0.13010427669197988,-0.24842000437568884,-0.94147576384975584,-0.20319050584214543,-0.2326788389478027,-1.0012245933257937,0.94305129070741844,0.38623732415360462,-0.8550354435198303,0.76958245932401614,0.55767850751034742,-0.74914018298038332,-0.67300377328710337,-0.99121248603570911,0.8718001762396177,-0.21923831083442979,0.95712590477876713,0.25160585622944059,-0.61026603693912018,-0.91985172199927867,-0.80855422045269876,0.41518008268780437,-0.75868861778716301,0.28599083438026013,0.014540953392688056,0.39949439857871033,-0.27664779151453384,0.91131933294161571,-0.54470873987611879,-0.056838025266580175,-0.55834920629072093,0.31265744868549178,0.24927326391043739,-0.42553682393617265,0.54795525694436253,-0.0058618727316137485,-0.58351727393378527,-0.011128385011794539,-0.19785800545292329,-0.94691313680930356,0.61944394248485535,0.93310233680509991,0.21875366292823462,-0.018815244651372572,-0.082987106578644484,-0.22113957205790138,0.374942140556218,0.054132473732977332,-0.72426052923171136,-0.55366626295653876,-0.094938213312632136,0.4241407920425419,-0.38335245115357369,0.53429793735997577,0.46156609221582734,-0.032587251764840897,0.96094716383621603,-0.4994658799538606,0.79593671842574421,0.065725025133231502,-0.34539170903934607,-0.65504463073838293,0.18896233606543314
0.62616146784065807,-0.57056203990564713,0.84798400657685213,0.99638180209847893,0.40770466919339282,0.951131939704428,-0.8034982040373414,0.67850926341398532,-0.81224713747600497,-0.56760853191767213,0.99061300873204716,-0.73477978486458917,0.33302218946286616,-0.29015272463832142,-0.633083880862506,-0.059227890832705368,-0.015354329159281378,0.052105772889350276,-0.37909560257139963,0.91812620258026723,0.80043335762563206,0.45978483139183995,0.1271866713127735,-0.70022306866485939,-0.33408341907218875,-0.079641794522879811,-0.40405151685804175,-0.26618845545943448,0.055034478382601448,0.14739470995021833,-0.88032856951147065,-0.37760941172850387,-0.41605939898632693,0.6928452305162851,-0.37213903414635358,-0.95694366958464949,0.88080114010945776,-0.46334886642145867,-0.100384240430237,0.83149454358222197,0.34368065409274678,-0.72706919609535181,0.51471383134517479,0.66089303902917229,0.49980465939544677,-0.46428553309909637,0.38520456906984141,0.095561116513938157,0.62671168120645793,-0.66155002424305609,-0.44736202298905664,-0.52154245846575953,-0.92602528861439604,0.98046867989907482,-0.86367373125469682,-0.70855791526496315,-0.16675732702313226,0.89986832201557376,-0.24782105389377071,-0.80126835194606338,0.1092268113488865,0.94263905466312481,-0.77409476888134543,0.36834337042517062,0.17574019721318182
-0.33723027333417971,-0.14339164353090633,0.044081355851487106,-0.33343381437183972,0.58375694388422972,-0.61526704339295568,-0.61905257572130357,-0.23953250593943828,-0.81162520085610379,0.18195911506318502,0.50803836228230903,0.44577530207272081,-0.010597486186433238,0.64649090314006374,-0.73670143149856249,-0.89498978367848148,-0.6910058912098842,0.45793290504879408,-0.60384974678622882,0.49432352847519684,0.36513494230604804,0.96961656705017518,-0.20217157454656612,-0.47532433283594749,-0.6683624820186953,0.26774756557756763,-0.24076884537359636,0.21921216436183102,0.83339671239313884,-0.89969028856066591,-0.25787738912637342,0.24536636683877311,-0.83149742812892158,-0.021748394700223578,-0.91318442618602658,0.066475374472291904,-0.36845280079758019,-0.26479252361865535,-0.27846881755665553,-0.90482518303833248,-0.0041706898657441925,-0.31821899656212066,-0.79026676840116106,-0.74589802817806128,-0.93420446124770851,0.87955925245414757,0.86045030673605716,-0.41592981313907784,-0.33107446943763236,0.87839966729743113,-0.019324019134717804,-0.93816494280513152,-0.81545575042222274,-0.85711550213842347,-0.92419266998597449,-0.48803850313226005,-0.65224181448581586,0.85285273881344781,-0.42398149530882517,-0.47252977493707438,0.80350699521364399,0.60834932853488599,-0.32814372690063537,-0.35295499020787735,-0.8063811719325874
-0.72716595250471983,-0.19345417285285429,-0.20829521995791395,0.63655590334106082,0.91869780653545552,-0.096279590339915233,0.58430247387494494,0.11223508264361426,-0.14592789623214819,0.084047778752055463,-0.072858567640832206,0.53351199056301601,-0.10752666234351339,0.71521254681197532,0.18784810001627966,-0.4488629347968297,-0.67734123494301079,-0.74062631522020927,0.57616259115599544,0.97626555117118285,-0.31223124142936143,0.38669860163945402,0.43860395026527538,-0.15056164833246169,0.75151394016988549,0.78509868972079044,-0.1749682246824581,0.76531001345380589,-0.61606710389268571,0.087334418798922717,0.55599984637818434,-0.42519923579627905,-0.22025726558362477,0.71957117607189369,-0.14200857811295101,0.11804736620593821,0.33420743313572604,-0.54233748903426193,0.68903628625160607,0.72147689242059432,-0.88403492067902179,0.10731853569257851,-0.12010963919355247,-0.64880833803323701,0.56830806726165373,0.69488002735148002,0.24165540075965589,0.59954045811630807,0.034863056392244705,0.88406302014338778,0.21129499543789276,0.65869477642107377,0.075462302059573078,-0.10585079415618123,-0.90526496469355611,-0.017188316299120984,-0.52924809071871259,0.60735722178118057,0.71707828387661554,0.45619830164571895,0.67187128474966618,-0.089431631696914524,-0.028610989742378291,0.94747329265520952,-0.55549896523898445
0.27967716336841564,0.40789089627093805,-0.56608592945307445,-0.97015150283481799,0.66965326916064816,-0.13403100576304891,0.055671537785127699,-0.11656091435455598,0.98233457831333415,0.39362438024000523,0.52945983317503509,0.50507612896676224,0.29861168378731529,-0.17726880619174626,-0.24764501024378147,0.24787119966278973,-0.33046132382656623,-0.58812675874479736,-0.49884722104821755,0.65790132879444374,0.5979670683942605,0.71942700173272145,-0.92548162243831122,0.27894780474891412,-0.68167757744307544,-0.33797795745415926,0.48197765405982301,-0.9630418353035346,0.5216325833227633,0.31238334206089557,0.49849174877750013,-0.84725703657533113,0.11305530078805914,-0.41637946780701457,-0.042426753868721363,-0.98066291774485503,-0.66292366842729111,-0.24242395393716576,-0.5266501035320954,-0.69710250454205103,0.46188345582479517,0.35975917843156507,-0.85560780424247129,-0.62301135613679204,0.91376610380683243,-0.44168366733447434,0.6646465893072574,0.24209788492202677,0.76566717800386497,-0.085776047155261825,-0.57919066108433737,-0.41916046243992844,-0.74178186068291385,-0.81927166753450298,-0.80917727034300024,0.7536445491060384,0.0458936531520521,0.071881028810604222,-0.48157304206679191,0.24055292666756792,0.18236788508637988,-0.26928869042929909,-0.079024852606824805,0.20358816217415426,0.80107638104887491
0.34608376483711417,-0.37797633964630289,0.37178789512894722,0.35651156951421858,0.41959100980924208,-0.69619187453070752,-0.41916037964253872,0.97027583725635991,-0.98796288393025111,0.063522078487156006,0.28898814826901648,0.93146827499464635,-0.59174530683292847,0.29807366877326197,-0.50443802763631129,-0.20377238619256133,0.3730136545068849,0.49798822914340407,-0.40208431857039995,0.41433896231964895,0.31514994573685223,-0.60295779544112105,-0.97532488893295055,0.37827322962257115,-0.041362487663547776,-0.53718310360818378,0.9886840995831504,0.67642515656207425,-0.41005345879935506,-0.20116620779618832,0.46761896757755828,-0.38083332547310927,0.788819913516281,-0.32656777318639302,0.85345183999334451,0.72352178913813181,0.17805337493747792,0.3110657741346553,-0.5271096773843682,0.51724555806841677,0.62672071292751574,0.22821695671984477,0.42104236100223397,0.85074237000987463,-0.22214758127782147,0.59423137690168004,-0.29726185189573456,-0.65503419048326761,0.87185314121131841,-0.82243725364376874,-0.45826191814187844,0.52810967457765268,0.25717558577750366,-0.44069392608398422,-0.80185809752966797,-0.56778072300357085,-0.56841073075953585,-0.13485630721949829,-0.015040267150594724,0.084183005149380152,-0.68939740548100092,0.79936897839727727,0.46785819231216019,-0.78863539842953201,-0.91365021720551254
-0.046555968207568764,-0.65907114460695904,-0.031166279044593771,0.072711805133848964,0.41065987902046636,0.39648859805137787,-0.76025892023349928,-0.22045572847734751,-0.38154992441923313,0.049002302004984719,-0.02564626675583128,0.2907497791944158,-0.16027371732938067,-0.27584669138116963,0.38961477706399794,0.70404316834846403,-0.32633905410214858,0.29818218816390385,-0.17449491130712633,-0.55946716615753211,0.59848055852127491,-0.39266853891287501,-0.10574308513387168,0.67339218705674897,-0.65551493984787867,-0.40619615907848028,-0.073886869149058745,-0.11739682116785352,0.0010729741180116629,-0.98373284021607854,-0.93319392692094616,0.19022599744117244,-0.98465301209245581,-0.20522532391349951,0.21697759239860562,0.39783813103977289,0.29402420593356671,0.4707579372333151,0.61988955810551361,0.43590887161900876,0.31301101083504768,-0.59630693264137014,0.8937139175236215,-0.91405006987070192,-0.10790836319296394,0.46461335158008843,0.14548471173864708,0.90698025444782193,-0.32259644535527948,-0.26042754073803387,0.12314447459225362,0.82707830523482739,0.66465856509533627,-0.58676281051225521,0.94214217704817926,-0.52286307790071929,0.88709813477903232,0.078290148798972767,-0.7685905037075359,-0.67791848564158241,-0.19656578911610301,0.84820205579755126,0.62478082231520748,0.53455396810665523,0.17268004342384324
-0.4185561084049686,-0.017704388404877484,0.63544080419015669,-0.40993931160739921,-0.76686853465498339,0.075246731730041511,0.039944130466073507,0.40283748322596019,-0.91628143611444202,-0.41112795741154384,0.22969845533886438,0.5835906833254414,0.75490765581046548,-0.73772456723446678,0.10459521751279077,-0.85342351772579428,0.0091050329563595669,-0.052668901086096086,-0.076353314264498859,0.98121950131499158,-0.52785290406260088,0.51352677323597173,-0.78067810947081506,0.77142197649051614,0.0055547831865761076,-0.54803357181038359,-0.3937552130808018,-0.5513123832515987,0.45608405238886252,0.47597419882835074,0.85335587970970139,0.44108878649679273,-0.45591095363311235,0.94896312167648456,-0.043501635450607333,0.88322092374725081,-0.66176056456986876,0.25584229034720929,-0.32458202080098686,0.36117552530545688,-0.55689515825589886,-0.93564704793485076,-0.94844549935129463,0.81587112129164396,0.79721274751808302,0.093185049823021324,0.65381557610600294,0.41522064453330859,0.79458988256775243,-0.79209963505508696,0.17086013920424958,-0.33305738521663442,0.72252879850795093,0.2157842226073273,0.74518246337454586,-0.16659034768013817,-0.60749126263057796,-0.70274211789486896,-0.015764047055582854,-0.61604060211033973,0.71066756882553217,0.74612824128642286,-0.96489516401864417,-0.60416807078435031,-0.92140122077537634
-0.94640458896137636,0.98033086007495573,-0.15948998194754152,0.54783807184124511,0.35815217617111761,-0.85315742201880429,-0.7955198381912395,0.47809313042512913,0.28761960028883754,0.81574646637650905,0.63466276222226858,-0.085534839134515428,0.57036533085657959,0.73225602052761474,0.6370975207719014,-0.96414146472557194,-0.42163790349724306,-0.56018381175816956,0.025161156774833646,-0.76362550534476226,-0.82140862942434623,0.11237337906259021,0.45754043117043408,0.25727727016680108,-0.071641196385509712,-0.57483909005336287,0.42505965990688022,0.65444947825875111,-0.81802638693996454,0.27787481947023246,0.48889633055780973,0.20153439589733699,0.2357815808172887,0.34139713144322054,0.20097067234937141,0.29019325885797603,0.63042868142108521,0.081229832467280577,-0.36991699346442108,-0.40007806564307502,0.17136564490683898,-0.93792747520029152,-0.47008007205764635,-0.036705460556772172,-0.26447952772636119,-0.84432370987846084,0.48255292196241378,0.68902649016676709,0.3323084021002613,-0.6156691723566794,-0.88008173289072222,0.17893245229604909,0.25490147324385004,0.71046737572238983,-0.66316217002201472,0.68124656882119938,0.20926751433730317,-0.41359696802545959,0.38373873993505592,-0.62986248341117079,-0.22761431982347555,0.57054120757904669,-0.5867455125404103,0.201400376893386,-0.8122534359311202
0.27946946140502121,0.44592450694414432,0.16776030194734209,-0.91110180221668757,-0.13171158784562242,-0.4873431564309284,-0.82726311349292991,0.15789590553607424,-0.61537024789908867,-0.74547024339317591,-0.85198805465938154,-0.62437774699281112,-0.63976280033658273,0.14204153882540105,0.029097506714923921,0.21854552424593796,-0.4323931320564105,-0.94645543788240327,-0.18184521918763585,-0.80099325104175001,0.8018223139835835,0.30759725997034326,0.31872910642421926,0.9624266635314418,0.090501842490169612,0.0098462876016450311,-0.2144424255066619,0.97339583596510082,0.71788036621919626,0.77398387269737923,0.99986869987423088,0.044215878785349452,-0.62834836339044864,-0.11016609699037701,-0.7035061961655189,-0.057482776405722177,-0.8283797265931514,-0.73135773814381355,0.10275792380041206,-0.4103702285185899,-0.2124114337778012,-0.82062472296448585,0.0187866166251104,0.3647199303233471,-0.154299176020992,-0.93844083908294806,0.67835253690712216,0.27104774184968405,0.050906346316074207,-0.32861479733598825,-0.96255587209317017,-0.82120335517966025,-0.87104728521816821,-0.44322552930358944,-0.39605935150968957,0.011979114244143284,-0.61833145308620685,-0.45094154894127553,0.74655599907654069,-0.34052195733804203,-0.66626811613487447,-0.35044416366287245,-0.40923163182875394,0.87700131783178759,-0.53244634307298744
