-0.14490499909849022,0.3001235346301056,0.97690809419358116,0.7960513231676497,0.87366077555810184,0.70856662622648448,-0.1030703537110092,-0.9573423481532648,-0.45360105441919107,-0.29960973128798518,0.57583914274941095,-0.0080283720276744224,0.026267475829731313,0.3187885655427582,-0.43875183587673378,0.80537099018112113,-0.87756768468678192,0.86869793680635743,0.81566080583840384,-0.62367757685380121,-0.78614648368729112,-0.78798966386624836,-0.54251913189278567,-0.46564608482130443,-0.44284372630317337
0.22297193629403839,-0.70598353798671409,0.110796383526456,0.70532933606763937,-0.030470286456419277,-0.13224816903770351,0.98322187351112955,-0.33479748386037622,1.1829137160605201,-0.34542214191149651,1.1106886996471266,0.065062560451322068,0.098103027574221097,-1.1841252705507765,-0.84179811933899351,0.49625396611419509,-0.70307078282256252,-0.042003039642312272,-0.84167553660831917,-0.58417823915950973,0.77677203556097651,-0.13797101325277938,0.25740465874113794,-0.23189415873801988,-0.45894470091084533
0.39631231718638932,-0.33986463931932287,-0.44239770822901919,0.79420407935267878,0.51226910753775001,0.22386856566235686,-0.85355638669165823,-0.67268665816998063,1.0210534905368847,0.22924403834696555,0.29642813703684656,0.88193559601402882,0.031604650901461237,0.74596898601933259,0.19822239664183702,-0.025893397239147214,0.9692160549205745,0.19356247743976979,0.91002106183360432,0.76443914124498102,0.17702185435537471,0.33884548994749913,-0.054723985612230769,-0.7450985922442865,-0.27577384854020609
0.089617387777882779,-0.11484143811529103,1.0657933597840095,-0.15110189799974227,-0.55529903608656261,-0.87602150691850533,0.37914704053002607,-0.029792039580198923,-0.98179032349886786,0.44944521317052588,-0.60446756812898583,-0.97153251606007973,-0.49637267794655798,-0.5674796736596206,-0.92636007377737062,0.29959488295278808,0.044569135694438287,0.7299555457128839,-0.56448249897959124,-0.98824795480415784,0.65945029844156189,0.6329662513924923,-0.41718455602709087,-0.30081952293674785,0.089980237444521813
1.2154025387616807,0.025292833114470573,-0.31694066477289518,0.41990299653194307,-0.067499717605108089,0.82448760270934685,0.39574597136046308,0.78429022819472316,-0.78281432115931637,-0.5009575461891006,0.3329110818191286,0.7094777932004277,0.52884208657993059,0.55065966264993915,0.89346880161221165,-0.10504917134444895,0.78687156532464175,-0.35334215707054467,-0.49151870346365228,0.022635462739458868,0.9145705374624159,0.089535250303601266,0.3942267695833741,0.9888139019642332,-0.47666393820117409
0.81998163383231226,-0.034948992866435373,0.83108090954372094,0.93728237636836542,-0.9993081750315016,-0.66838881028978447,-0.35958586615204241,0.071232977112775903,-0.30783111575139283,-0.52681179582965898,0.28392603824528856,-0.36036296661206763,-0.27563926052272153,0.73261877431594979,-0.067557355161830979,0.61889845074773242,0.29253407301907947,-0.058871367131776854,-0.74486048619679301,-0.73297001340645906,-0.8239367588621449,-0.3855749139991938,-0.58977084373181365,-0.4529606633429082,-0.85847373825431761
-0.098375272712919279,0.43380034414291324,-0.88665424640816848,0.92544922456491707,0.19576493464319736,-0.0059550299867927028,0.74735412473475549,0.052062343565518171,0.8703221735032356,0.0071363110018022504,-0.44339203203575378,0.31299725256635957,0.68434704060607232,-1.1552828242840796,0.17307594112436325,-0.36561955762595777,-0.72918295213426565,-0.69693253108303765,0.68598967758771723,-0.80446067571807667,-0.54156364292252512,0.48961301036635707,0.69311991317955657,0.6570338245148712,-0.84383998701862906
0.14586107970811202,0.36110275091000943,0.087771029063892281,0.60459064312207789,-0.62189801884792861,0.36204262190063813,-0.87946129471010337,0.24664231535520165,-0.87927229019448339,0.30468772132000138,1.1325555134146035,-0.059048720472315464,0.51003176307867548,-0.22606165524015823,0.11773448613153194,0.86529892706482536,-0.54594586670874912,0.63276342623204895,-0.029995668540583581,-0.86662195576569956,-0.27623265754441811,-0.18945682909634759,-0.19682228749688907,-0.5195072913018428,0.82022744761838295
-0.55358849294735213,-0.18612105062231143,0.95255123923342466,0.094319957704211657,-0.13051226596953475,0.43748668845017497,-0.62966066797197884,-1.0742146330107274,0.89654421359559111,-0.18071636882535125,-0.19666761817389841,0.66008294900631714,-0.18434905617505207,1.3168493841646347,0.054092597731198885,-0.67409713401683258,0.30334426218281507,-0.84797512193232172,0.088342226200233034,-0.59748340253230614,-0.36097647081315587,-0.22971264441145084,-0.6759251127151128,0.6327038669271785,0.98759406525846993
0.42973659166277994,0.17730609644607312,0.84185031277491418,0.87048754246339122,0.27220939964224916,0.53656479421766012,0.13985823850578361,-0.30664456770170345,-0.68018205115513908,-0.95802775471199131,-0.80699473373754804,0.25648189755660894,0.88661707518122812,0.60482436620151081,0.25845781525189293,-0.9708238066958651,-0.22853276540121514,-0.49874330543920198,0.67811745994437711,0.883812065169303,0.21779536585756187,-0.40250567476751448,0.67492916715522133,-0.8138508979677583,-0.62798348955681371
-0.23862794210177099,0.8526725966466816,-0.67821863121925385,0.63954226533865399,-0.64335690345087049,-0.79314641279823239,0.40445557473559157,0.26134769965336763,-0.93839771267968064,-0.28114166052136341,-0.53494453222844796,0.24172145165017225,-0.97746179422313906,-0.99946376519394386,-0.51648559607347166,-0.59105686721334783,-0.98486147136386337,-0.01804926702470562,-0.0069454315636071932,-0.86475983561162117,0.12463516433356335,-0.86191820612145631,-0.32883185761035233,-0.2706976203198168,-0.04344573679500472
0.96385285935171205,0.86201862882106728,0.10465515905145549,0.73872033474174259,-0.90182996964866258,-0.57547661568919284,-0.34354521997556486,-0.66343972713985389,-0.011092473170521235,0.68066529548556776,-0.43917407143797993,0.64998368481889068,0.65483183729815309,-0.40302140238799383,-0.97220044285013096,-0.27263748174573665,-0.21632572285233675,-0.52952894827544339,0.88073051109354217,-0.92850605747132586,-0.39489457430700609,-0.93326275812667003,0.84354738646212502,0.556600552473554,0.32813125437240059
-0.63156748705927956,0.31359341753569037,-1.0186694928313862,0.29005599857762671,-0.96239460174330449,0.038309989537269697,-0.97015653790138667,-0.71761106552784593,-0.43082139975700334,-0.091197229273992902,1.1352206615910256,-0.11835786628026612,0.13129609983424287,-0.69762735072306248,-0.15361301546796041,-0.020420749607323811,-0.68325533376931402,0.63702619902524638,0.75621224460203351,-0.82722404399276017,-0.34918751924097052,0.88813682030934338,0.89284397132526139,0.6073020522688941,-0.5491063818230657
-0.93914396746562967,0.74045932555209426,0.67362088234391837,-0.33541024582676371,0.67860929932233727,0.34744462992390635,0.6707229271414793,-0.76766503651783702,-0.39627392663390643,0.034044577789526027,0.141624413749596,-0.12433973199788254,0.80322016293875176,0.85036662488717674,-0.34288641003145548,0.8346973518777816,-0.79510092541953492,-0.21382150717476692,0.40824008216404428,-0.72928766678650225,-0.41036620343821184,0.74136574290598223,0.70286460962239972,-0.8729532748452491,0.45070558625363738
-0.30394134219677249,0.89714893293626463,0.63416216795020497,0.45392490833215199,-0.28117617447797888,-0.19486727409298471,0.79706003092592415,-0.69175998449738185,-0.18751390241423591,-0.54642603684985602,-0.54030765515186818,-0.063230370793242799,-0.4265008809527483,0.96252794679495235,-0.1076156740173064,-0.53008719616318545,0.92249009399103998,-0.48899914639274089,0.78059395451956104,0.82657238670646682,0.65600538171982914,-0.65725623406779243,0.43748942107811239,0.5389699199742148,0.63896699738021823
-0.73741929038156395,0.51349474740325607,-0.84458252590511018,0.6577942134078989,-0.096478785507535317,-0.84434318679602671,-0.40677705283503718,-0.56215235357948468,0.076374962338113625,0.51530921558882847,-0.35056896871776894,-0.098261443530376164,-0.66390096520981501,-0.57946426169573206,0.58123213182376587,0.3952841757821477,-0.10841261765521669,0.77472707518065265,-0.59915644243027377,0.058979865977964167,0.88111019185302153,-0.48692331580482434,-0.65788217946195993,0.41226334703323264,-0.9177550966929795
-0.07926538574922036,0.42028948737775951,-0.077466744291161641,0.50244758643967402,0.88397772057260027,0.68838445434718121,0.82942676167350216,-0.011973996222287292,0.80402681333858483,0.58599955182518371,0.10843901004749058,1.0256298478823982,0.71721093251964507,-1.2734999575019936,-0.098958959926938234,-0.59172185468247596,-0.41106641860162241,-0.83683266916640231,0.93513449036983931,-0.82384397473188531,0.77822310734447331,-0.97367293740914884,-0.39615129373669172,-0.9579374061503669,-0.5243087214157498
-0.29176000549693948,0.93316014262923952,-0.22293440243277832,-0.63333373532849457,-0.54350225097446958,0.83544058420776524,-0.48112198365043157,-0.16533902509951634,0.99114520479878843,-0.79005225747826813,0.61426323024158902,0.09006933333097851,-0.72187958607802005,-0.82749931228127027,-0.0498897787760543,0.68529684890711839,0.62813871944352273,0.41401047091175758,-0.66169181833937785,-0.95540940618220072,0.5054676924257705,-0.083717409517071933,0.37739217619761645,0.28909261699847355,0.83536396569047677
-0.60200003983114081,0.73395502059707352,-0.48210637036032089,-0.13148322719823202,-0.97179764728347073,0.62925619296930801,0.083547964245883899,-0.92261188098928559,0.95689565840341673,0.25894354843253792,-0.87635395415373418,0.13700948553077943,0.21488634500962908,0.45743499938096532,-0.88438324852065386,-0.73236404090838303,0.56255968393410771,0.23690651504864124,0.44294504036785071,0.11771339041283407,0.69414333196281641,0.12844147380602611,0.7050934522804585,0.7688545751205158,0.013901671709324073
0.29914736553902099,-0.25304635212850851,0.19763331278961555,-0.74071630422584245,0.16332397279267874,0.11541708465262829,-0.21719836200072185,-0.83470989448595323,0.58219723567014015,0.23389463352412454,-0.87375361990788247,0.47449559661846552,0.69473345442445655,0.094293226825395343,0.4018010223844739,0.93296669660415754,0.29451259080164288,0.064565464645801027,0.75221921765129118,0.9774566459527344,0.83665221698008163,0.94046844341643332,-0.32210357665724637,0.5244664897738209,-1.0006133658435978
0.18565712438861573,0.27324605843408467,0.25212981286994374,-0.0081806514434484973,-0.6604253664501768,-0.075158484973531586,-0.77593782484288509,0.94897038952500479,-0.56782886250424536,-0.75201557833033417,0.32892224719449104,0.3239742362994919,0.081825184705587764,-0.17523672799504783,0.12028507890063411,0.27974329246257484,-0.80976348907923856,-0.37773876890237429,0.64402059945281664,-0.42153374379822817,0.25250510484549821,-0.38653447432454757,0.49749571175568535,0.7825542594750272,-0.69862275080286529
0.47917877067768438,0.35334709698307643,-0.68920820768512214,0.44234883357239752,-0.61326043418120613,0.50939763830612639,0.26111935851739476,-0.81643709940924525,0.25481982979098844,0.55343725562501422,-0.43974103233038597,0.61084269408571357,0.090394446202723355,-1.2311348899441943,0.32230558195375225,-0.88927276388593657,-0.22577309165456058,-0.031607404617570126,-0.32304197774468529,0.31143103901151381,-0.48900525880180168,0.63490281877377264,0.45462280551744927,0.5778253462252649,-0.75847160341895026
-0.31816518622007395,0.40318996776231236,0.23914131654364146,-0.048127359696550166,-0.61784826920807034,-0.13900076847774609,-0.62009797642833164,0.56388853347921142,-0.95254671397728996,-0.10296360709444656,-0.73734843631394276,0.16268786313616032,-0.11801185534547433,0.51366937142616709,0.96597494714466581,-0.77120199402540612,-0.98870479079156093,-0.77361735075962978,-0.66065700400304039,-0.52762689026830212,0.27065034594870763,0.0027044902606458911,0.57643647491843453,-0.5465195501589954,-0.72411368312781221
0.15918865609019411,-0.89257840238563146,-0.5537217705415115,-0.18310717216067346,0.73605566568093073,-0.72262772387876673,0.39848512869091701,-0.016009652850178146,0.73556862637894271,-0.37859189158002743,-0.076507930733893795,0.47666725455272824,-0.057377853189643759,-0.52181818431770255,0.080914400920782517,0.67609684774849299,0.84680885075789536,0.011635744613758174,-0.46981078065200965,-0.90834885130586995,0.9191935595599775,0.29229362693063582,0.73526394900715952,-0.033383215698500335,0.29915215718296451
0.8948236312263943,-0.017287457701881895,-0.69707376326488846,-0.80745272039848304,-0.96506327083860655,0.50647090579250564,0.24677026761875895,-0.63158908061273999,-0.95122184679808175,-0.4483481766534384,-0.96119509622259447,-0.77330157497294694,0.1787234018175462,-0.22739927721048819,-0.57742612443332209,-0.063905299725492901,0.60418807470893121,0.54107992095801805,0.80924160173301241,0.65102459274423241,0.67549902505395765,-0.51989660857647646,0.4984937867405127,-0.3622935120030304,0.6197998225216379
0.7942392105477375,-0.10116651022157458,-0.78005204030693009,-0.53962674981898084,-0.059645084054269069,0.41010477463102685,-1.0148728591928178,-0.24890263176346089,0.79966003510304284,-0.58236286656425007,-0.43762015535449339,0.5409421527935967,-0.95603933748381131,0.38250184643741303,-0.65818621681439782,-0.31648073786626202,0.46470995187197706,-0.55177299212492603,0.082934995898631139,0.87111681341607894,-0.68044820738340062,0.9912915711391358,-0.18178257722298749,0.9766032134368834,0.0055288040873639338
0.61605365309930171,0.90842044465225524,-0.30124541481714467,0.77720320512520258,0.60479132121250212,-1.1278394325938341,-0.24009479806852269,-0.16054811086574475,-0.76242821822642315,-0.52097777268372203,-0.94763437503143033,0.55903811460691677,-0.24372195906367969,-0.2913587814642325,0.80226434827376958,-0.6104337672851442,0.56166452178674708,-0.023527026614308433,0.84500433697001576,0.32310304019037039,-0.16545324651062837,0.96785928509506292,-0.6684832885108053,-0.1750061451405518,-0.880956388374598
0.64659387525839462,0.87061673760559355,0.10147950510181604,0.5219606182514227,-0.74369094777537625,0.057127029081921396,-0.11453871464303575,-0.76434034501864778,-0.79100237479166857,0.27515262023882137,0.72679777968467718,0.48017533107207011,-0.54034845274798549,0.57066914439515148,-0.69163063727899787,-0.29926838345201157,-0.87342632877513138,-0.051280961380368674,0.13847418785981824,-0.15515890148511646,0.058992387901954046,0.26407437966530967,-0.70024998142240868,-0.5248868309017491,-0.5248685254826444
0.37199083003950179,0.075498933200296936,0.5087599175521027,-0.32830536820960365,0.69081867420099463,-0.43194329661675929,0.59024775461442558,-0.58473112700232255,-0.69882478999065489,0.073505270479686358,-0.69373144389496522,-0.99003721946012346,0.69754898373754981,0.699817485874765,0.27536059647188116,0.46774726865822036,0.44631616194493018,-0.69170271020253926,0.46181572108135965,0.23850633234441385,-0.38081069442212817,-0.037035653578000767,0.24608033387152775,-0.0935141125826453,0.1387406274326094
-0.58076411845974396,-0.52184473207023907,0.32723590934960273,-0.21379657350950676,-1.0268424962201188,0.55902216907179514,-0.60417211804488513,0.88163926579086216,0.94083471120137163,-0.22696115564312794,0.538651110251681,-0.10361272534467103,-0.7450245358767611,-0.8566533085325031,0.28344052481421006,0.98258668570472396,-0.1465508463900336,-0.36769228250669728,0.65090568942602689,-0.86033088771481725,-0.48431297617623531,-0.26518138061375929,1.0056871048128242,-0.3194183163322786,0.42624118873515632
0.70730748222400486,0.70528227245326902,0.42916117423645472,0.53963932929026126,0.91837816762334767,-0.47304788740274079,-0.22789676746101936,0.81551526821224474,0.0023944408197831457,-0.58653323331292662,-0.67604507349080745,0.13817917928171664,-0.52925233775934,-0.32176526326824822,0.41566735949315636,-0.86211876054314773,-0.41226737555528697,-0.94767562660355487,-0.041186266002338968,-0.91883747761723189,0.45984619082366707,-0.36931473342562765,-0.66291682576919475,0.40994616501971914,0.62942002883458525
-0.32046326884807763,-0.38739119809853118,-0.45575437651360612,0.77350959652723061,-0.50944218324623691,-0.90405558346933124,-0.36201330507981877,-0.75434873200075592,0.077186024500678088,0.2781617328974228,-0.019578205355492675,-0.64106433028770071,-0.25423737802284391,-0.6622322245523975,0.54676207794016185,-0.37140588411982878,0.81604239530266343,-0.46412000997118191,0.35693437338946188,0.3232596032770263,-0.24721795142506539,0.46739472325357084,0.35371302298331264,0.7585743941813978,-0.99828020399581741
0.59268981246098285,-0.22199210457475646,0.44106163886986388,0.57974718903048483,0.77954464852038896,-0.48705840016617197,0.034082440566019161,-0.21674076829720196,0.569894767575154,-0.2424061118243328,-0.75050204358436323,-0.64403295626617996,-0.024334966018165771,1.1052929174869945,-0.11318547948630236,-0.83239064176258348,0.81279729778112164,-0.18285824943504164,0.1330876050713852,0.45078812443907185,-0.7242462142091145,0.86535563289052131,0.67949149304339984,0.32344550411307793,0.8233935644867495
-0.77536870327726382,-0.27594988567570122,0.26804417792860763,0.31763584669336825,0.2507995528238785,0.13641496390476329,0.32970081323587258,0.40266004945131079,0.3250808055423664,-0.03378514999065594,-1.050252743258101,0.75841565578015624,-1.0315424178333483,0.16782292875608129,0.86617552984660184,-0.39629738099084605,-0.88031781190310476,-0.31334336477453972,0.38435885353778232,0.25886937979564878,-0.4888146466163858,-0.64475726327495675,0.57379543301112179,0.7411712360424763,-0.094134211908022625
0.34070630445117428,0.78481223858488647,-0.59942154401161207,0.96386855906969493,-1.0171359191898852,-0.22988670460783125,0.33039292481564686,-0.46300451834543505,-0.10100765609799363,-0.33208207503078135,0.7287792994676201,0.90442844116200227,0.7588474909680526,0.47614396515024376,-0.46051584907615833,0.5906642677806353,0.066861319693392554,-0.0055789824581852013,-0.10577709752476541,1.0404056988555395,-0.10311437420650649,0.087393664368085294,0.60018187061027661,-0.6265870510288274,0.1454558567402057
0.52256949543890863,-0.39803878613938914,-0.25910254391747622,0.37838332659132301,0.11023680661003957,0.9260971779843441,-0.49546314856923407,1.0275971413018403,-0.89694625119406546,0.16032001688937231,0.58015824747292688,0.68861844177366627,-0.29194666830473359,0.63147948220190375,-0.81252260161272927,0.95219306398876125,-0.76502237757016578,-0.96423415085960229,-0.68035142682928429,0.7737170420249857,0.47219010902671488,0.57465200076013057,0.21460079393947842,-0.017823099141123233,-0.66661672335402089
0.33582982610273066,-0.41605771551082366,-0.020746981733342273,-0.62208868288756114,0.97130400987084631,-0.7648893746812061,0.62536060014219585,0.66185988576790478,0.9537123924578087,0.44852482728940612,0.59944148257832286,-0.27538413254888688,0.054860663848381161,-0.39089055570123066,0.46213852988239856,-0.0263558521260564,0.1958998546128862,-0.14577736835248029,0.85969292370283135,-0.44184932344796485,0.5974773215363226,0.40306906357585132,-0.93317398196198387,0.5180129463533192,-0.72583069040042414
0.98317578380061965,-0.18571951536370948,0.37434539392917188,-0.2349551168842777,0.5221669114953813,0.78471547745854908,0.12084722269898616,0.20729365538876962,1.0545608395632518,0.5458437658935541,-0.19649482245748712,-0.65754831433247207,0.46151351488574427,-1.0973837336864407,0.30387836756765607,-0.093867086638117658,-0.58298395893058563,-0.71430194188711427,0.60888298162199161,0.040634141583245284,0.87150261787295136,-0.0038508175107381587,-0.4307811831618501,0.5740551601755766,-0.93105746050659488
0.69723999891312971,-1.0597288846767845,-0.24231171904668905,-0.88711762962090535,-0.029886310220040183,0.2284889048075664,1.0524994194563784,-0.49925923761926344,-0.45373274684252241,0.90377265597414147,0.37557227257360559,-0.44792297186460461,1.1911917422552052,0.25704577587897681,0.36391812131817008,0.98320069494368489,-0.90453171275232247,0.74402523073876614,-0.25128103361958976,-0.22978681872444123,-0.82581929468265847,0.8521669073545215,-0.9254039793577068,0.3579583521856491,-0.49089127331825477
-0.70355936225022175,0.54754066914694877,-0.63839212273164536,-0.13600672940112515,-0.18049733733721535,-0.68662929704152864,-0.55791534811867038,-0.61741461080472348,-0.94846053448950141,0.40442060583264877,0.72036254233980468,-0.89718336182439051,-0.14083912749073124,0.8582303700276448,-0.62148414741933034,-0.33420726549721574,-0.84496200590612358,0.66946439551775683,-0.68619864049870549,0.56447670399501748,-0.91911877994325064,-0.87115834162971828,-0.40207065287296168,-0.22718059012139102,0.9986611576354012
0.89872321959886359,-0.78863069135511998,-0.76766262580031563,-0.16543617907434374,0.97846868296213074,1.0227309711625139,0.50381601841714196,0.5380571014931308,0.46570246874634197,0.68811148227241214,1.2463160554770691,-0.97741429713286798,0.85697498401025063,-1.5003981665990151,-0.25484910933461974,-0.0070478190821077107,0.84901637184570677,0.4373125203618774,-0.19427879038784882,-0.25093236835432353,-0.37620187623299106,-0.67882295590873731,-0.67203778891559451,-0.3306540128050144,0.74991885052261498
-0.88466951895282497,0.85465704873123249,0.29567671370701459,-0.33951231346567828,0.6972943178228177,0.55259202948901109,0.61490403351313483,0.62078793805790133,-0.53371522774940627,-0.4781638405553717,0.76216976775052359,-0.46000912423918838,-0.98690437417337218,0.89585049343048939,-0.71650178857127766,-0.10013344822559966,0.31513088067422718,0.7179594055562869,-0.71776893438850231,-0.1819169554346502,0.2006803136093317,-0.53303680137921206,-0.16509106290026312,-0.20663173361087828,0.78397888547281835
-0.89233311807405524,0.63788026374853368,0.66082412111918587,0.0062443368332914789,-0.32730713894906849,0.91417943002652136,-0.34183137869120284,-0.70194533410408588,0.28138070742169957,-0.50223586160077782,-0.82473887051150441,-0.20715129384698958,-0.87670669694127223,-0.61811053791237947,-0.023368203198515486,0.68955942894546163,-0.084338117011993619,0.68969512986430359,-0.60851398955805724,0.68381583070222629,0.50025120913516008,0.61337155862369175,-0.69475918765319544,0.6875076231856285,-0.61268393157584899
0.57025421853717229,0.22350306449896676,-0.71997593458830444,0.42405985433340054,-0.38770698092029743,-0.31337877288781379,-0.17748934654643078,0.87256031620530328,0.66938937708995983,-1.0039535571797051,0.29686832656140905,0.67544086990073993,0.10837150566827815,-0.72241135680442226,0.22508672645143554,0.10812627181651983,-0.81032114928570975,-0.53611300031494868,0.76565601257409099,-0.31291726376187695,-0.37980328081262971,0.13685913182582513,0.43085095776191196,-0.730020356800074,-0.6806883057939328
-0.94520672408882422,0.23004869607087072,-0.41384088169532712,0.72539253086292022,-0.815568990372874,-0.35267614106920031,0.81725061811236366,-0.56219606847390102,-0.27077687508189424,0.19939446753685575,0.12829094853282166,-0.30017992872709742,-0.72763548955312951,0.45877410153983644,0.054392739654845652,-0.70077428601605951,-0.22758391636392414,0.89161480180384001,0.94197206928166144,0.41332614090764641,0.4060915761732603,-0.16380658348486646,-0.099350954738431863,-0.669818775807095,0.38440885066419939
-0.96887710289046036,0.89023447319501414,-0.52915898883504542,0.1176145844974141,0.60816246548169739,0.61169033365700154,-0.95324566653584475,-0.65713257605617481,0.64812910968856285,0.93686128638653077,0.57053643792386954,0.4145350960892199,0.46070578405646573,-0.69494692190031671,0.2007954708900202,0.63692010926186093,-0.93342402760351417,-0.47291373657980251,0.39096916374094082,-0.61616118190765157,0.070246877405063191,-0.57524815188294498,-0.40205160213040014,0.511861998298164,-0.047865892231375939
0.58834216178182897,-0.10097630046415115,-0.5503063735967364,0.88618936622325672,0.40690393340772851,-0.66154544463702591,-0.64794617677735278,0.86403730452186722,-0.20880306543213989,0.13554307624120096,-0.45240259659797999,-0.81314194143601815,-0.422066091374871,0.89037404238601769,-0.83801369160082617,0.19143834881771901,-0.34230440615285895,0.5973199728287103,0.43007834241267762,0.72185598860494793,0.72262537640849267,-0.0025878019566804461,-0.29992232151608483,0.48225671440363027,0.91299195475723993
-0.40994138210991232,0.0056902175765354002,-0.20791044529252473,-0.82171043724241621,0.24652286379500815,-0.50892878560193533,-0.11477192243450321,0.81091423900399107,-0.16596558014228763,0.47858456498577057,-0.52679631400851346,-0.63145183065392296,-0.96335550299567818,0.21690222279341598,-0.82137367148932028,0.46854960975822857,0.18265713630485977,0.91252187165601317,0.92921778248687847,0.65579381400284842,-0.23890453845264023,-0.83873668606961871,1.014610454415662,-0.5379898770566376,0.90969865262005378
1.0423945026997692,0.81617014218634221,-0.88616352397190967,0.13032609474699988,1.1278942784161021,0.75949209768852255,-0.90554413245698673,-0.15307576571733664,0.47225714306423677,-0.11317096595043992,1.2860525190684304,0.24500442511451803,0.48276621502480777,-0.79362368006124939,0.83413384667691826,-0.51199068066210718,-0.16057102401245216,0.41145508691927674,0.71036538932839233,0.33282518967224745,0.56700674280778196,-0.080700695497175443,-0.16143120433130131,-0.43411248390353885,0.17742643223459356
-0.31477157060879624,0.6587541686598859,0.18312079176681909,0.087754480374497734,-0.83163503884367829,-0.92062955495181142,0.60049748503166345,0.5945272059665424,-0.55705180907863328,-0.67722919004529003,-0.51586241959247303,0.55628551753197331,0.89331574117854617,-0.90245419716900743,-0.46932819845173113,-0.95796695439328827,-0.90210559816986136,0.26077653279976992,-0.678422957086527,0.13330027556005666,-0.012833216194213272,0.56786487057895918,-0.79842008181710367,-0.685769662611982,0.86893951000444691
-0.14586349265732018,-0.82896313324940185,-0.38582930729793846,-0.91587731820770679,0.13955713154217,1.0602958205210973,-0.32866740907514103,0.53437021064638601,-0.23193482377257213,-0.88428910978296327,0.81018005645720104,0.57805396938465148,-0.24079387131161289,0.50553896645418239,-0.28874273418338592,0.87518046371754754,-0.99469231135036229,-0.3310828890315482,-0.58547219045194565,-0.27494138520399031,0.56664105414733701,0.15213546610415432,-0.46269550133456772,-0.8485853064741558,0.88698186575825222
-0.52729511711184129,-0.73031774255542892,-0.89279749357458249,0.55886483369346196,-0.63589998858101737,-0.64841043961173384,-0.28655342283726037,-0.42447246341906936,0.78268488172867712,-0.72125069061598113,-0.85710063249923318,0.62985519497866815,0.40820946862729485,0.36879708398457256,0.38485755156237861,-0.34390394809253699,-0.19949396418440432,-0.58349162833237367,0.15178773527145548,0.045225584258276254,-0.77202168775077762,0.38376198928385469,0.0071139650369293336,0.27640249255858995,-0.78004159292833142
0.71235042306549379,0.28179982856697022,0.31261608286777987,-0.53752441121703276,0.46364716087230262,0.098927519111610851,0.40834226091520426,0.21039001819357539,-0.95503881137929048,0.35545188903506841,-0.014866949992005701,0.49876597339045747,0.32907807891801866,-0.90676097833130465,0.73255042000060788,-0.36951349979384907,-0.94346584736323869,0.029598454843839321,-0.37973556823768534,0.084226401385616295,-0.63678703449213336,0.44811624050323745,-0.60857600523708355,-0.3403894304849904,0.98375020085904286
0.24415815958557047,-0.42078796443465249,0.27787641610403319,-0.30909096095368005,-0.60671943115806748,-0.24893810179205908,-0.88272046014018046,0.34528591784229712,0.081755322938335512,-0.041879027066752658,0.75341813477042496,-0.81015538017816724,0.91151262876398187,-0.47925057316838104,0.1771339469075533,-0.24253478645227364,-0.86396740314069864,0.78888090098536745,0.20220938950983394,-0.91621036690822977,-0.29280812383056237,0.72421500828961205,-0.7493841575798651,-0.875159221447535,-0.10108373377817159
0.1832740660584036,0.38723794816690099,-0.9818620302015032,0.4551928026268624,0.75414438359260061,0.038503645664413548,0.72457589520976118,0.1746384912235201,-0.44598787286124775,-0.21718223111250068,-0.48959806510855308,-0.84497018414536085,0.8525000712790054,0.9235036682946024,-0.68528794320640918,0.23193785426740129,0.64171363728779174,0.47494176299822449,-0.50565424935477277,0.45489994470326256,0.50055327002660877,-0.91239566946362272,0.79230531411814309,0.7822741294862918,0.200663078135008
-0.082809129634131617,0.83652902313864808,-0.65159025918593794,-0.92646870103152157,-0.23874615701453972,-0.21629685891920325,0.07471904805491153,0.30121200813805843,0.44171879796463259,-0.73240413697741713,-0.54031742079501666,0.39379903628874591,-0.25808106822586657,0.8578854370648481,-0.60100517898478723,-0.68095307063405108,0.69696718734743657,-0.34136737428572683,-0.65231926486704372,0.55778684739201578,0.0540544539782448,0.80327004593525864,0.25530098999245776,-0.6488311277726928,-0.84784798093997493
-0.60705369970982836,0.62749004666572783,0.37579807370678503,-0.1379061778038452,0.68117525978111604,0.38848767551828128,0.31074535092735467,0.52628426061502553,-0.24214190783541473,0.61292853391891777,0.30376816949492608,-0.32920824917812008,-0.74421555117303262,-0.47077007959811035,0.076634960625891799,0.96406795235013731,-0.011400571223856943,0.32643422876361589,0.025113844850614304,0.17118092734147811,-0.50668570914328082,-0.2972950119257578,0.52338381821911184,0.7631685835754649,-0.36406149411897615
0.57859016639668515,-0.84364294785236338,-1.0002140901007748,-0.81120964239816817,-0.97527510274338791,-0.23790052637436951,0.053011505029426954,-0.96358472308004339,-0.4426237163095475,0.003544247965813937,-0.073124924264694469,0.69167284124740813,-0.4656267452526463,1.0410665527694931,-0.88272906506667503,-0.37861334805724239,0.39427136828438497,0.8492123327962221,-0.53180689694000172,0.64822617931776005,-0.86170514470108861,-0.11394345513755776,-0.030184317811375112,-0.5626648845207451,-0.14793164673327577
-0.49474558865162621,-0.7229289419792535,0.30011054832182199,0.63216404761101985,0.37571020773900243,-0.32510708181120379,-0.93426710381548994,-0.8556186421272487,0.085797601802547308,-0.54827407799050698,-0.061740365902774048,0.71978518624847099,-0.24020357097974213,-0.072384018651903997,-0.11269584485993538,-0.97753887762351566,-0.32220884826595064,0.80662188684011782,-0.12179657977896555,0.99048517855951324,0.51579457811434981,0.45771321820450778,-0.0055039859426090311,-0.13838196230042143,-0.42865775265447842
-0.097389548043484514,-0.69845740115053878,-0.46248080414846843,-0.23609363131352543,-0.61376584012464419,-0.11621528041692475,0.54572796301423832,-0.28873107366231804,0.6311532488910423,-0.22658918230099204,0.42481603756492137,-0.84397862886959518,0.93732266643408668,0.61626692020859419,-0.38600044269332995,0.29550124004244366,0.27087444606651684,0.51000407077766152,-0.75171393280408505,-0.57327202008571054,0.65470747353269265,0.71591917757071566,-0.72395398426352142,-0.5287065327562293,0.44841722843673315
-0.47614079157581146,0.49824118449736077,-0.50821956380550404,0.77730372385968871,-0.60345326961704771,0.74487993630940796,-0.83194854509745575,0.60624741683213923,0.54953636041498755,0.14540981557027258,0.89977519742861134,0.39058769861128295,-0.010536262979737324,-0.56144973627141059,-0.81600975712798896,0.56945524552315363,-0.77132131398939385,-0.30682910005350095,-0.31435512043919706,-0.37980752787176481,0.13542914725479954,0.070685124862348944,0.86351742811739729,0.448020935723501,-0.10763708362201806
-0.21502511111389402,-0.99281799619708089,-0.20864245696474881,-0.63236764947783708,-0.09178090901742586,-0.53361044904041888,-0.56579689417256029,-0.64637871217661069,-0.90940165533840012,-0.7075565008097161,0.011953607256128313,-0.2290377360462314,0.26025582137349407,-0.32706067561020569,-0.38497076730233409,0.3696400708538552,-0.58449248235216456,-0.42689278099496508,-0.40995570125433628,-0.6500126516638477,-0.64514956257082723,-0.7235401184683512,0.45569213336947711,0.7499446443512863,0.11568048559115961
0.098355010302578649,-0.74980812376752637,-0.68415098094307736,-0.28436400343037316,-0.6441748204047637,-0.70466211263511058,-0.89073795682581769,0.51605218488271076,-0.97853732887373868,-0.42341305574876059,-1.0045495638888529,-0.46950251338260446,-0.21099853603244528,0.21515202752967807,0.86946827414419237,0.76388290781799195,-0.78816756803242127,-0.19817216006234797,-0.23970115331316702,0.23647892582423669,-0.12961634919146026,-0.52510614470301509,-0.0092698170524376216,-0.5090581376483967,-0.19389136541355476
0.35797550213177226,0.32343861697958909,-0.69263000805948294,0.46293527894292891,-0.63175966163355102,0.82354168884982182,0.77776101710993284,-0.18279137049129424,0.50026845003804121,0.68469230256588398,-0.272416904142668,-0.10666587696522607,-0.48191787402578823,-0.056118691005698697,0.21799664850111919,-0.68422207365667753,0.71202076310837636,0.13962536962158817,-0.068924856002299875,-0.73139448110573357,0.72155748343726267,-0.098763719250681198,0.21896651967483882,0.44777886623792296,0.71400905029627171
0.35939709652402668,-0.56042265639401301,-0.0036683360913702884,0.49364421902636807,-0.37961044316697995,-0.91536715751655129,0.15944451440755153,0.83560326887490044,-0.95048838023070548,0.37117529870854599,-0.73737495090587402,-0.98329366815477537,0.26600061407853287,0.85418005762828286,0.97782328162960441,-0.16135844284962553,0.32624102240506725,0.27467774194332878,0.030757897286849533,0.75942107437257345,0.82237883015461533,-0.67220421618084314,-0.027265718761385675,0.77864288412246951,0.25045458400938919,-0.88618298257559358,0.12676375153732927,0.83332264555770441,0.80053189103001876,0.22487530621715746,-0.26226046764646932,-0.82481456512391416,0.24280511951908942,0.66335537401236677,0.5596724883842652,0.98527699285462866,0.18276644525486549,-0.039350407031876054,-0.69364705077941147,-0.81077890229976368,-0.12011226818222151,0.53322465818225273,-0.87437918091595146,-0.33672799520814573,0.67624512539352755,0.34195076366280569,-0.36429088461671405,0.84388080763873974,-0.0052095391373316157,-0.96361515060199132,-0.13593908550061853,0.76548425870905712,0.90242271514073447,-0.64271399570228782,-0.96541970864033921,-0.41762616849802248,-0.36331473476684339,-0.12321883299664652,0.14606818167965452,-0.12459161191460483,0.79109863714984852,0.21622995444374382,0.17834553709876255,-0.4492625181101263,0.35927974737688001
0.54437396654511327,0.95326727315777438,-0.050579315839446082,-0.55880163635043234,0.079668295771132672,-0.86332821984359476,-0.93138905504679248,-0.82907614539604413,-0.331317643492261,-0.86055575666203143,-0.80800579874435319,-0.39040006644092368,-0.49854147909790764,-0.81534525759762544,-0.77326276668071847,0.19289826493012596,-0.6531755317551563,0.10225270518096233,0.28158910049555425,-0.31593268791831752,0.79606396451492489,-0.53652751320743231,0.76681525282522867,-0.59318819060971617,0.56215589784089637,0.24096584368401702,0.23433916556712492,0.082011835322727891,0.42276222748454145,-0.62524258416957124,0.68505859004355196,-0.3280180429487784,1.0631302336771433,0.52258570142227978,0.020013074076815667,0.85196620945558543,-0.92862842118255573,-0.35327832790744562,0.94038701066340158,0.36695853707913717,-0.60860717641617079,0.49065378207147281,0.91618084092547925,-0.054769729884084351,0.95801594725813277,-0.14440075478179706,0.50800112560942989,-0.94142015081913677,0.37486705589572661,-0.54840691629647498,0.099609325541930124,-0.14154834673536226,-0.94066931385675179,0.4665535785275467,0.49825553680104201,-0.25210983825499705,0.35630636541601968,0.74933533012165232,-0.009144167994649394,0.61775436697852348,0.089395484586496141,-0.11357021219334247,0.15260609975820133,-0.075607366836248704,0.90338913429508561
0.80481842537251491,0.55698541555751291,-0.89792016983203671,0.51369528689806387,-0.74688729353386785,-0.46264507485079931,-0.88823245334311907,0.70803241536826322,-0.72949535943716526,-0.39010208459877049,0.51713506269163489,-0.49385561956129731,0.44590347187975626,0.93292665615370718,0.1999263453536328,-0.48662087510334107,-0.084623692388279909,0.63575333330425932,-0.079504366348282646,0.6408933056668199,-0.84617531600493068,-0.95887460619370002,0.2081606429072041,0.44521113766968817,-0.053504661896493728,0.70182332671844638,0.83430077797114588,0.2118834615573057,-0.23483486682230562,0.11189384825050827,-0.50988461474233071,0.86381129161249204,-0.88050656919298798,0.010727330701466167,-0.82735896440935197,0.36856869865132424,-0.68236214292703656,0.43817934715829482,-0.48926423579623429,-0.78847854198407341,-0.6588953838602376,-0.57467681810638416,-0.86647203402353012,-0.86202235119043014,-0.36934708341524697,0.5372457458172134,-0.25964122968801656,0.44796305691593241,-0.76541652806074756,-0.2049376433446668,-0.17212073030612302,-0.28694538908862433,-0.26616008750092018,-0.059799359722379618,-0.82270978686479213,0.4253380515178829,-0.94562834302143928,0.90039711873260331,-0.42232034516652783,-0.27542542988350915,0.19977922206143733,0.3734148205758881,0.19448182493110927,0.42332265756062271,-0.36157618622577709
-0.7731589913322866,0.64115236994308911,0.14558218417077476,-0.64906140150275426,-0.048676324923437569,-0.00905365379104945,-0.081190258828342549,-0.43915586207221852,0.75412407486933974,0.6031810481647506,-0.38965591390495213,-0.25864808480985196,0.45364328810574372,0.72219613327216858,0.64496795219072711,-0.89957177790755005,0.80334020403602358,-0.62156699051773201,0.67241668542870825,0.51750785430897128,0.4156160339968471,-0.48562489151269594,-0.69679112452794312,0.25151985338564686,-0.81321540786502089,-0.35203268465931975,-0.2427971059777041,-0.9347272927959398,0.46750887735087021,-0.5262201879800088,-0.13853281548404625,0.0099304017818330186,-0.59985413405474175,0.89055034800473321,0.20762314369112977,-0.39426391131137672,0.28789162261755891,0.62642807811454326,0.71127589249261058,-0.67808967082281713,-0.2010283382235668,0.15044244056524164,0.77469491513855271,-0.054068316270233431,0.75111160169109148,-0.65347380094636232,-0.42537609461457887,-0.19359971720304903,-0.12205078301245995,-0.13196799482541147,0.41501945746045077,0.42996081296912086,-0.56509839417980712,0.27151060862728316,1.0860678198844003,-0.8449341280685575,0.90618587480632407,0.55905910083455046,-0.33289125506886663,-0.88446635919218974,0.11793791491507787,0.39582850615053805,-0.62652640621407285,0.1261693617451648,-0.24585079233882431
0.21580964192560043,-0.36450717428093099,0.65429108172893535,-0.39265250854352968,-0.86900433591102244,-0.82967348312751721,0.4822683229596767,0.70428290452381026,-0.5995436353368524,0.089465821260144504,0.0034044770906377603,-1.0084924712250192,0.18666167375127571,0.98408567460709417,-0.49636935184787145,0.44544092241315009,0.56982556291919917,-0.0088802248438920907,-0.68409853314563784,-0.3988144624086869,0.71052530749990639,-0.45436801350443301,0.2772607176655239,-0.56178766877337849,-0.29283298288158455,-0.039910310708605415,-0.6461327744032922,0.27189381855166095,-0.58888437581953945,-0.0024201551616079304,-0.50112001580728394,-0.70999797684517041,-0.23126923340570757,0.26868657345550295,-0.89440873515180364,-0.42883508912936757,-0.69205502379207406,0.30056555354714393,0.48619170720624783,0.65480607954064585,0.35572182851231299,1.0007080384214506,-0.4166973696046935,-0.92794533183205552,-0.77404865968943326,0.787925759409149,-0.20096809076827213,-0.7716420738340225,0.804534622043514,-0.46653349039548397,0.59398980758226583,-0.76550536807312997,-0.86219744412264132,0.69993098541291709,-0.49147361558850411,-0.18697429935207174,0.044642888473293098,-0.72356145354799906,0.25012829840444922,0.76938849647234309,0.74064836109212173,-0.52755768188291108,-0.37247041160589195,0.042652390769780661,0.41786310796621262
-0.29275282131363628,-0.14725388175474427,0.59845997035993292,0.42833882380435934,-0.11116336749008032,0.071123769663541794,-0.75171647036311873,-0.06899101802536374,-0.53893595285907592,0.19944068374220489,-0.0025367678878161228,0.048442896074094757,0.80898040322067954,0.45700697363431836,-0.5433937925239879,0.34227966789847919,0.72210740426524,0.36216671107358933,-0.65235116874786858,-0.28481525962276488,0.33824120970707861,-0.13770533651301256,0.60621759401045483,0.033475140644908905,-0.19854815294465628,-0.39451375069471395,-0.7136571126022061,0.63055398856184974,-0.081063527991096812,0.71407034667226776,0.89473164271610894,-0.88705406929002395,-0.48054867595122569,-0.2313799779780514,-0.47153482155053578,-0.076951006919079079,-0.207784078179823,-0.92830679840103736,0.50562490472600408,0.57509055874244708,-0.20542477235196471,0.19734963271128678,-0.2536302012532321,0.17899578081034601,-0.46587404725550458,-0.76589051714829681,-0.38728197248394514,-0.002202260353904147,0.9060336469021979,-0.16723164755247286,-0.016247367142525535,0.64308472032894626,0.18309563272371956,0.29225593378770398,0.29764426323896981,0.77318290657088218,0.16954776830429993,0.63960158853787286,-0.62670242031979628,-0.76974592274382192,-0.35901946815819347,0.87719434936448182,-0.86571475917602314,0.82619096736427999,0.45089489028763635
0.3503821774106694,0.50248492851665183,0.26632640053684076,0.74794749429693408,0.9644486370821318,0.3284281642684419,-0.37172309135699988,0.87785486536597446,-0.044053486056305088,0.41030994899166734,-0.087087626692497422,-0.89555922347802563,-0.37326064217840749,-0.55290482700582355,0.39486589804409744,0.2724469650897916,-0.080639143104002386,0.59151845751875454,0.94075331330684775,0.75782551182417379,-0.33761329472818796,-0.38634303995012143,0.21560033073751556,0.48713454204496276,0.94241391037675903,-0.54708076385249982,0.94197418307413083,-0.62258827144918916,-0.85399106877253794,0.47928766541278528,0.7503063941502055,-0.59090365963963876,0.71898004672913796,0.72537514339020792,-0.37284658766240542,-0.46273884328063358,-0.43731843617630217,-0.020062163326806527,0.70985980027680873,-0.49325125089335153,0.23507774187562724,-0.91336725661920193,-0.94132171616103799,-0.51524236322481853,0.41945094362584279,0.038275510283223499,-0.17493990442525151,-0.31228537837743264,-0.040189595966739079,-0.77487915693176357,-0.11847196986460336,-0.21398936988088141,-0.6300142078332992,0.10360090477232346,-0.97148220950212616,0.22536462513057151,0.38780941783821576,0.53704853761161397,0.70630604049527124,-0.83248960835605879,0.66456170889636623,-0.20394095249589284,0.73165353896396035,-0.066622764714030322,0.91286580429878128
0.74370641401833715,1.0034497851578501,0.58972830389881548,-0.27958331700558753,0.59875163677039345,-0.7502552395184735,-0.72820669217122636,-0.7871630740977168,-0.8134878327131585,0.062299137922145906,0.72788478601682594,0.59072944025097018,-0.28361035715660016,-0.30081115683786958,0.35333608666599398,0.60081384703970619,-0.96342527465371286,0.49484348418471419,-0.197660451098603,0.047911158919210849,-0.017467642110633282,-0.47878168109899932,-0.448742951258018,0.038609328324176545,-0.38554393685471072,0.6973159025179323,0.154944072394719,0.99535181413298057,0.20512208102552576,0.44862276806320767,-0.4782826599713953,-0.52916423434489901,-0.071520660321661655,-0.27448349320378068,0.89781696066967054,0.79502266379635755,0.27048755015614429,-0.70553610005395384,-0.14592634579204655,0.39546686722237884,1.0042827459360935,-0.35168869734009994,0.55782816618987652,0.16424962661072035,-0.67589928082226658,0.37112971723677252,-0.91500339605032455,-1.0245783906064532,0.79753068762528301,-0.46854059252299152,0.97157415505865075,0.32868728122822299,0.28153019169069071,-0.34161876110188844,0.75709011587318076,-0.87769161314231792,-0.23392516061345228,-0.23991135972449745,-0.14432124339918198,0.79983091695917541,0.5670476318087212,-0.55510213332777292,-0.41494410398552867,0.23193093194224307,0.072458879772745996
-0.97034705062543769,0.029685215590774777,-0.3588385092157928,0.85116400843489171,-0.80250463470500877,0.7996015709216262,0.053770570285161322,-0.45773676426667737,0.56756213459602578,0.86905116603209787,-0.72828740452703145,0.32924775235451886,0.44625546369956964,-0.57731183516562556,-0.22232756411468846,0.76759571911672841,-0.67869416700453289,1.0070139033046115,-0.88125876394199287,-0.11909605213306557,0.12723949147134311,0.1911886677346529,0.25420275400386028,0.70957959363076806,0.26260048295883598,0.68589140218623312,0.16207880191926752,0.51091341657818079,-0.52614312326419843,-0.35613503897374443,-0.17545051703918649,0.28236214665243392,0.58267863503846851,-0.81058483457227637,0.085216300760831906,0.60254064673206131,-0.4451203265551828,-0.5805766984633276,0.82848072372671655,0.97919170207939998,-0.44352301053887994,-0.84405566369823104,0.61828458319713164,0.01515495300931306,-0.51703917973145341,0.13887628426761953,-0.01313077704529343,0.56524760574721689,-0.90467649422709584,0.6007039664404491,0.022368180467082843,-0.38473390995622858,-0.003434172627663002,-0.042280500049258957,-0.48685841944236868,-0.3995296146419004,-0.059430671440171015,0.9297973363854567,-0.34749190190320578,0.67222005935970075,0.54224642458127625,-0.51137700396920527,-0.15579552131465443,0.020951143094713506,-0.34818080495285808
0.13507654402835492,-0.47664512610595305,-0.85811601809285254,-0.81347657386491745,-0.0438216670962591,0.0226664400245217,0.067472391370532916,0.92720452243367957,0.44031725112415304,-1.0053015717006375,-0.86247737106451394,-0.025218862900169267,0.2436842879352788,-0.89086123870308365,-0.90532771972810244,0.22233264620450935,0.24607935924619201,-0.88074464536726005,-0.21829443044580965,-0.3908722909254585,0.41950954821346464,0.43918000900350074,0.097982767282747574,0.21106764766328076,-0.73081165836692996,-0.3230161828906597,0.62259414842722838,-0.51894986577681701,-0.25853311881500218,-0.22731351286960319,-0.25043077555881915,-0.21162764070888967,0.74692915971887563,0.5639628752272523,-0.80187698247612127,-1.000591965930802,-0.07118073215885494,0.14233404230955649,0.6433857384077224,-0.55486109136174078,0.41334022261969811,0.60263952757261807,0.53071753100892793,-0.77566124748442089,0.10794216414046548,-0.25483234750350792,0.51295042273024827,-0.78780170489000256,-0.020891624713831956,0.78420433977811232,0.65327841148702781,-0.40532751756299723,-0.53557924561398085,0.6966950580733855,0.52706187674779259,0.85289843315130975,0.0079844440977657558,0.57175549003757631,-0.86693250454078008,0.14130788546554474,0.19808336215296982,0.84698227675316073,0.75551863437833899,-0.71537164711690715,0.84202534946416518
-0.21544083273695536,-0.60977276467202202,-0.71271050381944667,-0.20675198174270665,0.26120148812036098,-0.73884384275468928,-0.79367142981374961,0.15009571122560261,0.0018174208785299358,-0.34974379889897156,-0.80451480514977047,0.21355003358532862,-0.67635808958112131,0.58520961238692237,-0.84362651516445142,0.92885165244140344,-0.28917802725528863,-0.17762655949507516,-0.54971667401054247,0.045532667577156898,-0.83490662470164789,-0.85011387759728752,0.36386477528274247,0.51451067936162664,-0.093541122802358156,0.94817207173140661,0.23764821690518262,-0.077511798223398737,0.17801687259514926,-0.47377722516117127,-0.35567668783409756,0.95915256096278512,-0.35794421964824819,0.25457676312441396,0.8014528486524608,0.034812887635201316,-0.65134092695166212,-0.69370437926570594,0.74716319035757783,-0.41609694138856662,0.54561184370519389,0.92782696131357922,-0.32142516710484914,0.53258124114568939,0.67290628438616351,-0.54769230348476705,-0.67912692123906671,0.9838879331406104,0.82456141112841352,0.24250140596812642,0.18482223101760811,-0.64431608354574443,0.0055446079307772287,0.33967147994332558,-0.12614533296494101,-0.48669080418319466,-0.64693538821296426,-0.46249325368809113,-0.74573576067065228,-0.61812564881877785,-0.89182262350867958,0.15534323741054759,-0.097442645521572599,-0.38822198093127519,-0.057313692581731489
-0.81935395289991397,0.70179413163842175,0.12351019254937536,-0.57866362862270426,-0.44543516658334698,-0.77105980295509058,-0.90515996799903309,0.18891895925533994,-0.76540569172407669,0.40841035483134991,-0.087499239645476332,0.91168915955369767,-0.24609522934576289,0.61169334852610868,0.21285572618211268,0.13312944569948379,-0.55820369316174101,0.20215664149696866,-0.60476982678200186,-0.16239123902497202,-0.57697529718405827,-0.92259322140097799,-0.50543943747909326,-0.66110221539468605,-0.97806923733296192,0.26071831018644426,0.50132351725865887,0.25818720739116091,-1.0142148569312146,-0.38307940272562602,0.60906231548096723,0.67577298626882432,-0.69518504454208463,-0.69036532144049556,-0.031380447424735551,0.29610651624323692,0.68026474380469737,0.56650140576320718,-0.41353475198871892,0.59766307198889768,-0.17058861391712851,-0.54645365962443737,-0.13692770682871494,0.69580543436035258,-0.05694276530456182,0.2331452621288834,-1.0047724359046322,-0.1773584784775715,-0.77699638581637664,0.62923832044223083,-0.16134167463164661,-0.074866855840660398,0.66848016546807565,0.40594013205989543,0.88884238376689306,-0.024895560950940934,0.88900240375519546,-0.32776226036585354,0.26048225162116623,-0.36866579590701654,-0.31172344685336506,-0.28014507246082249,-0.28865437841516201,-0.094085615832473685,0.88559057116738382
0.81660823644820368,0.34126898104015446,-0.26239282739305847,0.28510365966696155,0.95722182665013789,-0.34585369585244752,-0.59452360427994688,-0.034680824118327902,0.54551724612359709,0.29880739843740012,0.86746867806059691,0.96017229392781078,0.84794150574865923,0.70385145335767552,0.86448884708784868,0.17749554487972818,-0.69557748286855658,-0.34993236565933755,-0.60546662810924756,-0.88590129174286525,0.21111746807365533,0.90651374000415774,0.30294159215812205,0.98501476587567405,0.56810165122846101,0.36142704138967829,-0.55102179630045878,0.46161761133486728,0.8924617368263329,-0.49959435734098923,-0.6840190644807107,0.2108050918581382,0.92298905581056834,-0.95341139660085328,-0.97380112971624944,-0.086987471080206338,-0.54463604182692338,0.77447630601485162,0.20334139000148482,-0.77771000895774423,-0.20826247507832327,0.50377637851901536,-0.24795572759314605,-0.022639086626286459,-0.8399006485676267,0.5900096562711139,0.67211001614480104,0.3486141243555379,-0.18348929652819668,-0.59679286917913243,-0.58605024556633278,-0.38203058341101748,0.94369801438690437,0.19845455277331733,-0.9431365670856201,-0.041110160551884198,-0.4829826605858305,-0.034439375593571478,0.44632745449187389,0.4911806490315247,0.76737191210873701,-0.65993343432209861,0.1256273050668377,0.18204766915184656,0.99146454608857115
-0.97459599842690647,0.55326636804241158,-0.4130156331295855,0.77354337113071725,-0.73655329069346875,-0.57756772100817788,0.55027777640424225,0.94671719338264548,-0.83314026715201805,0.8975816908403671,-0.9392380649059977,-0.10836978212034071,1.0170459876438114,-0.80747873153765026,0.94129053165710774,0.14070977601440424,0.92658325800168817,0.70350042109715061,0.49834913764986483,-0.11732841226939369,0.62798286239111045,-0.68704967468017575,-0.78226038332431369,-0.56571822064743804,0.95666941389805904,0.36880350194805706,0.73539078440533012,0.15238270559479516,0.52232919848125825,0.86906197776222116,0.35710685015056148,-0.89512932294425862,-0.15633144821216935,0.4365103874212255,-0.86907420806283453,0.92832842741713184,-0.2513869133187317,0.5604492779097684,0.46579172256607043,0.57918370805357611,0.28294329897506593,0.77161153819232897,-0.57264508763167121,-0.21648896942416068,0.97894661241444625,-0.12875523603598962,0.56541422094630645,-0.45311878076683065,0.0055800774560715244,-0.093810138967611076,-0.32617520129152677,-0.96982719485112834,-0.92206603951962662,-0.17992594533425871,-0.24856032787236446,-0.96544574336428368,0.13535878756219968,-0.34230954031316035,0.36501209600881429,-0.39756853165920186,-0.6168081878601861,0.44764228654038402,-0.93890931801076305,-0.20950858891442889,0.19794450467572788
-0.63760161326581466,-0.30765149206452225,-0.16300773533729082,-0.85756690773328026,-0.35887476383117917,0.8605140210340313,0.12418420244039452,0.94187937879378947,0.34396116008208794,-0.90103038504902211,0.72898882549046262,0.9550150688416349,-0.29318899036402601,0.68053758218742411,0.58966383331221928,0.65564059130968577,-0.78014223133383298,0.094106084690358277,0.087582602798964806,0.0037577888950255352,0.691836316015083,0.15705763994195598,0.61054550145885278,-0.63036402713819939,-0.084177640961810893,-0.86340194083288135,-0.6336122167086623,0.43332338486792671,-0.99445487128618226,0.12407598487386433,-0.37926622738165144,-0.49685773806229455,-0.97053485933694261,-0.92081179800365254,-0.53329736207312706,-0.2968422314500378,0.56072281952527125,0.76857341420781122,-0.61465702297680425,-0.47789026343973523,0.042794409430954215,0.30910237398425217,-0.97641519051588221,0.50637031675242528,0.21137794268909088,-0.99862782558368368,-0.059863356132858772,0.86062254964850171,0.44582382101835832,-0.64255384811690808,0.21546777030210784,0.19118534252661948,-0.82584907360222515,0.38167567136836117,-0.55463526309030409,0.70096890587233807,-0.58399844313075444,0.96078045241318011,0.60368726706347109,-0.82671911444897961,-0.33012260826949202,-0.78458755339834563,-0.29161976343362811,-0.95308715912125896,-0.53884158676623017
0.095974001576437901,-0.9672876069049513,0.038662580467873048,-0.40738709749918611,0.47948413903690118,0.39337141027953643,0.39356057428374108,-0.39135632174428697,0.19663129701440529,-0.57638461410709496,-0.20522945693221886,-0.46802944273887304,-0.65716903498511292,-0.86536316534308977,0.73092616918910824,0.083474413237737924,-0.048010695021859437,0.61560395925862565,0.080209202964092535,-0.72550024721330175,-0.81738013603703297,0.34471782037201792,0.42356045927689184,-0.62283820794294398,0.49099249365938208,0.30619713595129106,-0.25888029483928338,0.63420779429796093,-0.30967101671082181,-0.77697800248643079,0.28384029524242654,-0.64228842207175152,-0.6690941344010003,0.89149132079575411,0.37278441227931419,0.5952415611445776,0.8775555024347691,0.3305312966425632,-0.73001365534294482,-0.48221125118061131,-0.34764735572846944,-0.12751607868484952,0.018920720944606069,-0.80064150692435343,0.10696518123337125,-0.87204372913996264,-1.0505609280070713,-0.76031355326464622,-0.11826327208674232,0.61350794378960405,0.46036969026976871,-0.27703071599362017,-0.47590540874226944,-0.020164604009112137,0.28154061410349074,0.090562920115310586,-0.73308275487027674,-0.82120456622411242,0.69666398051097111,0.31410371243861152,-0.14138259056300728,-0.97240930613882015,0.30012559561872482,0.058368497320573587,0.040874395666476444
-0.11613788255636588,-0.62349061863596011,-0.0087353850120479824,0.93298687188645291,-0.44350015882439631,0.99291795601754607,0.83921758890920284,-0.34594569507163886,0.82583681161572364,-0.96029006488334701,-0.90425172667279208,-0.99316798856426514,0.77179028670084526,0.14288582119638568,0.58502795927978113,-0.13639333328376729,-0.60124626336186404,0.046374347242903062,-0.59944920421303005,0.76398206377521949,-0.11505821634297335,0.17430214168546454,0.74925259840660541,0.91362307525963837,0.52877455310299848,-0.26549648227064976,0.92864604737459389,0.15493026807026897,-0.0059126187971187795,0.72384889472095337,0.40178365173569958,-0.21532501555352204,0.23710632794025219,-0.73570509032753018,0.84583832462920305,0.18275122474574373,0.34116435267598866,-0.19722628862349731,0.1245263521832834,-0.9173599436307629,-0.86899998480259222,-0.68651343498818374,-0.89919586677882224,-0.52152892567907216,-0.81320856016255183,-0.20412322283679532,-0.94016463635849779,0.58387996447131452,-0.85358354506055012,-0.10243723788057366,0.83656459101137859,0.44825239069807443,0.085791288226028425,-0.34040703469327832,-0.3875699104660863,0.084641525967330572,-0.36719093030521838,-0.40171912584005282,0.43814365994536963,-0.98316537648820268,-0.80025184288236972,0.22342015588430628,0.79364100049153474,0.14199292067124908,0.64944671558007139
-0.98306534696724668,-0.023341644849223121,0.55859521071380902,0.54929388569694293,0.74202068977195657,-0.069850588435415376,0.38997937357864848,0.82805335879049635,-0.59383744996447441,0.038104831228313721,0.73066330117335831,0.38579144066289967,-0.079848441665992517,-0.74583485237970004,0.82563500775036347,-0.70441624637844436,0.38138761689739381,-0.24960334946201634,0.36624347969829807,0.9366053623467,-0.81502857866425271,-0.07874396488476941,-0.13264075170158923,0.39468186515407927,0.94301158702283328,-0.37200916198793488,0.76192710260516305,-0.48931502210355754,-0.81208031985599327,-0.88793595493582944,0.2952001948003718,-0.93353702813657358,0.0025004561082188899,-0.80375110558805085,-0.5920637930248811,-0.6032399836803134,0.74485058900289947,-0.52321946218501014,0.96196602881197935,-0.41045808546354556,-0.33791125611671324,0.21091934666662959,-0.89111547824059012,0.27528394266919365,0.97106863624765638,0.40441967218934238,0.046972921793320299,-0.95069922286467501,-0.015060106455823084,0.37880870920435206,0.35461576734185735,0.77871433856667527,-0.053934080803814663,0.30280166922062973,-0.72242142416004695,0.10345968772961696,0.76866839684818733,-0.38178055309495229,-0.12145618196896464,-0.8245823935106158,-0.060086513675155127,-0.87933650890694914,-0.27576607220944088,-0.74326903950365475,0.57348364438281352
-0.086811129893073338,0.091673289369415711,0.50726816999395319,0.078299107481227537,0.14995759665897887,0.9075351314799206,0.40306308588014383,0.24363262180406361,0.54832676699049654,0.69578198028434601,0.48642699021189245,-0.92655541156505228,-0.60950604627917548,0.80402520904123453,0.13735254300446337,-0.5704472789495878,-0.79822983623547339,-0.097388970790944066,0.038051302314282616,0.99519445602584589,0.72600273393153936,0.59019544788366296,0.5205941790562798,0.28603515480224068,0.13066485097585792,0.30282765300144948,-0.3354878422224572,0.35266091027150748,-0.38103371505888262,0.73251650819262182,0.26074476830548421,-0.20605316682984171,-0.39199782755487117,0.82962179058542918,-0.8628006062854382,0.84951963627437366,0.05689900702774122,-0.671419920102582,0.56370839305548193,-0.25143357133412975,0.30347399748226295,0.85909007976077711,-0.14695385840143158,-0.12136085487854636,0.73655632210970567,-0.79284650987041272,-0.33342747068908951,-0.11284514166015047,0.46053212126862886,0.36558595495110091,-0.97525553463428383,0.026926266461950166,-0.14652642262305626,0.95817120581083504,-0.29987262514488477,-0.48906844534781407,-0.74268842327872187,0.22121499098209002,0.35142263986784361,0.82642497054978914,-0.73936325100203748,-0.16006703697008695,0.50105024787314811,0.54805603284446469,-0.8792656391091207
-0.20138949950827786,-0.49319241789203999,-0.55489842741137041,-0.11152758295307026,-1.031209135823431,-0.27768006644187054,0.87912471155728933,0.6850520677218529,-0.25720788438797132,0.4420819369398768,0.56188755505940502,-0.76016592980101949,0.87174054215751406,-0.33819037447618561,-0.94184529478414258,0.16447958846721888,-0.81942296662755509,0.42911189350032675,-0.20475555083896724,0.2798212912260637,0.51726014907235429,-0.12244123365575717,0.87650946529262552,-1.0155252114436646,0.079893287493763135,0.3821042121933525,0.57600985171870744,-0.45343876478874073,-0.32877036890537875,0.0042110913413154439,-0.76801504528632092,-0.88326197118982841,-0.90497256595029585,-0.38869698422196441,-0.40614288305998192,0.4871624204755709,-0.70854131830880462,-0.68062854194506373,0.7788738473222605,0.052881090431213286,-0.87754866913673979,0.54261445432282485,0.45566115590146872,-0.37315718243249024,0.89982557460868196,0.25350372992409304,0.29332385333552402,-0.83687340217356421,-0.52415668870123033,-0.011951098467398733,0.85143477668936651,-0.64762899302268562,0.10174489796069425,-0.47761284537259252,-0.15546478500848077,0.15745574297885351,-0.31647642467042247,-0.7628985242063393,0.36671341163500398,-0.92026227999350596,0.178676991278683,-0.14733350486322588,0.81917864451789502,0.40518534602753137,0.44493879092188487
-0.78589568805420928,0.69950456032513675,0.90652076070144805,-0.22293323667308163,0.3335713233586135,-0.22091145265442649,-0.89346063422700028,-0.27468717454685371,-0.34593618598709824,-0.31545914715629358,0.62719231338273707,-0.79697679691591949,-0.76371059594086055,0.75475304309956925,-0.24947328773521654,-0.70144066638843083,-0.80166979407028127,-0.87716738866406363,-0.7896621613801007,0.95988680954580929,-0.15549151087623378,-0.45937472439478844,-0.35031863082734049,0.078204880624858322,0.41755740725363855,-0.40394625198120693,0.11071141257476648,-0.47103724144476916,0.50264196385182902,-0.68902975330700089,-0.87024866602449935,-0.30470979272439724,-0.074612189366047021,-0.3089494563552686,-0.94553446133643526,-0.36585413935358896,-0.17608018228504457,0.77291346107125625,-0.95546160192308949,-0.69248913730239148,-0.22804471455405895,-0.34869435186365383,0.81258110671944483,-0.25141198436840906,-0.48033598014288237,-0.34773806975090743,0.066336687365253999,0.59286824237414071,-0.12234024477385262,-0.86858857005804624,0.65540548446732372,-0.82855320915634245,-0.10101086926423117,-0.20507249651875203,0.86708361743615148,-0.48624421331611584,-0.6852403386149758,-0.24469030606454031,0.49440889779333447,-0.77702365145589858,-0.79567753233983518,0.79750790108540004,-0.34784526396060328,0.11605787572925533,0.49844762377591895
0.025963875132118758,-0.37523795532619386,0.066363315264744691,-0.30558624144306601,0.67670696635098893,-0.012839907219505894,-0.63168811092160371,0.058588174108744104,-0.20693771091438409,0.59186950451978038,0.63452824524092488,0.26857415712926724,0.19983705098777796,-0.740494654427302,0.66785184018750765,-0.38986402997430053,-0.41325037392735242,-0.4498360180619681,-0.10629144938207108,0.82415343927313978,-0.60341680416809063,-0.69723150188352434,0.56844597884223835,-0.48274988527001189,0.84088014175394832,-0.83447487867456138,-0.3609869587782597,0.58499567744586134,-0.87053182214988967,-0.81245409177550665,-0.76739499945102951,0.98628658090237986,-0.32743387511271127,-0.25853809532190825,-0.5855326717262811,-0.72923857711146323,-0.10612931804864907,0.77633214351183499,-0.93731339286786375,0.36719900289002688,-0.49817615045018548,-0.73762004698633354,0.59486675736364181,-0.262134754830884,-0.20453180595069143,-0.49082252531684084,-0.22588270719965561,0.30435945737459713,0.58372416486464695,0.91151280262147105,-0.86723911488923744,-0.0044237870947089588,0.20403382525871727,-0.79165612653196515,-0.40457083050503417,0.22840502288492728,-0.49074020926583228,-0.56167144837817196,0.42860668917593164,-0.75734601141674862,-0.72552064224598412,0.8290851549183913,0.71926943269390209,-0.50039807521565216,-0.22460994804178594
-0.92959042948498483,0.86702020739895902,-0.48733399959331086,0.44028203702476704,0.75195000315023419,-0.99640020530877638,0.35325995486494349,0.29048002878453416,0.61926613661582719,-0.41659311491835604,0.66626578413509874,0.83905199501481331,-0.67509243235935701,0.060392040560455454,0.19261168652490063,0.30237344783628795,-0.4107216129763977,-0.13678321062902873,0.69731573114011047,-0.28126206329755482,0.10059075139206609,0.53313084166163593,0.68502138114879807,0.30847133113778796,0.9473004263972028,-0.97761759850072349,0.22369889643373095,0.62843130426495974,0.046742882987889638,-0.83118202705546873,-0.0077373688328557693,-0.36008413668502603,0.01585892247628163,0.55614680968876784,-0.15537083810206651,0.67842797151051737,-0.81928967460219904,-0.0072135868021773663,0.75493169380463687,0.11713549058782889,0.73328383526257868,0.12758087893688289,0.70797673853724508,-0.20837799766228399,-0.49974280328135101,0.10422355871309839,0.71467671513303721,-0.095396039918865916,0.29668240241130134,-0.72044202247206812,0.22256392425155175,0.10636643851164665,-0.033509837270264853,0.31175943014275309,0.57714736120567434,0.094555380479645262,-0.17470892285009432,0.42866261098701869,0.2165813788175858,-0.82460501085621529,0.91599961656314965,-0.52089723090873796,-0.47482530374042342,0.045514225369230138,-0.23383468423755929
-0.70133580978679,0.74122431390368926,-0.18953751933482738,-0.50069266177000271,-0.46647219282642904,0.24266500016444939,0.17495150091803416,0.048651449890206623,0.48462479179539386,0.34357854094960638,-0.77236469642048333,-0.21887334301479852,-0.31727597953346376,0.73331165663230835,-0.77410870856003233,-0.86462233550861678,0.37939820555757642,0.75651946949685178,0.74425338949644704,-0.2372532359324975,0.005685605310464528,-0.17963289421116507,0.016397347873442887,-0.31073110871546678,0.036815086975035501,0.60591078693349298,-0.26256485426720305,0.91722048276902812,-0.051924278658772013,0.51124665684398352,0.5957095576352256,-0.082606506227215923,0.98110457100430604,0.84971406634947422,1.030493922234796,-0.066059751297079958,-0.76289293476615005,-0.9334033528302027,-0.27105258732419485,0.098100008808142708,0.44435609204898507,-0.037605699523664639,-0.42334350631674939,0.7130767118239898,-1.0040278313519684,0.59638889405313078,0.73308782677531215,-0.36836541350239627,0.21454986908832704,0.31938499753751737,0.43601991052328271,0.0050893568964180741,-0.52059042005209488,-0.89423262289112482,-0.070672784782630671,0.26107306193827207,-0.023114443462339988,0.77395866239599209,-0.71179178177685154,-0.49812880351181954,-0.39229681567525604,0.83033040536445291,-0.68802144756294414,0.42845865569798636,-0.99325926077676574
-0.87872706909713794,0.086351324992095635,-0.5823820768672815,0.092866190688156255,-0.017870145716186135,0.72556698142013143,0.559292393919126,0.50118148237149662,-0.5913304999158393,-0.28708323956499349,-0.97141110551290233,0.53144251613302396,0.62724420185319352,0.88182362626908839,0.31225715387402048,0.70863096590626429,-0.905270473419998,0.11794690227594433,-0.14645596228467836,-0.24046035423480286,0.93914818216225493,-0.36750246254122182,0.59746722262093932,-0.90852682483054237,-0.4663375846492836,0.71490710736472951,0.82502462748985106,-1.0080226417241023,0.30532086839471895,-0.37665770865169268,0.84532521105939351,-0.59701250815586249,0.92460299260360534,-1.0098429676713145,-0.30907275531399486,-0.93644368093541519,0.28449483253578756,0.063557735497865697,0.57057574009161582,-0.15873592897478597,0.65043629573742834,0.7431581524807529,0.6222092508334891,-0.016440928661493191,0.97008958143789936,-0.47432550894161662,-0.61951301248413115,-0.28283372108647387,0.19360672452456137,-0.75088002401697995,-0.67811707200886684,-0.78700244283727561,0.10536111488103835,-0.66018609435158326,0.11244781545909874,-0.31525720922932055,0.43574505975786598,-0.35430935961522386,-0.89133079884662636,0.70820896218729812,0.77254019529973306,-0.56966294695401598,-0.11618567703451781,0.16268221570264763,-0.86936668282449936
0.90114799199393703,-0.12247405268749072,-0.33522182852045102,0.9052256922558507,-1.0617914086034501,-0.35626693807741161,0.43295357047356958,0.63749029791571921,0.18280015162139937,-0.74646326215028269,-0.71688103290591942,0.53398059726540847,0.31206982616960799,0.042131098628022605,0.27904118168749636,0.96135169230033113,0.40336187413563168,-0.072149099416441959,0.18249301784868599,-0.73194534698275582,-0.49874185234277657,0.55801897513992205,-0.42242844740704738,-0.16987154843847532,0.67589812763484758,0.36114599187441304,0.13026172622133386,0.62503319398221158,-0.98179651300660986,0.089683348953111433,-0.42095535966144637,0.95846064298602807,0.38365891603294139,0.05759263602630732,-0.19303123459801472,-0.13253145817031187,0.63901067558017621,0.59360450124450648,-0.52116390895711617,-0.76402215849021149,-0.29460329318958184,-0.75395811054720985,0.58282525500981164,-0.27609953673063448,-0.65191947169354858,-0.38413204514437693,-0.26170562538688791,-0.98672387600295963,0.42880680347181116,-0.26966266754054824,0.12223403130238611,0.88027540174099961,0.51836474329087578,-0.94786187629857954,-0.23797625575806811,-0.23716043155965813,0.26878955829591539,0.67482316526501551,-0.14536238955553746,-0.91259255869147848,-0.54462568577974035,-0.91442523406205334,0.42218861989288764,-0.47547298336304245,0.47240021530251353
0.13076146993302776,0.72144692883450745,0.58987543675343057,0.60627596368302161,-0.69216643729206873,-0.67612391013921047,-0.62086387161097645,-0.59247614003401761,-0.34190404026225679,-0.35790683494218989,-0.54686713468368131,0.98726644090102011,-0.91871779620832672,0.65191142673447844,0.55120262688363342,0.99998844093184569,-0.73090476924678671,-0.8360588551951561,-0.61264298074310986,-0.70504745122026469,-0.65594320921957316,-0.097954585141498005,-0.63826545582407146,0.33440253263428155,0.66022988048035025,-0.33319421783347536,-0.070547611792367987,-0.83068650962662838,-0.37241983848821347,-0.075519277461784121,-0.46837683776753725,0.99870264326789771,0.74873539679103496,-0.067806074555117737,0.73491947279545455,0.27278645042882343,-0.73925395919589509,-0.85282632574018813,-0.14920515473701373,-0.17562466953112912,0.72638241479497456,-0.41822771322509389,-0.54589351756112947,-0.36573460137219627,0.49025931515232968,0.84384424766628796,-0.45796114110214009,0.4308888982625555,0.83570806009430898,0.22139210172463822,-1.0127753558072381,-0.95946928771197826,0.20794072259474383,0.49924739227854203,-0.31116115282718432,0.59568547436181218,0.11814309280606676,-0.010042052933196774,-0.92094660646517812,-0.69832557511197646,1.0098215907944319,-0.4578900087806026,-0.1888472441126039,-0.42644413140164583,0.81241136777622658
0.80076769524872549,0.88742832809260441,0.14733492967772432,-0.810133534872301,0.37524711601314237,0.58340199248675684,0.078567890385198735,0.9605945971301505,-0.59556751335844793,0.1494735716624272,-0.31569460646199693,0.30961214435437306,0.31148485750420951,0.59501240317828008,-0.68857290891503053,-0.0071120894149715027,0.25375362910062443,-0.29917482648673166,-0.25113945775775981,-0.021552032611436567,0.57877494387707318,-0.32627973686766759,-0.98407880141403958,-0.77086728600965637,-0.94879978509558727,0.13078742364325471,-0.068848493739004993,0.7106810497715107,0.41691492676761166,-0.33911432709857048,-0.32148586085941516,0.75224721981354403,-0.60406189080543771,-0.9075344054268164,-0.17526934529917948,-0.035301993149605373,0.39735742022522136,0.85673225078243265,0.76228867491420182,0.078087793352226056,0.89943473118462336,-0.77423252205836979,0.90757451310661674,-0.95291774250709005,-0.92816684466819876,-0.27622322668731952,0.059982745770760251,0.48113406081344345,0.26240086678356389,0.50656269505910168,-0.48905744083339076,-0.62355044706879215,-0.37974819601935361,0.83293065888319795,0.9836520499783179,0.89839445721492583,0.88177054566740831,-0.16899238524409349,-0.38526204198289021,-0.59389152565164915,-0.95004154735135549,0.38765323347734376,-0.93142363621463198,-0.37487046066171581,0.71644297443370375
0.18079633411101684,-0.85051395299132837,-0.32011088052682751,0.74083108965739386,-0.2397905564444372,-0.11466403557026085,-0.90889035446376298,0.4631126998332436,-0.92823994632779294,-0.949166827206126,0.28129736033239089,-0.75694959761643454,-0.77158751679608617,-0.4766566399580181,0.46861524615744726,-0.82509396982435634,0.59478782550245324,0.027707724729447172,-0.87068649905268369,-0.69248843591429621,0.27630692039306737,0.80053540908536003,-0.42102300600984754,-0.14945792585736759,0.95804652659669309,0.58436199462311467,-0.37713361818481783,0.2423326309235076,-0.99194895534957828,-0.10616574644261673,0.07205464122347606,0.10223007782956442,0.87969787931443044,0.32698679192999031,0.44994675005905466,-0.79789102719345839,0.058559187744531456,0.5773411185844638,-0.1279055421875705,-0.50962844314480815,0.70881234772513058,-0.78050201039346101,-0.62498633656903901,-0.26235106782560852,-0.99554109049298301,0.66819619614822245,0.8536117735389871,-0.81122405837377742,-0.86920223677908925,-0.83319558416472717,0.94783390810199653,0.35031095358502817,0.19745836001055886,0.039996444374348641,0.49979637661392134,-0.47337717056237466,0.43384794673654686,-0.91295446603537567,0.37348780565580486,0.20982803777345127,-0.030424594282953927,-0.59581913168906919,-0.57867583697507119,0.69626343724091599,-0.15815658330846899
-0.16372481693068225,-0.65459657169433749,0.40086542757894428,0.42534905851437149,-0.32122593631856688,0.0091961484498935247,-0.37903597408270112,0.79622873477797385,0.28364027485015875,-0.90250530371324111,-0.44262047544390476,-0.97387430776753958,0.7618010826816507,-0.6576009838947825,-0.40563918945447641,0.22895102429293215,0.60822588851000647,0.67874317525717021,0.21680351779733451,-0.94381811076645983,0.77110952165142965,-0.39846908834237504,0.43552164658796177,-0.51099342436022577,-0.19729131304929107,0.60714007992196084,0.75492241436236696,-0.12458961397946136,0.27943694621093013,-0.18400676054001283,-0.80247279056216614,-0.57445427079444633,0.57365399246911353,-0.71972989859449199,0.66834234496602185,0.81716127021562424,0.044503210153815885,-0.20221499241937341,-0.22647708884344822,0.27310488130367722,0.012746190473141723,-0.7286543466177845,-0.42591306220514308,0.2728916871119465,-0.70623860633669222,-0.81239601423600516,0.22646355244645791,-0.49846515981344364,-0.5576488583633239,-0.44430169629424426,0.13820188395774671,-0.84562412904689099,0.76730187641708802,0.40369203370009271,0.1991856371961748,-0.27902554368368276,-0.81484001629923763,0.165450483637722,0.58202709959312504,0.24702947935625247,0.24231385009324485,-0.056092477342642055,-0.1765940761775753,0.74079489268503707,-0.39786844908847258
0.70228741487589097,0.54180828476592557,0.6746155283847024,-0.22632481468050403,0.69271087988300561,0.045792649999453892,-0.6864005567124879,0.63760918134126221,0.52397320774838274,0.097255397903506541,-0.038262645599925225,-0.61004088586972383,0.67469756450377583,-0.026659786942779835,0.73431964224842439,-0.30718151220667883,-0.80967218888293413,-0.24289727906540415,-0.54425036558414142,-0.63379236968845953,-0.64822427353162981,-0.8242602122473367,0.71598327116404459,-0.35650758850099645,0.75395424429669311,-0.47101143356716346,0.075335216906072755,-0.95364920039515222,-0.65232275189911904,0.16512558461410434,-0.25576459495146925,0.94391854801472908,0.075659631118685539,-0.64941760205858523,0.31812751085152846,-0.78936639605707282,0.81889393520895315,0.94431012902050726,0.75326743021893883,0.53747295662922634,0.50960474362693109,0.097081734992115712,0.68377631028696684,-0.30230849501894919,0.034094524685379254,-0.67788344824772917,0.6073863409848349,0.29670554318207942,-0.076808579065620552,0.24425233115217476,0.29939029712768744,0.44110892221063686,0.37204134176324499,0.96435815121474555,-0.40084747091842288,0.034936971047034554,0.65511884753654537,-0.92345797061413293,0.63345727809504004,0.67408479354977668,-0.20944028071799703,0.22011633610437095,0.94556661500821115,-0.9502707515556168,-0.76033168673360219
-0.72662797284267278,0.72723026198549601,0.58670123159289223,-0.17138603015265877,0.67836368024900229,0.52511550588974065,0.62002509187401622,-0.49954161389661944,-0.13328047497440454,0.23937565283498255,-0.72194636166717696,-0.3708863049876539,0.34276663650355688,0.019728548600086784,0.82867052347812109,-0.78490547064915106,0.34882193392692018,-0.56588548170617792,0.10531945636865295,0.415340529940875,0.2600058708123747,0.97102217262174695,-0.073568161554929484,-0.86123584006229148,0.36077709568401889,-0.025930591009724335,0.96800888639425398,0.21190798626795529,0.018798492537173025,0.95077921327950721,-0.28517298510717437,0.99783783729545239,0.41359466050224325,-1.0034097498259598,0.29549314637334417,0.58753159481895945,-0.98186540420675938,-0.93271155845378262,-0.0005183977994985523,-0.21120364438237677,-0.94482990608013995,0.61645809937975782,0.93478425452263647,0.84694111688519824,-0.31161389256052929,0.78440036078104469,0.39999314718072532,-0.83193402349496304,0.36647862700222883,0.25159726965783896,-0.053560812560092846,-0.82255305086520969,-0.93946650474731441,0.65292727671157624,-0.32612662058169339,0.60715734653949438,-0.69964431340220579,-0.11740989578158517,0.82213087045392574,-0.85262191590129766,-0.57481480560761822,-0.43822199629435998,-0.66175707373320247,-0.36241210190429402,0.20076324547777222
-0.041225776309957801,0.67131991870911356,-0.91963129267276267,-0.2152477854007224,0.84553100983624763,0.92044829809941797,-0.96280978913134962,-0.37658633456576462,0.5625392585795479,-0.97380711787353669,-0.33739694501720324,-0.021322304465382119,-0.6688357945411707,0.92690578662859335,0.030479755792886781,-0.92113160252409376,0.47115490524493026,-0.79416071502970909,-0.66382450505347146,-0.88995065300864218,0.55974113136234915,0.90089625357101533,-0.91366473944085247,0.54814150318200572,0.21752255049100491,0.10116423106583966,-0.90168613505756501,-0.70087688253508429,-0.43621767459226063,-0.30008872829589711,-0.49598411768084988,0.47272456633081811,-0.99616859024101267,0.88602120752283187,0.52138767748382076,-0.95200321243991304,-0.95353949860032028,0.19382552509509418,0.14777428693937966,0.57094885421132324,0.66600126770213808,0.78147648738393716,-0.34037424306917791,0.80953059376031478,0.93125736083917621,-0.12306345876503692,-0.17687138106091094,-0.34726847125312094,-0.59687668307653385,-0.70228604658624361,-0.73686259579762159,-0.044459930235843256,-0.78995520806324915,-0.77832105232477822,-0.9921674035204594,0.93398643697779526,0.19066863096353798,0.68036893899804785,-0.1044925569612636,-0.14174746091761287,-0.89298629784992878,-1.0072275233967123,0.63307080212332079,-0.067836183937671574,0.48585414526822163
0.12735559065604152,0.70081726643667441,0.39792912691204457,-0.54365977865114212,-0.5482777310365119,0.65498064223252561,0.40466600848127876,0.35341568728718231,-0.7231664545890123,0.84457114937827349,0.85489275578503554,0.6846083295769182,-0.18934748015440475,0.56945084759707232,-0.16157419595190586,0.48289913159454362,0.424111019439397,-0.74893193685429971,-0.91324025398141417,-0.17047168644758551,0.69909592414233057,-0.12920191682920895,0.4479509288103557,0.8308981089372649,-0.50712719829404063,-0.4495119772773245,-0.98052127439254633,0.28337650670978803,-0.22937004822961257,-0.66487516622564913,0.056299978307203985,-0.83123737867913861,0.033908909561168085,-0.79221862091349005,0.15727528505192009,-0.46310794787989101,0.58788888347254453,-0.075275342149141042,0.11029053494292095,0.5164207411658992,-0.7184710384548485,-0.40245269056758204,0.738951187442901,0.11533732817272789,-0.057851880703599375,0.33826408497289728,0.49733008531026202,0.53575348630387165,-0.06688937490143998,-0.20860753166536267,0.82390277338723494,-0.72979999755732805,0.69643941802344633,0.67476658220939245,0.77799415228441748,0.006167784296022721,-0.29335565429169863,-0.66176192245359255,0.62567986041863088,0.85951595607337916,0.96259130438953155,-0.98237059164267304,0.95551286322394835,0.16849969508766266,0.22485982766691817
0.81917021740036045,-0.7056606592185215,-0.39014527352832801,0.74639891602164976,0.933659513365097,0.37470742019409176,0.91970604849312787,0.60531374833613472,0.87618874258566937,0.31085212168542375,0.11826726900315061,0.40497207696443027,0.89131133134986307,-0.46618848934128809,0.87804975224499904,-0.5811259030369339,-0.52375202719492364,0.05943917273801147,-0.85570544228328904,-0.8601327142254781,0.79644284985102975,0.6181647713371814,-0.50568257567093111,0.91440927614185497,-0.51617884520891821,-0.76293568278855384,0.77297690639197669,-0.56390262528802038,0.26941157401099658,0.96131791033429836,0.4750414155924409,-0.64558987901902731,0.64923190420163435,0.39864033606921873,0.44577369022519964,-0.016309197024750279,-0.21509643630198844,0.096188924244504287,0.42446465482954271,0.70935912802058987,0.91240726616038259,-0.37863503652808755,-0.85774250574828192,-0.51270576906139187,-0.18004572122284743,0.70578711706491593,0.93595594371003465,-0.99268048511523088,-0.83847450417258496,-0.28300585619295893,0.81464161532695734,-0.52713432482392941,0.41352858079205296,-0.03831326626437135,0.0040926197688036315,-0.07124981496672414,-0.72152891216711723,-0.14021514611741195,0.90502046697436567,-0.9859848276116937,-0.037625623394825641,0.59035789875071087,0.17116980038921725,-0.45583010467699936,0.46993477423639146
-0.49453820688635558,0.97417022279354393,0.4178481779142289,0.12833568747473911,0.62110278032342225,-0.79209423536324253,0.30938527781874253,-0.1461856403920152,0.80638750090502198,0.33404332742456383,-0.78393661484873234,0.57484925538169385,0.9136242661587759,0.86669367157156407,0.71956729327439295,0.32542482874992817,-0.0048275448426209578,-0.73190483234007486,-0.48313873334701246,-0.57763287867519231,-0.086662748551339694,-0.061733108111589982,-0.13521345471815957,0.62738424700099871,0.71965925848855927,0.9773769122030167,0.40482939192597944,-0.66784677381085966,-0.14430504129980559,-0.6868190283588903,-0.51391207661864635,-0.710996996513651,-0.96221947874973712,0.23226771378957944,0.36799577400006445,-0.54338636042969501,0.97606892581842952,-0.6495796374575632,-0.071920853379633831,-0.6569483326024993,-0.65553683986003608,-0.65865358013917286,0.42719406767649121,-0.29323856592192254,-0.075904411425088622,0.39103016739898799,0.3058356269855384,0.48187790765848665,0.64378284265372376,0.40038621789951656,-0.53776466325801453,0.95353001781339519,0.21686169836977584,0.28445056060594837,0.032246883475043342,0.46653121349985938,0.75988984207080201,0.017347274655483372,-0.94418047766094382,-0.97300316767925465,-0.3735401096211966,0.87718943509205793,0.52242165279143393,0.52904517267121509,0.93994327726170412
-0.91107032407613209,0.076943219637117755,-0.71451488948919017,-0.048935126741755673,0.49422822584311665,0.6750134008190215,-0.76517995578490294,0.35014143668024905,0.72441425131653781,-0.33893424985107046,0.31029294173260924,0.45027772038583164,0.69010097460821784,-0.5511601187445081,0.28110076371964915,0.57930657785942241,0.76585058259491345,-0.23967983499511189,-0.70005910649273673,-0.7131392375635609,-0.58021225707726065,0.025894812771490163,-0.98705884217342921,0.92431284714407846,-0.12233036377846251,-0.76979810449416508,-0.31842382159081617,0.77181616983494639,-0.050999498010165796,0.94376786744765684,-0.75836479827616488,-0.69720971617287586,-0.65694666953615555,0.41293405664317212,-0.72813301499383576,-0.5262347927325064,-0.50982219821007879,-0.14270726928033411,-0.61915593207479336,-0.69125185502705466,0.13664588695279403,0.19073544746531407,-0.34479830653201271,-0.23244419702512886,0.85786002327161248,-0.4542650135111802,-0.52318946122671661,-0.58928970715004303,0.56223442138830315,-0.90131903134944003,-0.48295970370764868,0.71726420278364,-0.63992469657210893,0.45835394536835783,-0.70751102816214362,-0.065663577498500283,-0.68980022667447294,0.867240896965912,-0.76135692141987543,0.68115954481984842,0.36510779803713023,-0.42376793215664293,0.0070034178207288699,0.48118274863027066,-0.48008195566713774
0.2519410738217302,-0.92661449906732452,0.33691068801841662,-0.045746422069199572,0.62274092212053711,0.066651749944814126,0.30996637268132232,-0.049453755799512007,-0.0690057781291466,0.64653084144712125,-0.11165650035901821,0.51902152124777212,0.50386968928642306,0.53208681549496228,0.55365099654117245,0.50236314786017833,-0.64388118382441029,0.35599588666061027,0.34414307071070072,-0.66625105285100128,0.25251612448155775,0.73503417117917946,0.29582007918382996,0.83049435725300136,-0.22480562390016126,-0.15821094526250246,-0.50002509879888124,0.73944997126402467,0.13507723122279564,0.14370116420091919,0.88946356006334271,-0.48329466782995972,-0.87435355999254305,0.24043609979079658,0.29309651929644931,0.93551055770346847,0.41676804295776071,-0.5009528997235787,0.099028371301168053,0.6671352140065594,-0.97957446382544366,-0.0076436827293988137,-0.15440828869575177,-0.4044498772302933,0.84652713803086332,0.86776861713932907,0.077191230054334953,0.83368639570493475,-0.012549003250873936,-0.76294505084027309,-0.25994353909687218,-0.48287095863356905,-0.29943930863144996,0.79556313559683667,-0.10240167815642662,-0.44245533838024076,-0.29668140298699786,-0.79711789222648222,0.14912214585222805,0.65647787320845841,0.14956509837269072,-0.13897288264620017,0.53083558470993331,-0.3444463045952279,-0.10144584983450737
-0.82018042702155836,-0.90413171597936826,-0.61748308443026845,-0.18634802142977333,-0.0086079119837982471,-0.34918997945548297,-0.084553638976204687,-0.40756110512406024,-0.11970384441630773,0.70059074908747332,-0.69257487208777957,-0.45203194192798191,0.68473164988122837,0.47155650817591277,0.44356650464485187,0.18116662357472671,-0.71291279412429898,0.79751430151590197,-0.1398192332887028,0.21376169505756901,-0.81486583197749529,0.33290491542698264,0.61674069533598741,0.14471942819279462,0.54081748272657792,-0.44049145533479389,0.67306446504553386,-0.57372855916842236,-0.5278224906484722,0.26703637148889442,0.19882578206714427,0.47421587075696192,0.087980118231464233,-0.56068132737294551,0.58169303959253837,0.23762342822420326,0.11570838660003128,0.44452015514302107,0.99934268344755806,-0.15820042106419038,0.40526662866234714,0.79915537594091179,-0.12333853198371679,-0.048579382742234598,-0.95774953798685525,-0.005224192035981629,0.70110083400070256,0.16427453660305372,-0.44930193226577703,-0.057303722675232815,-0.45976769338988011,0.46308738605112515,0.23317417372862595,-0.199056899249511,0.7617471101217862,-0.259322987752302,0.24344800678503198,0.34535785249093509,-0.46349786742908655,0.32224194399188849,-0.90961490450039917,-0.91884727854942716,-0.97558612323318294,-0.63598970166935598,0.65429892667374434
0.31033985565687733,-0.60022342139826135,0.28673277349399362,-0.15553286424364177,0.26863299716592676,-0.55018877993475901,-0.44990132328532356,-0.41510525556190192,1.0802573656182906,-0.47286313487246884,0.89594916386572665,-0.93546156429445482,-0.19665926867697781,0.55045188361091058,0.6873917585006134,-0.45089135223381716,-0.42358232792161044,-0.040221774938708689,-0.68659388015644307,0.0020277550513420279,0.94506988337173869,-0.25113705150857196,-0.02795274865560872,0.05469519564854769,0.30982591882645677,-0.8563777274433525,0.23189944847820587,0.6251367401635024,-0.15257187602920549,0.55522269386887579,0.5794602762480332,-0.25909013097890349,-0.41489426358660109,-0.19001115933808482,-0.96208597904422899,-0.5397465827211364,0.56217671471469111,-0.74834126023620606,0.53030459197673507,-0.36510042557699873,-0.24113813882143165,-0.4590904338699382,0.92870041251132796,-0.85043525808565268,0.43214033212080166,0.014224338165702075,-0.030278777731720389,0.77877152229980606,-1.0611991882183365,-0.12731014332860313,0.5273449758493447,0.20536869893719392,-0.33235337932605996,-0.32995896027263821,0.79440937180737381,0.80219421407746816,-0.82639926607543568,0.53980538889050367,-0.35148234881303436,0.79103250496680955,-0.54335723195432939,-0.50983502521622104,0.32524184836588477,0.24863738623670664,-0.72676312313089686
0.74304738484130295,0.12855700557602931,0.14319010903538323,-0.00045765817890834192,0.17267503668870465,0.39957201757794808,0.59071883077272058,0.15078757614309113,0.90911991243969759,-0.60904967932290144,0.05969133666405825,0.22052983253393618,-1.0517163965450667,-0.70239742444393216,0.63217383690191298,0.058773363858095659,0.85384015783785039,-0.98169083942138002,0.091991272001203397,0.58633606005461836,0.90298476374381531,0.006732960761400013,0.49149894635597946,0.3317116056916547,-0.21434671747482281,0.68383969423428159,0.44466273834910197,-0.65582685016790732,0.52976407233959355,-0.56873510168395691,-0.76276712088031862,-0.68095705444207,-1.0566772244202167,-0.41422230323066661,-0.71160918040585808,0.40180731789862839,0.32090001936012441,-0.99438197941469508,0.32992703088488751,0.79199308364249998,-0.7191882172773032,0.8695365073767235,-0.92437290316522658,-0.13512110788875273,0.21856327403802656,0.073931562493187664,-0.99591504973262868,0.39532064750085666,0.68994606187515906,-0.11636152063590885,0.86685192670762989,-0.7539380500571109,0.32837205338903558,0.30854337235693058,-0.62602649015565759,-0.27178084632894389,-0.23666826527083784,0.31811985417554234,0.85608854997349026,0.61256394150502613,0.094158344923061715,-0.1582681559735811,0.10801640854801058,-1.0082818540057206,-0.0077732774712511808
0.49499608375064458,0.43551082058291263,-0.58937556506403899,-0.59091903904685761,-0.481739655982865,-0.5715728198291351,0.1006156411615152,0.35152226303664075,-0.10705618685522281,-0.14301660528483082,-0.63244965716001011,0.015339595241664257,0.8235619377222767,0.23835848305083238,-0.074218422455658128,0.81635003275975138,-0.57921513907401667,0.056093843243074801,-0.079566225131989271,0.9341015349572287,0.88543197097862503,-0.12304129400357858,0.35297791558919223,0.16059403877669298,0.41588912919143489,-0.96062717092727989,-0.47960752535220463,0.43026761614324344,-0.40712744067881645,0.23857082967410137,0.89714117442600771,0.87084486497342795,0.90349129889385305,-0.18583992111762568,-0.46492059552843756,0.19834606011415126,-0.68939146544827656,-0.6181894545814155,0.54180244585031734,-0.97901760761107048,-0.73907759647643889,0.53038161818929186,-0.78165509834645286,0.9285455747082102,-0.89159681474646313,0.45710724606349185,0.24469630280715884,0.48203166062543434,0.33595362629120978,0.51438003771523888,-0.35452453682692076,0.28290869678693259,0.046674577409331633,0.28298791078703495,-0.085365997938295524,-0.83206639740169952,-0.88257412362673926,0.59289211979505418,0.58251368210625576,-0.44845099812119721,-0.81889235060699739,0.055956810608498365,0.78437768385907392,0.02084029327513507,0.20306256999391023
-0.49801860195099135,0.26127104389785238,0.36811237994035728,0.25695572929105515,-0.32459407955107278,-0.869282647589254,0.58599071735620656,-0.74194413810602455,0.095117634722903729,0.3105869462092124,0.75709209572293412,-0.36427191914001356,0.27456299489064689,-0.030964613707324944,-0.38396122965713519,0.68199861867134226,0.075899344022527279,-0.2010146615011526,-0.81654207953742153,0.44310155696619236,-0.37162473266848023,-0.22971528909266392,-0.53548145578968276,-0.079011084979702717,0.11966661636463881,-0.274054604614762,0.98757860496146388,-0.97289938200866188,0.63001690986197578,0.23081523826886749,-0.07726823532697133,0.29530663146436525,-0.58120765640266481,-0.42192306570064569,-0.71855172135090817,0.2527075566125131,0.47230460144723746,0.49016386894615765,0.059086528370042142,0.80417130711972906,0.87807930522967415,0.444722231923595,0.36024881325164104,-0.51138919149437356,-0.96946892338640878,-0.12969893737049418,0.41617026553060932,0.0093741148846394114,0.058923341813358836,-0.92199579656373465,-0.68227843291779211,-0.26922036880412431,0.40534593213528947,-0.18659882700502484,-0.31933687772511987,-0.32160245457356296,-0.11391465849789824,-0.82847696163021656,-0.21444690666961905,0.29217104746582673,-1.0171707275022788,0.82349266547737532,0.19240790011547121,0.40453859366643297,0.49680678780330184
0.3722961793186173,-0.3904258600431727,-0.47721938742575626,0.11509555214262336,0.7787280261194518,0.59833925378664743,0.38545646677666073,-0.4706561304618041,0.91263681455682322,0.83442706647705489,0.29856663679451345,0.48618586608127179,-0.080121091545726122,-1.0434126369396852,-0.61650963478050569,0.8021806361709124,-0.25612073350493536,0.72291459390035384,0.13578258077049196,0.89986852019063757,0.800818976411933,-0.95530685412129923,-0.68875951261501811,-1.0599232296435377,0.60457196340533126,-0.40667417494493957,0.046645902581912237,0.69032481460961004,-0.4094165848721279,0.72435833953105211,-0.56723547281690923,0.9433178977416582,0.4768709775483157,-0.8223969944454812,0.25665869822722659,0.44303788304847991,-1.0166996326449098,0.46832237833040929,-0.74952014679960133,0.4972326421319691,0.64512283289542804,0.76563510828906411,0.75526969548978318,0.83012271352668821,0.082823410313441342,-0.94269319244382777,0.797777876904886,-0.3812924158530428,0.76708785667100043,0.42990622814048723,-0.82588271059123985,-0.15274591752400007,0.095798786944001152,-0.21690644415672267,0.62831415489067033,0.12540368114239836,0.31548097166151368,-0.4580265637198806,-0.51561588960751348,0.019243750610346257,-0.029204913501522264,0.65966863900197592,0.52146744423059976,0.75651058572268359,-0.76037677917755453
-0.5279814306128785,-0.14468638502899214,0.11856598136096988,-0.71366903266580495,-0.43601443825432828,0.95470297928948344,-0.86972257340655079,-0.90659949074337864,-0.24037227888803664,-0.35439080789528871,0.66866299482754454,0.65756461360296692,-0.16604598812958066,0.89258360908384671,0.22943846233192708,0.49287949468422387,0.10708959195146917,-0.50727847088659805,0.49070312070459959,0.41962239319482714,0.27456796172042608,-0.75456121993811198,-0.54305036081109159,-0.84759226689017275,-0.30835570148173552,0.605731991732405,-0.40770518741785106,0.97087876223762071,-0.11080102884259327,-0.84034975534576872,-0.84315176480339482,-0.66226814304173565,-0.37325492625925005,0.44892463262163718,0.21144552512614628,0.54502398949432584,-0.89307497795061319,-0.61296201860218269,-0.30047137462474216,0.91261774869411716,-0.1613781354470227,-0.66494891801834888,0.40291535634942821,-0.9410417586661447,-0.064555737641608893,-0.15159676436959627,0.68045459161864119,0.9826288038530977,0.70871841908399069,0.88110270346821062,0.94718528872487606,0.50349560195594034,0.5334090153755835,0.85759036603969385,-0.19561744532017292,0.99730081520203917,-0.43869889148663638,0.86051350819204908,0.84444540685043867,0.98583704918723025,-0.026727519558864467,-0.51368768576829438,-0.086294980950447117,0.16087863542142178,0.46860327444258015
0.14434343274292241,-0.51058645380671031,0.74946417060084758,-0.91056801834964129,0.13252583690912267,-0.47260491425130047,-0.18536314190605579,0.63410778407291779,-0.59722642202588594,0.31917454775126108,-0.46258816844487266,-0.33707221058049913,-0.77155496612788577,0.52018898884627507,0.86225992533034668,0.89859533079604725,0.49984715650151834,-0.64109188190106148,-0.51592948667792438,0.68823372055333432,-0.37983315048742788,-0.31068756664163394,0.26825652248637633,-0.016517113069362124,-0.18097217087321316,-0.4976694580160832,0.96186181834768725,0.7652466839366967,0.78312016596919909,-0.15868940234416426,0.8176812418756122,0.75655369083831192,-0.40604352600465371,0.64222417059921777,0.27453727694523611,-0.56018726391023599,-0.69181794653351047,-0.88393686487702694,-0.21793156949136308,0.97136674302826997,0.2985801628250272,-0.34103605873834231,0.66425115622200182,-0.39304719921650755,-0.0064187857577263554,0.40469630916207933,-0.096649317987045458,0.77112668701250242,-0.25602582272971453,0.37758330006100521,-0.19347572839836863,0.1554519933517074,0.951905874607756,-0.55351219581659838,-0.47716714411753963,-0.29060315451056334,-0.63238655558960455,0.97907193915054991,-0.40301289883640834,-1.0046599247249968,0.62724021151980169,0.79674695680433383,-0.67748788323532338,-0.16571550815240779,-0.047728121745893942
0.3324838642387199,-0.36411180678183397,0.026134295973922212,0.33642371480968347,-0.26088679678242888,0.35042705798496432,-0.60743102342368571,0.028442573672940532,0.96195987139612404,0.39458156254956739,0.92874680424045097,0.021129476273394773,-0.24060505078264752,-0.087354233172673781,0.45534105033557754,-0.92667742184281421,0.38442088038445432,0.34240230353195411,-0.37437663283314576,0.53157889823897109,-0.93424755206748267,-0.054885190974648536,0.46176977080152815,0.00089118315484630021,-0.42387854958549287,-0.35189607262137673,-0.94969216986414551,0.41272517959760624,-0.58574967504409237,-0.85556899456984159,-0.82116991440739817,-0.63307630482377009,0.27817974431883508,-0.18094588001360928,-0.49674928322813983,0.17365316754221469,0.79283238381410648,-0.47598850825529926,-0.21343868237027372,0.98013619393957707,-0.17608861153605659,0.154828078532669,0.91943016884130013,-0.97475737696473752,0.0971039775016488,0.62335971797859191,-0.54489982433433015,-0.2647593054248184,-0.67270420483382121,0.78689287352415171,-0.51180819928128163,0.71760587078890881,-0.41024600421522189,-0.10152323431698372,0.31622754419201954,0.19324809827787415,-0.52636671681655034,-0.90856063825700561,-0.31194388951834001,0.31053913078525075,-0.12036202827461456,0.089201331601434841,0.69258810316023844,0.38653397315944377,0.79482448995540389
-0.72850850943025003,0.21871279028948939,0.025172515366696194,-0.81916590357288466,-0.23745091636446258,0.66892213518839483,0.21283115884970089,0.8287518365311688,-0.056231684415545026,-0.23675125622879115,-0.60443264184289747,0.32825230086744911,0.64052727550961663,-0.86850923764680565,-0.26079691385923875,-0.9160829290716096,-0.31774862729357267,0.93989953750607036,-0.4260850134634801,-0.78884232278661848,0.71942117724066534,0.87939540832160978,-0.8434334356258002,0.93820843206139681,0.66497006285774385,0.73754569041268148,1.0213467470148054,0.56924321668170119,-0.92550028196221334,0.93037076842709809,-0.90339064372744915,-0.014209989400051946,-0.39500196518973085,0.18932059936053933,-0.35342616328464382,0.78477795387274829,-0.094232452255856081,-0.27784872405949163,-0.056278776985692495,-0.59165895414351866,0.34591159799945775,-0.69307153469768312,0.65548774552387579,0.45638659951761978,-0.62955580159362423,-0.37252707793516865,-0.34896416582999074,0.67970389929702779,0.97914553222021594,0.87853125160560308,0.3762237898619763,0.63240460541593513,0.71186024640032508,0.95813041805504384,-0.12624759763012008,-0.69014216538324336,-0.20545837714469087,-0.60958101417377397,-0.69123017100471407,0.74516121766766641,0.018920847386957124,-0.070918464928467845,0.04682083066758954,0.68290177876742897,0.19138496373325506
0.52437866157538571,0.63894064361011071,-0.84704416329892529,0.75104067071354919,-0.0027904984417521802,-0.11305505267067845,0.3885465434652921,-0.50768168551540038,0.19023070314691659,0.81573456764681962,-0.48924732863386189,0.39079248737543021,0.68440473232154297,-0.38432082679921764,-0.90675125676414969,0.30795431649692107,-0.70034460457585257,-0.5943478479422637,0.35855083859798298,-0.33442669925563756,0.36591359467811285,0.7380016909426802,-0.1982446418706387,-0.21936746075309546,0.18547664574017492,-0.98341018420971582,-0.76751935007798489,0.29039539015959914,-0.65381643750699314,-0.054192036948052441,-0.8768650521083754,0.48376769912834094,-0.79809757204317722,-0.84080835597171311,-0.73896181166114605,0.88581471063706307,-0.15056228751855141,0.21400120452214472,0.76778530685891,-0.60871475769223315,-0.1420519632160343,0.71887715338192548,-0.76047155859777271,-0.82759145633143261,0.0020942152730751597,-0.22057471525157685,0.31124500567874547,0.2536972038632756,0.77794509386921962,0.4041691739140591,0.23928551621197786,0.42698834191477542,0.42836273882750098,0.51961550671561507,-0.41091207748964631,-0.38663152743254353,-0.058466617888673821,0.65149408176596313,-0.5096162649550815,0.67823121430711786,-0.049349624193405155,0.70604231387005267,0.27178290738458444,-0.01115090401757473,0.58532957729114055
0.90305759802240904,0.36380786815109495,-0.79516319302230642,0.10931170330975472,-0.72884733094889409,-0.56218926007352987,-0.094680738680662624,0.83038539361026009,0.17069894599729732,-0.11921863209555555,0.26942101274682428,0.79197698360516378,0.52774771355632144,0.94491881743565476,-0.80646105763617626,0.49337942609807439,0.24235600205310062,-0.033046798383586415,0.6729123020100557,-0.36626731127133638,-0.75175640064928817,0.61978639204101371,0.55812821314050198,0.55317079246318168,0.59835286647575925,-0.66322637335540346,0.78605716631976263,-0.33545765597527505,0.017908653671929127,0.41854441084833177,0.56042349042816797,0.50408134159241325,-0.5103090015461299,-0.74876000494426276,-0.73438057018538405,0.53938182166231163,0.28130858127014219,-0.87732509306801287,0.79786153054575848,-0.7863211100455656,0.89791101474054236,0.57829499150547681,0.93289147091435409,0.19925513181333557,-0.11531541208450408,0.082882124980429545,0.5413575876227309,0.53693176204375814,0.098102128063293145,0.099438395442043845,0.049989713161377229,-0.48173427247879086,-0.57865892829204857,0.83325588624352842,0.22748494333674796,0.15742456124181742,-0.2678869944086687,-0.65283885188899904,-0.192188633787646,-0.50801959101535499,0.36444977297030223,-0.93350284095554648,0.6662145401110835,0.88971316969115266,0.66398110540610578
