0.78891126161937752,-0.84036430492516734,-0.82413443543036569,0.65504233501852438,-0.11800794377322218,-0.25946945749510469,0.66650743698981307,-0.97153746803315144,-0.55284104683283308,-0.1437163626842749,-0.18102137445089544,0.9993969288942034,0.84891674423304075,-0.065877243717501824,-0.85262090661337819,-0.69329341442029024,-0.31548123965733676,-0.41531812015455377,-0.014156955059234375,0.47876401374651006,0.98173214237232531,0.96261854969077532,0.058407682217443413,0.8146471639323511,-0.44480388672736576
-0.19261670697466557,-0.94547834208699311,-0.65685774952201359,-0.92351541800866455,0.34608209399603107,-0.68348657829299031,0.36167785781475376,0.15449067572419528,-0.28750379058478376,-0.37698914091937114,-0.61964260025062001,0.10772017708870676,-0.21406142058431135,0.021489452693818193,0.78968329726403208,0.36735056596473237,-0.28923817003824825,0.68147296105901167,-0.90380852144163648,-0.62912572902475872,-0.85632160021038106,0.1967124562959279,0.84903344043755236,-0.5726021115346134,-0.39090309541761015
-0.89192522517072437,-0.74710151224658494,0.20682910494401741,-0.77681567174452426,0.36303420056359459,-0.73205836801450264,-0.2673473971191036,0.46254533005820159,-0.85013827226458871,0.7758649299178022,0.14980936719013085,-0.28374698472154342,-0.59260399889881998,-0.84158441558353592,-0.82921182348134204,-0.57516688805109251,-0.64032533195185903,0.58977428962280953,-0.54118616066673775,-0.99069847424121948,-0.45898989185714134,-0.64394913925606501,-0.27252870370970805,0.200013836020414,-0.21094294871766509
-0.41263891951928311,0.46829508560191613,0.37065750038900463,-0.73181867138882628,-0.85258471200901476,-0.37352718948088021,0.34128122962500218,0.10998723465205847,0.67672576451179756,-0.8708918009094665,0.47511182447800893,-0.97406335411330014,-0.86967638079635401,0.24284415465179821,0.23979450311517653,0.77868252400219962,0.24631525677787161,0.08424632060431049,0.49139349077498962,-0.14401960728597146,0.52009159374143865,-0.4488578991737901,-0.3999513911220377,0.8491209165835427,0.51181423447382257
-0.73444483113934111,0.86169935349217297,-0.46363256035462097,-0.70815899323448583,-0.51336123663321254,0.34832279057588061,0.55167497370064067,-0.41113833758095886,0.039451306697841262,-0.59972134845088665,0.82253777607250922,-0.66814165993714725,-0.3881455742109074,-0.60486317732989636,0.57925735940907275,0.7985897520607439,0.89832101921693464,0.69998983582014729,0.012759730906600535,-0.4085472163863002,0.58700284947767256,-0.45455183686239126,-0.13026195891828452,-0.5793334624437767,-0.13445877154335745
0.050582818546369264,-0.9465360948918965,-0.56033568090565955,-0.23492571278694763,-0.12250007143923315,0.73573426912541806,-0.87973993469426104,0.30513782580133714,-0.35800447732784629,0.30854118195899533,0.10126572896758636,-0.7546283045037081,0.67147013546457224,0.22250238330184047,0.82465582354115308,0.44297968177415453,-0.37379239091240851,0.38875260518979232,-0.088892890606794978,-0.15445546725553833,0.59618841129446443,-0.51571400597334693,0.81947861482495099,-0.12939501474954263,0.55031766915340241
-0.18450816883046381,-0.67709092616699396,0.95788797927194802,0.15303064031571434,0.63454993962291584,-0.24020074744891229,0.93948421176238628,0.40807529545618282,-0.10679015561289884,-0.046960662470619793,-0.84267182669124463,0.90343619072793602,-0.2648359016729282,-0.96442994696678541,0.30695552952748373,0.62223886208963208,-0.43699679062217212,0.99528405472793147,0.50306082064916113,-0.27664340302305851,-0.28283653350757504,0.51581080731119222,0.39281927609997097,0.9607278196764928,-0.19936606542722524
-0.62760871765426018,-0.5013193137822789,0.94881246034292355,0.32719940451219676,0.86101599185513988,0.23947515169121353,-0.638437411457354,0.65936722645598567,0.37939418687910453,-0.27201096374097844,-0.70464456432940326,-0.3482893852055336,-0.90319019981092374,0.61154453230402339,-0.32160031203611661,-0.53606144700801839,0.88238921244165369,-0.79729828553079529,0.43294816353952753,-0.20456667043912952,0.73987804775519495,0.50219293734401749,0.63985498935499718,0.1554993516789518,-0.35478263681424071
0.86257651431962445,0.39548960930821569,-0.44316875378139126,0.40843947134857428,0.4752505056228819,-0.51396290718031035,-0.17821133045550488,-0.54529681577892974,0.82069789207948707,-0.74145587323417372,0.52260736673904695,-0.23057669674674849,0.25422496434975222,-0.76458464313964125,0.46119490067660596,-0.27433418754153899,-0.59984422470738608,0.36469428356021893,0.49408057216223061,-0.19430707027342559,-0.10549687907363128,0.34276002620778662,0.42431989531165804,0.11841464188263551,-0.43081572407526403
-0.21410285784246788,-0.49240796420845673,0.11779251556406731,-0.13007659596593149,-0.95579707965569449,0.14667037806268984,0.36897634084884862,-0.73488987205301082,0.033584778888130655,-0.26994769536000013,0.013239336590967861,0.1178449447181128,-0.57103071812050155,0.14511195239968711,-0.44189878112529851,0.041033686691229164,0.98956607023277354,-0.54024720749426935,-0.46870801825359626,0.33306602046446077,-0.28817895168228747,-0.48048895766977379,-0.67076143926377008,0.23782286588471102,-0.36213786229417272
0.86815003149452297,0.3039424659798437,-0.84217259948780943,0.084850085283887169,0.71431097400477328,0.55743673753843337,0.89790669826934821,0.8940527255417221,-0.10561674445407686,-0.26416216747361804,0.45872193913121245,-0.62169392425830872,-0.60688939405718068,-0.59749144828172707,-0.45670445477869442,0.26584815204290541,-0.22513104431893635,-0.74432401686851413,-0.79686844212483676,0.32959185486780146,-0.93092107261784518,-0.65413661471526052,-0.48000084270167553,-0.07896846480853559,0.78207192093025413
0.25733589862994205,0.64481546006653878,-0.32299464366292008,-0.77676253351924562,0.082720194535484098,-0.91480237821515054,-0.23836436212443346,-0.85494448710794535,0.37545319191359372,-0.096920921755836956,-0.34544837579059878,0.030442795577275278,-0.41790172873444159,0.21745510061865223,0.74909289949938918,0.69098269231026155,0.24363471659768882,0.9611688559667374,-0.77146322274226531,-0.42573023247648306,0.81195087270634547,0.54514191835151138,-0.34865961791540978,-0.1169821159227793,0.66269954963342437
0.34285217474928187,0.70927275304339554,-0.23843162624720662,0.21669589976531245,-0.30378782256970893,-0.43011898287808309,0.96998860062746206,-0.88240235554772772,-0.49671580931091719,-0.58924458788307998,0.90718625496632299,0.81748795875965652,-0.097891612816596696,-0.4633538661431873,0.29677410681197292,-0.74773421338776613,-0.93513196840335167,-0.15920697502062256,0.9657756488709085,-0.42752982187561001,-0.87032569459443676,-0.28926068422086476,0.21443249211835949,0.4216344743446585,0.84787515286992599
0.23848128347086911,0.36500278066192665,-0.45083611878996921,-0.85970046995880289,-0.33384356662294545,0.81741624118250922,-0.2485029822101486,0.39674730387995322,-0.088553600624315526,0.68044013713219365,-0.43075321357783936,-0.48267788921109678,0.082033643497731346,-0.82361948252504247,0.19693791205836678,0.64687384579060925,-0.70287342217146098,0.89361706152044229,-0.46477125578060946,-0.34809104074557207,0.65452562450014962,-0.26622326437133309,0.20829080815292511,-0.20171128714336395,0.45003542910142175
0.34725543790641367,-0.03388666688788719,0.57952826631010645,0.70766401509134791,0.5048779200226946,-0.7193965923000275,0.25375826359926934,-0.79203660928724373,-0.73369385202890613,-0.42265902751726686,0.63670608847159393,-0.92270170987415745,0.34501104503213786,0.4806934848545959,-0.83383822011153563,0.92399760800956843,-0.33118745736494315,0.95138004659754027,0.92192904918930296,-0.28914588118742485,0.39043416214408749,-0.49724613434455261,0.84059543084100663,-0.8007306866899695,-0.69931003651828638
0.10481014052034672,-0.90742060657291412,-0.11501889328988581,-0.66336149914748099,-0.494829405560063,-0.47938261271699145,0.77016923861343567,0.59767064634163325,-0.57395024194090039,-0.2155619104137339,-0.38824265717854495,1.0078716082911563,0.59837702070597787,0.8728613184095555,0.20781728631600813,-0.3700493239401082,-0.3314565012426392,0.13319005032688649,0.59896912513751355,0.58474455680884352,-0.80831037749577961,0.75659051231863883,-0.5292309610760878,-0.7123312124159262,-0.59333301576849573
-0.83548404893699091,-0.52786139505426111,0.45075443939975662,0.71321609825798749,-0.89692229439558213,0.34660060759689348,0.60410858640468912,-0.7751149130592998,0.24462668900082488,-0.43046250178148565,-0.24585575294767831,-0.16105044032579358,0.20825554392944406,0.86211234381373592,-0.5205363882931191,0.42272586491884201,0.39145198973134598,0.78858017232520539,-0.66797695061949813,-0.22929206538686081,-0.41999549601276448,0.36151016511154549,-0.81000533437515798,0.32730782371720335,0.039415741831863048
0.5588374148472256,-0.60546850863442181,-0.31936539255328311,0.61324494471921254,0.54604999903301921,-0.13340556325321926,-0.94784325849676054,-0.90096100736873463,0.48479670934866431,-0.66229680702677229,-0.82466231641912047,0.76702596239716603,-0.099520291377492354,-0.83825223303087537,0.61809847920379479,0.64513180377925883,0.44482210780336096,0.98621910433670712,0.62239176951003583,0.42516937085907475,-0.061617162511258546,0.86408897739135404,0.59557678369991218,0.40199495585999023,-0.70583817519792047
-0.95006043702739218,-0.95511466298504732,-0.033691125563070815,-0.72382986726605092,-0.8114232818378212,0.3334986186420244,-0.73989342781830314,0.28686006642695588,-0.51963962573936495,-0.051262373197956297,0.72258251435375198,0.75266694786632704,0.54335296300243008,0.74830921178788912,-0.60508002254820137,0.17060445346588182,-0.89828774439164238,-0.76340218775369462,0.9144487855254011,0.32722680467606008,0.90132489335442589,-0.11331662061346401,0.17452702485408286,-0.022368691456883916,0.37258125301123701
-0.69109605571425059,0.2781164245026399,-0.24210520550640852,0.25075631327330195,-0.91042512786381691,0.66185339341205773,0.31641490535441591,0.89641220827447543,0.92273698233438706,-0.58176581860312249,0.56155392789043923,0.067208779191119436,0.38928178460715246,-0.30232006489362273,0.47673926013232309,0.72642763239035768,0.25153154630386387,-0.45403597438286036,-0.95707057344447022,-0.10013607527945657,0.25102971085435505,-0.62916230492507486,0.27900795513381499,-0.006181340401911983,-0.45561098164896929
0.6100848581577285,-0.050393847744394607,-0.36640435891458856,-0.50953384666014945,0.30733917025889335,0.51777455497715541,0.56719816640817489,-0.3041762317554314,-0.31631752934679258,-0.3315643473302689,-0.95926434824015394,-0.46091548425143258,0.90066812127365725,-0.020562356765877008,0.79941427515297636,-0.038743994060512599,0.8202853268797714,0.82536116468915977,0.98569048153915273,-0.1773454719696248,-0.0066003787585968959,0.87759558518395997,0.43231408601447635,0.43248433715150103,0.40981312750271459
0.38611809738508052,-0.69950880498474,0.20637976828455834,-0.81333708314182984,-0.068316422699403939,0.86164947145170856,-0.65967521285076602,-0.19424825092422399,0.6712800633287308,-0.36169054038742154,0.078604883477576271,0.78282817214002787,-0.59070446858584891,0.41551588693797065,-0.66691725319897566,0.94347819038023495,0.50685300359233965,-0.63954071185030081,-0.4014943958914382,0.57769147267996657,0.22091944721873169,0.9604423081016924,-0.021146168420356271,-0.5271731276093432,0.213215565609884
0.67480558760447817,-0.33621680144522625,-0.32804408820867004,0.84324965447109379,0.1564564834396269,0.77927440705593531,-0.97641283111746269,0.37053484691372124,-0.83385698255588636,-0.6632067175789389,0.55852527843882893,-0.7201525094788912,0.73050060985395537,-0.79878269235319466,0.61914248265196326,-0.1842053467685181,-0.38887599252058369,0.47257373725046298,0.19483034466331914,0.93134174530736058,-0.82555488949492328,-0.38147404206539998,0.83428868364459596,-0.7381565474800549,-0.071123852548687125
0.2695412766956598,-0.64590300564752623,0.082769922935549425,-0.98032095772309247,0.72243908332651108,0.20012370852333869,-0.01399712487358149,-0.75733007319641532,0.73427437106991944,0.80254577872367461,-0.48069724111134055,-0.93138223997488179,0.88437936883925894,-0.64968476118209606,-0.3089183532634881,-0.69318228448196273,0.49010905541609256,0.37714313991207327,0.13987500969473182,-0.61072475312694097,-0.32997593851281282,-0.77829997089143865,-0.93832138044554536,-0.8690531498416776,0.90690596603607632
0.48706270918764782,0.63142237909516552,-0.72837591036276272,-0.93211480569164262,0.9391426699576062,0.28825472247126555,0.64518203651687633,0.84199940016690755,0.21415824821758683,0.97895987679566909,-0.81823050645116846,-0.25792957535107719,0.63798425584539087,-0.0065850866161789798,-0.74659381848488238,-0.19841603441521147,0.079738867033598088,0.93007798783289364,-0.027351776588281491,-0.14430211974862081,-0.11971577754835347,0.43607314176929363,-0.63391213296058446,-0.14811254238836757,-0.51655795403043392
0.80425029647142698,-0.69662738021736081,0.19077291262459289,0.13189075830308022,0.66391960910144387,-0.84275228486999676,0.61750118174091662,-0.64968465934147179,0.22481083226344672,0.55561208298002873,0.27233382904524578,0.41071934378356378,-0.54147245186173509,-0.17250863519856396,0.91846657676376875,0.24114428214987416,-0.98089586430874065,0.2324690009956954,-0.1883289443468297,-0.24298248788624996,0.11903534117296191,0.39941017098626791,-0.72453527999882383,-0.6518972392004374,0.58132704733470753
-0.52369700860018031,0.87054749863189762,-0.22922630197571583,0.21441971736936047,0.70092986744722885,-0.28519177184180056,0.27761035931513656,-0.35614664342352387,0.70500165676471838,0.24147528770960006,0.22794529104998806,0.31122140686742716,0.88921512380316226,0.67171886439088591,0.020810277657861635,0.32678615821215146,-0.46277519534573242,-0.2814948862838596,-0.86442537745517778,0.27968981156798844,0.031762590032153266,0.62485790824480869,-0.12649380228761486,0.5673629754632918,0.78363309135353887
0.40864956260523372,0.63490617595537324,0.0078972434321515298,0.75356132815091992,0.65619702377320277,0.26283609389545748,0.24603726550656307,0.63721496897058083,-0.82190491308120806,0.067741385647804339,0.14153496560537435,-0.2358901131405311,-0.5098086156469489,-0.94479146262802338,-0.70876289468935383,-0.16655247080633651,0.43542684732685505,0.32504118846226149,-0.82884918139329988,-0.69773398271607223,-0.64406525181004903,-0.70391516337134374,-0.8668355501363797,0.7295344574720299,-0.11485271117274
0.14083069208605192,0.12950756532404289,-0.13915919762643647,0.8716368811319245,0.21383081019033662,-0.96961070462362975,0.68499099240675942,0.41714960403774254,0.76614990586748799,0.22574883874020393,-0.51832703252577883,-0.08493731265565696,0.15488148779339522,0.15900982440314249,0.65244148127396961,0.19408889031973325,-0.94358339091357846,-0.29782747835093598,0.048355837748332874,-0.43231815733393347,0.46478569860472202,-0.86061364614032609,-0.13862994202540782,-0.9025723289050886,-0.22033487909281632
-0.20173272979473381,0.088129933671790853,0.90706167614262989,-0.82623345061918751,0.325308778048229,0.14606401383128503,0.070974460294795344,-0.72442105880749641,0.85495538002541083,0.73382055410397873,0.16825206878071111,-0.74586916847990781,0.48065587463703591,0.49771586386524169,-0.66802054891038753,0.34929023507307638,-0.029459466404054838,-0.79310553768178527,-0.65866461402186061,-0.072338094209092416,-0.36248535931910092,0.57451418996603154,-0.22105812547957618,-0.7292183175474884,0.49473586600261393
-0.97702489476332188,-0.33631336500650849,-0.20926005864513136,0.7765418203990565,-0.95843762505517704,0.57742518813681465,-0.49654244028047295,-0.25185352678802519,0.58359929019996493,0.76000129364463831,0.018658966817278706,0.31364717898732691,-0.070254866487703918,-0.92269042421099012,0.55340668919735958,-0.063130639072231001,-0.24250043120162468,0.135870095793589,-0.61262687560710427,-0.9592517162018358,-0.75957676612948666,0.15180622798977172,-0.16893619173832833,0.89580549722062,-0.77972454991657303
-0.34227235592884314,0.96981066391662007,0.34870200180261302,0.59955698773279931,-0.76699786212996124,-0.18198323289936069,-0.50178902034278194,0.20086183248860434,0.3071223176249494,-0.0050944467306783189,-0.69636109813545011,-0.63459043803380366,-0.056089203908075903,0.92410854208490378,0.6350949410752168,-0.32088581540235983,-0.3690874616620613,-0.72424479102440231,0.71174160249368723,-0.68937627118382971,0.36453707767100618,0.3475638949696519,0.83395973860523154,0.518905499956551,0.23402322106606596
-0.32217939712032639,0.49107967019533988,0.35350955353314129,-0.51598902803340774,-0.19802245598146759,0.76094196734001618,-0.49900944290392218,0.28525721307264418,0.81595359789501976,-0.15348722807092871,0.21108121616573716,0.59951288575647865,-0.99720259498473507,0.64343315518477451,0.78743212281231878,-0.56049061388650179,0.18727356020888647,-0.2906552682685915,-0.72584405667386076,0.1845479587772661,0.31049448629900378,0.13980999103332784,-0.47031984158615259,0.8044314638462857,0.70997603379804675
0.19581223742580864,-0.76806902727922,-0.6487917213910378,0.19783601007663651,0.36195626941584302,0.98052223439904307,-0.11162270329985408,-0.17365999609873081,0.80906299560976491,-0.33242537713062026,0.63969443034435325,0.60253409256436941,-0.57137930796052605,-0.069596400636193156,-0.78133975256299737,-0.8969340246318972,0.18716811700215569,0.51281710727619767,-0.26741641266662469,0.19603379105907504,0.08010270622082602,0.94547280438556069,-0.93279036050588804,-0.5009013704504002,0.16765907785718234
0.3043440730489762,0.13760516572523213,0.11756569667508666,0.90789716845894308,-0.60652341739156956,0.24108267696259458,0.78298084895668385,0.83984611316626467,0.87081534286244378,-0.31903139862780239,-0.12475821177846552,-0.2856681411192335,-0.7358267578137675,-0.18688289705731542,0.64661929690652975,-0.38319246391698664,0.55032525999926807,-0.8018945924388069,-0.26658023120659169,-0.78808726742516455,0.89323264123023405,0.56930123028251545,-0.090041639865756321,-0.5631899957918229,0.87532845361857758
0.69619359673214165,0.16443843577132899,-0.14418606125636763,-0.076591896432296552,-0.4515416713766045,-0.37818618594064002,0.15388707994802261,-0.39627008598666491,0.22118181976679707,-0.083475422280826272,0.37500324801276957,0.90167029756639638,-0.46855156748600402,-0.81174859120596832,-0.78087984453615944,0.0076241175704725925,0.015645115909966246,-0.079704081912787036,-0.91247416498011069,-0.56032540611311621,0.1221923220679539,0.21095770209225068,0.59807543492051307,-0.6017830583485639,-0.84816572939214507
-0.16898086677237237,-0.29145532156980802,-0.41997327629530978,-0.10309639096388712,-0.24569680683324238,-0.00040357615371314502,-0.49215121113087745,0.29773545690197417,0.48434749349996115,-0.37039213667372961,-0.79413805986036345,-0.15244188087138308,0.71961740469313162,0.17653974451149385,-0.44465386098067966,-0.43089893856263461,0.71465232007264479,-0.43889876410850315,0.39962143726539784,0.87956446810520161,-0.21524210496384141,-0.81286549019769816,-0.73803340142906892,0.6187634253837471,-0.46382298953227635
-0.18198388659471912,-0.093963372038557091,-0.60531052498228455,0.10923565581845175,0.38810279449218615,0.27587238143429266,0.35926612889215515,-0.7608750088894507,-0.58890079824647124,0.89070748792557841,-0.47076014319323656,-0.31232682753371777,0.00018467068231464294,0.054487312137871426,-0.88556103327899394,-0.39631852532886075,0.51842786769892013,0.8429578127708941,0.20150289529025089,0.87024150552741986,0.60904376392696125,0.63578216026502332,0.52496353518325978,-0.41581115694547743,-0.74763703247583813
-0.99531475445566009,-0.61931783047893108,-0.32086537725465347,0.89949485100301962,0.8146980548133318,-0.95210634034936492,-0.11633980285693431,-0.89692835007951177,0.24770072573889318,0.046928183329799512,-0.53940335538942719,-0.49721455063725539,0.91275839767098121,-0.34596883260088002,0.42621114160364343,0.85472565367774578,-0.84312942407076674,-0.98524077119595665,0.45044087482343503,-0.42311434343898269,0.23608108556070243,0.96156257069402873,0.16797952492863957,-0.026035734960208723,0.85226926462392638
0.87441685513925016,-0.75827116286199137,-0.56717577690044019,0.052799587700776515,0.77230817578330302,-0.53653888812174311,0.12224190579032124,0.79271146320243724,-0.019366804440242916,0.77223015297202591,-0.71714970477337392,0.88878879244550524,-0.7170895442439944,-0.83009455479944605,0.67440051784261668,0.53197997046194345,-0.87660203696586536,0.33314518713896113,-0.71879354861586531,0.75067827033069134,0.55679937637285293,0.029816276515614946,0.16431094469450935,0.4028100497966318,0.10983014921911088
-0.38740549694061333,0.18345611688354665,0.58684767436444174,0.53642169944195761,0.8352012955180742,0.95321191064118371,-0.10250356553450624,-0.59922245656895357,0.97183867533257018,0.81349158860325388,0.064595634670403912,-0.6709811047399149,-0.54167473049840598,0.0031436847879150348,-0.44623439104910639,0.92944922848220668,0.15409485069253104,0.35763540295162488,0.55742889851222699,0.20424882626430801,-0.72422862945699595,-0.71036229315420163,-0.6620535517186259,0.8695667707276216,-0.72256885721973352
0.78920479799642562,-0.2229446246986907,-0.25089893896960841,0.4569070634487078,-0.49154254202106462,0.15553717243438642,0.063894388837936952,0.82907957911503405,0.33506664996322433,-0.91615751244094024,-0.15329366428606458,-0.0084954535364605427,0.53497611296638281,0.88931638297792603,0.0353156590841237,0.57506779612075776,-0.11986120717828598,-0.87902042139764291,-0.56394270963900994,-0.29535298648201147,0.23693105018101701,0.32331603954903676,-0.07791173314390995,0.7592872473309304,-0.71706349388290391
0.54999277810950109,0.92032214568158366,-0.74330198361817512,-0.95555002507148368,0.16821133752303749,0.53422764091589625,0.22754861994529399,-0.42878777104494042,0.89987036912949248,-0.36578653512513815,0.10037426896794292,-0.4450759449495566,0.9915172322208764,-0.39377454725134087,0.66367953487432929,-0.29843315108361662,0.97677204741022261,-0.91571253111337692,0.85069869565503631,-0.82929476514519052,-0.30172990896589458,-0.67954236404882262,0.26117151600586497,-0.24682858492134008,0.2063349715257265
0.99005124773192754,-0.79091689866856685,0.01467461086320342,-0.99511163572265193,0.82774379131578002,-0.8637164354734036,-0.59194133563000439,0.95459158791203502,-0.19996297543721461,0.31346543895391876,0.97246952215490745,-0.59637271336436548,-0.71342165987474004,0.86349645951337017,-0.17969654038311972,0.80799692371649856,-0.42439478957194138,-0.22788036947440637,-0.095726565119540183,0.4529739578789384,-0.45353234561513339,0.17469707634360471,-0.50769436090268683,0.0383989803526561,-0.42538466803743347
0.066429314312531032,-0.30237279303478148,0.51355844898279135,0.097159624088792113,0.53768473425756635,0.87508865428743565,-0.67975149459453188,-0.4227832308370908,-0.75114229687209699,0.82423710075730106,0.82306874231930072,-0.32857251637035656,-0.33361961788793937,-0.17726134890850326,-0.28040372652455731,0.4491295887660206,-0.13830682688977941,0.37941102823349715,-0.99019939068538299,-0.097745572418920568,0.65853013607182176,0.75891844935957786,-0.53262680673492224,0.12419885087009086,0.51884363301275327
-0.27386434737013365,-0.43732284955872824,0.84463629406719709,0.28857236701304784,0.48856250762532333,0.6368551947429647,0.27763744890265407,-0.66860326770802847,-0.87567224573287772,-0.23198901792716375,0.76781586599244878,-0.92204696639474404,0.77244607741038662,-0.037753405282626197,-0.1883965286866546,-0.44364556907740321,0.34172388254559105,-0.19817853923541154,0.84177068059196114,0.86046179667610434,0.32073803005882295,-0.024542876209396609,0.48532815386497807,-0.8672370670628302,-0.37929053159255621
0.58246901960835429,0.7921608536363427,-0.20014158307524882,-0.59907123858981959,-0.43723736520998019,0.39788233123605826,-0.73162957996929867,-0.10416967491656601,0.78279925895558211,0.65190948792667403,0.41007739634172607,-0.74015585697030084,-0.37450676698863128,-0.52803282860225786,0.4647957669910967,0.42475665156416076,0.48355784258184487,0.75044817361911298,0.04404667004370421,-0.11177020096914689,0.41399076690190229,0.72240037347514863,0.68452477636390119,0.444714373974584,-0.23737430903596465
-0.45181176874521822,0.048949541696040891,-0.63687504424562702,0.31344508031013291,-0.11951496796064037,-0.99835831780617224,-0.28109466592231314,-0.37372120222812399,0.43620411964590494,-0.4743473991501343,0.094977847046284036,-0.58835075179306173,0.81146974018322948,0.69922437723932285,-0.60732288018094982,-0.50347925638705138,0.328330011582045,0.056069088352647851,-0.4904131743887532,-0.0065133357830378536,-0.93321342297155596,-0.88350041289849612,-0.50409658769436372,-0.5929321145095745,0.025983951454847047
0.2944840387549556,0.42125104176447764,0.081379400774544933,0.86726488906201626,-0.020284053790123758,-0.53118896254702908,-0.49869969570932088,-0.95134609293523242,-0.99497406384450093,0.95957951622941706,-0.4488419218205893,-0.5026670755929189,0.051150094822870022,0.87489946270358732,0.43144923033357224,-0.98276611197206509,-0.25556844926510547,-0.85619030888768199,-0.0085339888966775596,-0.3400328029101381,0.038247539456370917,0.39307560152035614,0.62496287227953828,0.1005813005987568,-0.79602245127143856
0.63247424302220356,0.25093331463300733,0.45100369214242481,0.2684619114734747,-0.78399276599445289,0.24536992031903745,-0.49554610790285891,-0.7420930575361705,0.3014115806854053,0.29225260616487264,0.61292975487873724,-0.99823617783795549,-0.82301246069697886,-0.20966027553277813,0.19952313111658793,0.88329798375565249,-0.67659015423991331,-0.52142236652287277,-0.34599416582409492,-0.38775999207765882,-0.53670478193820204,-0.21233879011007614,0.58110117893940838,0.39842286337366906,-0.13169290789845473
-0.61419437250190001,0.38666948937260448,-0.33304411030000997,-0.73895809879548069,-0.37817684626430831,0.070806647427503047,-0.93700282792089118,0.44035380062177848,-0.16272680060014455,-0.044183071026371715,0.7566532585543112,-0.78581559641609799,0.63075925358112106,-0.87904527130180177,-0.3337314355435852,0.62461434019733042,0.82020071385270166,0.91041742046116492,-0.12945679418067318,-0.62486087392953316,0.014438997433547393,-0.058338394895350726,-0.38969186705574776,0.9191166605977028,-0.36436812855916045
-0.084290753570908275,0.83917224275253888,0.50471099298219957,0.76386201811268439,-0.2647418831670168,-0.43624229703662626,0.29900943337051733,0.92705072825576018,0.52907176835383585,-0.58083669161803542,0.64418574392780026,0.98154678656662331,0.4893472803168703,-0.28998438541238253,-0.45197408065741712,-0.14789977005775412,0.21751621849228775,-0.30418450972221733,0.52663025619654513,0.94240571675380713,0.92814360756862591,-0.31919069195531291,-0.18203443078072928,0.7185323265380161,0.44630759096440031
-0.64063371379220957,-0.78546713738995277,0.42611033667858689,0.66703523213194627,0.020401516930974077,-0.85984390993026849,-0.71835035150893323,-0.62973432176391486,0.63977297179626802,-0.24701212933714642,0.62939510264193788,-0.86299084230277912,0.7639914196661437,-0.99481529093086873,0.77467648562704394,-0.74980002162404036,-0.50839398276637604,0.6079468449291181,-0.44496765582541631,0.36952677271840201,-0.38495526262412655,0.22343381951340216,-0.42570752004457529,-0.7341057423043065,0.855106504283069
0.59954797599894349,-0.0089490582229282602,-0.18401795675042998,0.59506385844781717,0.88388791525603461,0.31316354818818615,0.42879718380776871,-0.9588950052267009,0.30260095925581115,-0.38011304241627331,0.416630754742424,0.59295901746491597,-0.23530627118243935,-0.63460103512740385,-0.31329158100115501,-0.77326633071100215,-0.39212592080122016,-0.17885003976140754,-0.47486129809784794,-0.58295764464213573,0.42187298321197059,-0.57974809226772717,0.69609986016502468,0.2611554461851373,-0.022855525567005402
-0.33112588148126254,0.79746473105983195,0.67933027980617344,0.24832413851219334,-0.88419167071743399,0.9276410038054953,0.65049046948994682,0.024083176765359652,0.29247620868445462,0.19936350277213186,0.97188697127558565,0.17726039840891131,0.82326488262211761,-0.066005742000995737,0.21935205930147819,-0.7569944923366495,-0.79695597036970289,0.028474965707111718,0.79780801789265532,0.28204258909425117,-0.38311616361917439,-0.81532350169299705,0.80175635375689258,0.1980259999745715,0.23516392412266754
0.29180281039229633,0.095385686015147048,-0.65241601426147366,0.42778960479500583,0.86832012447305373,0.017556442090290447,0.73927462152524859,0.42284814020703193,0.51067025468849048,-0.20387983601834797,0.44334051969172689,-0.08188901964110562,0.31765398740057621,0.82855156661759222,0.42124047547819399,-0.64541682778324216,0.65462235094403187,0.53582041000683356,0.64539898776473992,0.66406680098654836,-0.036918136319008046,-0.35819741220147039,-0.25843764508031247,-0.9245739150656018,0.054874565014132501
0.9021772688408195,0.14780234975482112,-0.62160796222056425,-0.79304531630849517,-0.66796578515694516,-0.71006133673034322,-0.45127822047266675,-0.1431210395299036,0.82053827876038343,0.45797437092413423,0.67031190043700706,-0.33254548857502864,-0.77544392756412173,0.68930433711733252,-0.38604251196809541,0.60562007481598201,0.16529855299033122,-0.1264613903279668,0.39257121049003929,-0.11961553392241338,-0.25868761402633905,-0.34331911688719985,0.93249386663271461,0.22935646675123933,-0.21270314667284984
-0.84962563774921041,0.2035234876226806,-0.0062840349783218567,-0.26385829692997614,0.80767502640643352,0.48850291284677277,0.83154268486760452,-0.67854167007070754,-0.66106644252438895,0.25618457628916691,-0.034099659782750341,0.70124329922578577,0.73025348937484125,0.54294134201867383,0.25439596173992052,0.6771472632617711,-0.33469219406489559,-0.19529470821346226,-0.45373354081438327,0.73706944691635867,0.30509532271323381,0.29442089742507532,-0.76278519492178831,-0.5461608660830135,0.17081568245147424
-0.55892534430758889,0.98379486600647859,0.2513653458670107,0.81015555879734424,0.25506314192699908,-0.64865166065059998,-0.099320773910198945,-0.46896378883561562,0.43347386255247405,-0.39502522465355994,-0.98782347956942096,0.53689090476658274,-0.78523075041437829,0.52365403193089255,0.73005126133009357,-0.62471486680197763,-0.047537852562677604,-0.39354710562772338,-0.61245647251599489,-0.74483468351534032,-0.79734166985037802,0.14798587707738833,-0.7258784846245232,-0.877156881613566,-0.58317169048693263
-0.45958412148743705,-0.56759703472226308,-0.57361560726850125,0.78589377644286351,-0.30575812841707106,0.3397739615993457,-0.40447416004816228,-0.045183849707557844,-0.94512747060899094,0.26511886880405422,-0.41845591538894517,0.16200749857197813,-0.97859365173054402,0.5729947414932528,-0.0038771925972581455,0.50656988864570152,0.25626410091055057,0.35609599607590042,-0.93191794969455022,0.54552765168184569,0.39690684731896503,0.22294719654744158,-0.293839849123122,-0.29870950487291914,0.079699964106824825
-0.86996181442325904,0.75257792405949353,-0.13794738575369855,-0.7478034894024439,-0.70957624816727982,-0.32149405286588512,-0.83286457286802384,0.37587055243706419,0.90435805450452711,0.94525854063978865,-0.43081420898596562,-0.27195570796838126,-0.91234923379477317,-0.33154936469991148,-0.27238857136845041,0.94305589879537677,-0.11631326019055596,0.9409172407664913,0.87386488553892316,0.28312062199874155,0.30567919049093334,0.13152346302442783,-0.81541348607201825,-0.8093686129987447,0.069686032145917592
-0.11873080640307841,-0.38622654668799872,0.79268987261863322,0.19797232055891473,-0.71256695632867606,0.60611326309470315,-0.19345815069816513,-0.5336387794601839,0.76641039121854782,0.41319401077027362,-0.92657637181520647,-0.15671359262421006,-0.73491848420911632,0.097520357771245472,-0.50769399197265408,0.064048919595545706,-0.46186228283212688,-0.77170228984448841,-0.45923682830072093,0.062507083146044834,-0.20075283420237144,0.90928527368388168,-0.61849995869734475,0.5006842165743857,-0.642022255466973
-0.7821173004137949,-0.87617268086699829,-0.67310717985653523,-0.83175202534495141,-0.58130422801579307,-0.72015428899919909,-0.16963354424794783,-0.016229450877159917,-0.97123131994854905,-0.99270453627460387,0.5757518181356196,0.72368603542754562,0.35287172164736252,-0.26843562775697832,0.05500823692019028,0.87057445485278062,0.29978623069459198,0.25870584864228657,0.11687679261895757,-0.61298354751404327,0.010612264893209723,0.40315308628341379,0.81430565648031317,0.31249054783201546,0.43316892341555235
-0.91272857862205181,-0.76580742895974474,-0.21357566019221427,0.93901071757763233,0.17708720375464659,-0.47845915329037408,-0.28690163785042311,-0.98863422185012972,0.92590561748188249,0.10360905309278103,-0.054875491547755624,-0.53977745000840605,0.94386837166365289,-0.22387125860294749,-0.24963032297111795,-0.56830047137093709,-0.97448250375256695,0.3184119078713743,-0.40236795834088451,-0.13761550091768648,-0.54976214064010109,-0.90522067857133548,-0.69421966711535121,0.8129435863927541,-0.80126110714279353
-0.7626222929000317,-0.61149305649314822,-0.88829488944099211,0.78910770889994297,0.13112369537391547,0.30580527664992091,0.54168026983804785,0.27047844088860712,-0.52260691661559411,0.084791813915194331,0.016672657550345287,-0.04758983766714555,0.8595454811951283,-0.34890530654598673,0.12504908861086583,0.41650695282776262,0.75226693776490605,0.0071051905688916577,-0.15045185801391045,0.68905987260016843,0.83086962204694259,0.77425151966486938,0.86939969226186187,0.49944029395639933,0.10643150101791811,0.72181446471311528,-0.74596960347547214,-0.92825566766933409,0.89249647039382207,0.39272532265426274,0.2235298917078021,-0.66086607390312957,0.32699706259915978,-0.8399327162901945,0.47808452880863961,-0.51172052202231733,-0.66256409861210097,0.50325563366125736,0.63518999791788888,-0.65801229061252753,-0.65476299955139972,-0.37943198428908137,0.32752855917584511,0.67690629954066661,0.87244052855012588,0.83994813094519916,0.74376631852656516,-0.066603502806515474,0.30671044102476147,-0.95276036700337841,-0.122729143127133,0.63365615810096476,0.82280211914690027,0.23461518807001394,-0.40832747796732943,0.31232857427242899,0.53139337428951905,0.39710152630298506,-0.41964147106035249,0.44648984740594805,-0.2436681185852935,-0.076820477581333965,0.1942749143914359,0.057179831043418283,-0.151440818297777
0.074324902446836941,-0.45603247340048603,-0.57168985759497315,0.1504898494666308,-0.43783114326644695,-0.45214808165094972,-0.59173749411035514,0.58967122103398395,0.048424941326104094,-0.82965462671954349,0.55156570031837682,-0.090785937516399351,-0.78796225770172856,-0.020201864303307556,0.93809438067097328,-0.58843826892073647,-0.58376522460139235,-0.84094287602232964,-0.095982390326095693,0.69622756510088246,-0.43091508234746806,-0.51478132340593019,-0.22054319080073803,-0.60951308489090805,0.72569321976869139,-0.71987656587519888,-0.51984502516625619,-0.38835397465922183,0.18752828089612669,-0.70084293854588553,0.69751898149515701,0.21890195171255863,-0.97147111556769172,-0.27673601906091638,0.31274066373660869,-0.99301574816345473,0.59989749742644161,0.373346643386952,0.91372126380769414,-0.21046129724368945,0.86455863181874293,-0.53397533816193654,-0.74121533466408418,0.0038073088040385212,0.43795131304533563,-0.99684155650423312,0.58489934060528537,0.65586650747950204,0.42675614959561337,-0.34777261478274984,-0.5510153873363538,-0.78365222011895852,0.43084862753377823,-0.80619080611572635,0.061894601793928486,-0.76179362921026417,-0.63367971343390828,0.13812532298330618,-0.75165240088521357,-0.048861513189351037,-0.069012923937429124,0.066932809189899189,-0.12187969683498932,-0.76129003656277816,-0.31811817751810501
-0.61763990560200943,0.7146405617096484,-0.4314462100262782,-0.35889511079632069,0.79314492292741812,0.16573389701430777,0.87756480514588908,-0.88332530508028206,0.52893735314878765,0.52073545784510489,0.71948954902957563,-0.21493939646340263,-0.49278740101430191,0.52312954350452934,-0.064163254771825856,-0.22648702516442673,-0.20464345247388796,0.9919132436104714,-0.25892094319985465,0.46895048942359258,0.43705033063944498,0.072336344996223642,-0.55933191353892864,-0.29227470137984646,0.053439509979383168,-0.2688991005496863,0.53407840321087252,-0.53639616050147554,-0.70723574013615897,-0.65294630087338834,0.64056889538313677,-0.33880408049113508,0.19305201808591513,0.99648253084462757,-0.08331416699085302,0.23127370793671156,-0.68235093017054804,0.53574923405362085,0.50728557346912595,-0.89151254868311436,0.70654468201399379,-0.68082401375236157,-0.1750070084491851,0.58343661519151402,-0.01039547789021133,0.79912380371057379,0.77232596718061786,0.55675166165940249,0.76278215516389081,0.046635667842414019,-0.93550753629710837,-0.1404409421034663,-0.68190518549796575,-0.4715428772772825,-0.46077246280320666,0.48312183971656047,-0.29721260735592764,-0.52838197608409887,0.36787206289292784,0.84137458732652581,0.76151899724826189,0.70718411553290161,-0.37394746165392845,-0.35461619520099158,0.31754557855957993
0.64752429425449376,-0.36892881001351674,-0.38264581646726625,0.36275994084455099,0.12115997358198553,-0.24210864983138114,-0.10675543580603082,0.62956835973380509,-0.75633148454726917,0.60076339158813852,0.91827295000085751,-0.80275483389557356,-0.85405169156400129,0.78596154975634891,-0.27437519364952179,-0.015737381977485466,-0.7101189306967034,0.94438063058170463,0.50310316264694799,0.17870810226641617,0.074657790279638633,-0.59692203660075549,0.46087330976200075,-0.40154142674761167,-0.43600713402121621,-0.77398384006322685,-0.37097332772060565,-0.14994954673268024,-0.90396905394494942,0.89292493339419721,0.71494635644495941,-0.12965411267788776,0.20350524441349499,-0.10149945978988387,-0.43141604670105654,0.57221514601931822,-0.13693325816279336,-0.59047589933796363,-0.92482093704125168,0.53251367427213314,-0.52736509439254542,0.81910629398895807,0.47597932224965006,0.79712123926818035,-0.10541467674671387,-0.44129761271586948,0.13942671052597319,-0.10176160562041388,-0.50243509730563951,-0.78087965832087025,0.56698514888309515,-0.42570332898477126,0.29570002452430516,0.89422663832290916,0.56012808738439868,0.52336683805022877,0.053534730730751656,0.55903822985377682,-0.43437904605433969,0.71592426395254594,0.98398294668413144,0.9398121973760416,0.51674416989457317,0.75489718103281711,0.66814339915885657
-0.1840572354344219,-0.42207498364550705,0.44880331862968914,0.56719114233002843,-0.5983349854150064,0.50718249458953091,-0.5065007202728119,-0.44805448418466148,0.43524741851334664,0.57170939337381954,-0.4065447052495394,0.61834284292500907,-0.16570280320401726,-0.15639665683831522,0.49656627421594768,0.46604525828895582,0.21655243603029556,-0.12241394839625327,0.95471397340062203,-0.54554410340999981,0.49779515090521731,0.67605213367740347,-0.22929994268157228,-0.013809032414326796,0.8463319246893759,0.27667729452043582,0.24861723959719884,0.036257063507287281,-0.90192098685681865,0.41129345792844296,0.31127482499657627,-0.51325903000727247,-0.22796410839698686,-0.15016119572158537,0.07346659561920213,-0.74792053166591044,0.78647188131466106,0.037697703766455093,0.62978955859544428,-0.079523797491246759,-0.24423150944317348,0.66461568411058092,-0.30475887223086395,-0.74871176713535359,0.62433704507912824,0.66296085870820332,0.71675864510904641,-0.22149010787041021,-0.096619417621057788,0.7053551062566098,-0.4947352239767564,0.89522498868921474,0.12719456860585279,-0.21790888443943485,-0.050618657254027359,0.80963697441185856,0.72565326167581334,-0.74717930018768541,-0.7736372453124164,0.75039396265969471,-0.75397974988936789,-0.42567412269579941,0.11132661461894339,-0.27783343726781956,0.44351893734066944
-0.86263300319688085,0.85183703866883498,-0.62566972930701714,-0.41730009772651461,-0.7472871416283019,-0.25731217773957904,0.80512964721520552,0.42611983096160666,-0.74139817393113305,0.24815009353009088,-0.69289777565577304,0.45308673829208607,-0.15626637349257946,-0.97079245012440019,-0.36201069649357959,0.18312798354776186,-0.039136349921749303,0.41960120554938629,0.41884669801651586,0.42158506792892131,-0.73176702662501569,0.55484653767507841,-0.084187854027550024,0.52178569553621301,0.077659308522867759,0.75988303633526455,0.17080294467443236,-0.72099682116371744,-0.62780612280291359,0.084361054072802588,0.34921288101665166,0.078629225793823573,-0.65789126838641143,-0.58274268040387722,-0.14562138481432196,0.37578338903240788,0.040293054153902746,-0.39570092501956716,0.48518117778161401,0.18327965100409374,-0.33343723594236219,0.11210304038478361,0.91125365087318477,0.096567673015804434,0.025760789353295465,-0.35271094644860224,0.10355919243795202,0.75156304532571117,0.98436738710363791,0.76061053859433037,0.8897273963746859,-0.22916280024483135,0.73072012364428018,1.0022507123640663,-0.44757961145745784,0.92884827795069058,0.7861096818550235,0.57946607770874059,0.89050092488288612,0.40536854342877282,0.91061613727698787,-0.99245821956307501,-0.64093693931040208,-0.24160088727537515,0.10944316590481498
0.38817279274895572,0.92397291236461654,-0.96978099390629502,0.253144994594041,0.2524236468567741,-0.93690582024436853,0.55792854753114562,0.58802246298176153,0.98011941340673858,0.96769877321950026,-0.71182243910695253,0.20699920244772715,-0.88510429630950871,-0.026960953018853092,0.72275568358757158,-0.80592598241562963,0.47689141165455773,-0.5120482561442673,0.20082600708466444,-0.61293738948644261,-0.052666273441479623,0.13145392825837718,-0.63077591695630297,0.62352006865269971,-0.033593106616784399,-0.79738469304933335,0.0027443836243775002,0.44921457395171904,0.72618082485443025,0.44343118553173011,0.78536084538082829,-0.58263812467966403,-0.1500222965039531,0.1725474387538814,-1.0146045957341689,-0.76035641938207654,0.3511286379944486,0.67797512180673847,-0.76347918500518175,-0.87414556286889689,0.12563984459726629,0.50228893894501214,0.55482921162055721,-0.75312467913005809,0.84106622256657604,0.59380002361088191,-0.58679520143336705,-0.93068010575296878,-0.27168987945870182,-0.48419650319730539,-0.19643246451244498,-0.91513028166781796,-0.28915919672765611,-0.24906731207864044,-0.47789530243555273,0.39115420987710653,-0.34633727732372976,-0.44463918369707728,0.81158213311888772,-0.66111856887802067,0.73840554080817966,-0.74018283561362597,0.66635384901020056,0.054913480359306904,0.59147904803487128
-0.22660724462099591,-0.017593450734791988,-0.60909483912718076,0.71004536656806161,0.47539478327477619,-0.13276699646899504,-0.44281679884248015,-0.13709632488303611,0.74341756060149999,0.5747854479804082,0.61458510248106613,-0.83265303025853854,0.62824199387688096,0.79289056271262126,-0.2717352196208922,-0.62981430491207435,-0.91017490555884439,-0.2239982440656163,-0.92523957796199296,0.64668497879981202,0.9071374694107559,-0.82863069016439894,-0.80035242359523873,-0.65911891082257046,-0.53343903068580223,-0.069127852959892586,-0.60861020508951169,-0.19574248673540284,0.50735875142547648,-0.33898249147829035,0.4012786173603321,-0.38410305680053763,0.60687945900884666,-0.05729793827535333,-0.40537125135914343,-0.98143313030041957,0.64035282433674046,-0.74630180973987481,-0.88091172671970508,-0.38284623862882022,0.099809388532983837,-0.31823621474900837,-0.91021615466278305,0.69064096416304521,0.45532983632495211,-0.57743106109812448,-0.52487689277884175,-0.61007605738174731,-0.67754215195169365,-0.2287558679585085,-0.36681869892658453,0.8704675162130493,0.67147798262890301,-0.17035087162390808,0.26704762518541436,-0.070422622735667045,-0.7770062336191832,0.23935729034058384,0.75781358625040673,-0.80212322899621613,0.18861142025229405,-0.81161916919174104,-0.50084523668219816,0.13024653693309909,0.58153745395079626
-0.0019535057123293942,-0.47804858800968764,0.42436976676411853,-0.32600071084030247,-0.34588935061162451,0.24727010170008604,0.94415573170867428,-0.90055398242358808,-0.33543240028547761,-0.67809428913624781,0.64027318195262062,0.38047262646280172,0.62370216215030849,0.47402528315664549,-0.61051074976238207,0.98884270045132816,-0.8807753112502934,-0.70938294108043431,0.6112379479252652,-0.99516508205771159,-0.058684625910168542,-0.87491023029457882,-0.70193979140788276,-0.42595616597417946,0.55030074100346826,0.3810260188302303,-0.25054147646588648,-0.41817997281572689,-0.79034428931728495,-0.52003433298866419,-0.72856658075546188,0.34802497654650161,-0.57951411291471,0.28140545679086432,0.37530187781109736,-0.71529034411133641,-0.88888567725864687,0.46627501886845729,0.63104917941239336,-0.012678289522213754,0.8295908160098987,-0.53949510257912037,0.048763166913221946,-0.34345425652996225,0.59065913326097752,0.14317880137170969,0.089723915490383208,-0.64257731888683456,-0.29563506353427305,-0.3870149024940282,0.25490044829590797,-0.01754061629222476,-0.72804715324567992,-0.71141883751746904,-0.013912441339691637,-0.58126592567709434,0.82060443268530736,0.059818741227104004,0.49710532790852363,-0.13890606837312941,-0.87364051740225135,-0.2951975822043667,-0.18672782881551542,-0.53274205668157482,-0.038534837501699885
0.076886934417994851,0.15692417610996406,-0.3258632346825534,-0.65417007838730923,-0.65940494080325984,-0.35181184428199314,-0.084188447464903837,-0.16844956430476346,-0.79681436687206264,0.61744192911766527,0.57582605332055747,-0.77624227348418984,-0.90989344628757152,-0.4311819871212404,-0.72914691588075931,-0.29233140412614111,-0.63648625957243121,0.12957151736993869,0.85382503744755367,0.87993355317018696,0.53630343343071774,0.42972507493182005,-0.045931394744023531,-0.47247186362928684,0.34564681878479814,0.3235907896837476,-0.85994785873771373,0.7686730346053573,0.64795850603165261,0.23176399925269486,0.75912528629420906,0.70997505168571373,0.67624500661574505,-0.15425658441505621,-0.9493977046107579,-0.48688894260248322,-0.76479548171165823,-0.2521778766254274,-0.87219634807958979,1.0344305320669804,0.82171514872246088,-0.53349829666378956,0.47137773002442368,0.44578720196522259,-0.37235917648343381,0.28527001480268377,0.27930690035489225,0.027082913791136795,-0.47640824175729884,0.3638574791374114,-0.007819783961774315,-0.22794564150115162,-0.57729193201570272,0.88599386072269992,-0.21376165153352972,1.0178813626997516,-0.9566858154486042,-0.31114646391549577,0.29561115766035001,0.19358749464078348,1.0235628751854318,-0.22027469783438505,-0.13621361964746848,-0.22713220746549015,0.24221280651462149
-0.83082199458486206,0.30268984881027783,0.31746980882435588,-0.56379551216428325,0.19730957211644373,0.34603404451506581,0.7824022157353534,0.65097642169974423,0.62462609978412864,0.42948921535957102,0.51120900388994073,-0.76008903832753072,-0.089408778901893901,0.2669260538434593,0.27647000963402191,-0.60332149841669958,-0.73048066649929222,-0.89680772484135429,0.22668348286515672,0.55575024155971808,0.83635771296277706,0.42217025753716148,0.88216567398144408,0.72683426714617427,0.34710897423684722,-0.11732290367560883,-0.4306716296565567,0.73107156483799685,0.91460853060820468,-0.72832000404517205,-0.40705669379412568,-0.82093422662463233,-0.2616791656699205,0.2692680360296964,0.96006847922669758,0.27993795548659928,-0.79487028088642475,-0.52510599487491449,0.91488405896947522,0.89932067292503914,0.089963006198022707,0.73964667136899898,-0.63026216266603619,0.64207630119001502,-0.98770080903641722,-0.84315141424642093,0.14580081380169649,-0.32078071038585931,-0.753577364831436,0.078606476827573171,0.14660915240173875,0.39918883451569165,-0.73358895188538042,0.19737425090402494,0.66336774728468573,0.35489012098311568,-0.63361517396436795,-0.21560824186725674,-0.95532214365234602,-0.64118744462750188,0.6616478772343668,-0.18775376952055509,0.91294595925829003,0.17916808187575406,-0.31641698240688648
0.72892145150014165,-0.026961917688013592,0.81499369282388079,0.4643040643355395,0.31582960210339311,-0.086409927015642415,-0.37026653429531664,-0.33098229580850758,-0.27072932199466415,-0.46735022312223778,0.058738052275612053,0.55494940022035544,-0.10273940804031596,0.6251130943490627,-0.16753833934028781,-0.93018093265829138,-0.77347972204687843,-0.38902220468952509,-0.30106608644429295,-0.55869602895240655,-0.31082474175563113,0.35334586756761838,0.45303064235696627,-0.8731076539932181,-0.17043199561560929,0.88286798036534009,0.91937819129380793,0.30139428630788734,-0.51923478689890179,0.34895760607006965,0.094084825508483336,-0.94244232316759913,-0.65509277970274671,-0.52890978269358269,-0.3170196236363288,0.88531971354246852,-0.097157185655626269,0.5626065124575369,0.65556974170927373,-0.28754017911020369,0.343599360496749,0.51657733546115847,-0.090336533946207859,0.20162216988863324,0.11350802078499317,-0.76396685634205119,0.97101237249567918,0.96930790771574793,0.23589508670113199,0.66062127507938839,-0.55912564107603124,-0.64052977109206632,0.81428335541558183,0.65587223368827718,-0.47375002776345454,-0.694635385173759,0.19543047868518773,0.12969978098084814,-0.53209983902297808,-0.95357685145478743,0.43489359690640667,0.26895045687056723,-0.79274909268771765,0.39505464767382092,0.9254251121510908
0.43262444881658868,0.70662381511269634,-0.75679109223261853,0.29026796266832949,-0.50789394567532153,0.47964555023518074,0.58098323783278116,-0.73361150625258065,0.55796025778653013,-0.32709265795554232,-0.48684827315824281,0.40388691005166288,0.3169153972661094,0.37802392761845793,0.9417602376297054,-0.82862413588686423,0.85114150771562336,0.65068696416703864,-0.69876646263599473,0.092335138337999556,-0.62305830509823457,-0.84518313618909713,-0.4291255618799984,-0.28718556750125385,-0.2991493700740494,-0.86744436926435764,-0.8951013398955886,-0.74507399393366758,-0.16951175682535669,-0.58838395358152273,0.36933871025920184,0.029643357334456444,-0.52351779177930813,-0.89666028820585186,0.54537206441192476,-0.79240972859998715,-0.12105938873325359,-0.57969760708806728,0.44495626167392616,-0.30663072682599174,-0.79021596840575814,-0.83698586012845155,-0.84816880997544908,0.90700197591203868,-0.8610738640885196,-0.71600180495212995,-0.32604073338244577,0.53505733518209098,-0.49836709817485886,0.75108431528591324,-0.96656508407728681,-0.9092511648135666,0.46238784480749728,0.017241155906801836,-0.4318766737206724,0.54460898296587434,-0.55594741872165299,-0.095340068650665841,-0.35931038616663097,-0.38571197996580886,-0.48621979892669448,-0.70957501714377758,-0.76250526451223999,-0.11583557954295462,0.18293079282018418
-0.44205593866762966,-0.099969408699410581,0.49021648266494017,0.53376601326445383,0.24708822942621894,0.97340196113814814,0.80915959717391539,-0.60035729689948625,-0.87945987801756653,-0.62769521284254237,0.41071447070775235,-0.25410094097981051,0.0073883478124277344,-0.70291353175098337,-0.63868553812509976,0.83348716003526668,0.36269470786854691,0.43739502819801734,0.42674297146098233,-0.97066020784642026,-0.13680278610926741,0.27242479289698412,0.98738856297124067,0.99349162391476475,-0.25290580322785766,-0.51370475876620902,-0.756755642977195,-0.66353219735358537,0.81497859251514093,0.26787476668319266,-0.54203338415006519,-0.41325685787555172,-0.052951031644212609,0.33757154807677431,-0.12679099377919714,0.77460723478746718,-0.90934982255144647,0.83805788643542845,0.17037499655972527,0.45269725283263096,0.22878706006341878,0.8824721084439443,0.19044104845844523,0.15657034848943774,0.97201097639852341,0.44169895002395881,0.74552288630103014,-0.6157665789910205,-0.45575535261783828,-0.79086571646422754,-0.054747346116841435,-0.2456828404751841,0.43592467193903245,0.69708634156795668,0.018448602438374484,-0.43015694363682327,-0.83284142464896449,0.17126866833755991,-0.24104810648187405,0.29311537771314278,-0.70411833163039705,0.89117117983506711,0.63203918456969654,0.31554347086090678,0.69713373549075519
0.21396934989254748,0.86805380231271734,-0.18508596922455797,-0.46104927334547369,0.51923747844580581,0.79771189145802923,-0.062313931458282429,0.51655276886735102,-0.043677893137582545,0.80588779527921905,-0.41789227271336915,0.70321326983868415,0.92726088718417921,-0.109236529774797,0.78691248677038628,0.061046433036267209,-0.94258432077776055,0.21010752814097558,0.077259893731076432,0.040302761234967337,0.81701354509357327,-0.54716999967330371,-0.62988577902537146,-0.14002185425282332,-0.32962584829814717,-0.58173579231612937,0.80082482534387955,-0.43212282213943226,-0.67396939951393331,-0.91111279364006881,-0.83765974521999642,-0.35711524749052381,0.80493318468528741,0.35398586523504522,-0.089245608923514977,-0.68080668280157375,0.17239383349716539,-0.77603066463674675,-0.21350358698757807,0.28843226454337817,-0.90783681244796477,-0.44458245974327631,0.017742115611628851,0.77309002011087125,0.089803001215190983,-0.48039107247130286,0.91363122145864983,-0.14402481016886709,0.99250453680403306,0.70774062662862969,0.85221030225651828,-0.92994258124025042,-0.13993850293959387,-0.40895374046062188,0.91730148306534509,-0.19434649277776644,0.67938991285406192,0.51501221194195201,0.010529207504807028,-0.081281969356886613,0.24662996822077393,0.82633780884049468,-0.2200791148185488,-0.2346876070375282,0.34288718038395355
0.17278416334978061,0.79517700745953035,0.18627378436196471,-0.37588474359452084,0.59992889745755618,0.44336561205779962,0.97601752708786482,0.72647964949324118,0.65029684848912916,0.64286232601822013,-0.62514079584264781,0.40603866890644708,0.04784179769949614,0.27713274291745893,0.8315379863704957,0.89414286781291086,0.59699018761326184,-0.89035148154694976,-0.35442473185821172,-0.79519218150174742,0.20188409219589393,-0.63220977896821429,0.76833613532512102,-0.24520609444736677,0.40703788105762323,-0.92784641789694122,-0.23201152761371593,0.3995361712608389,-0.69941355649317682,-0.74785754103148583,0.37475389944616694,0.37461262829954739,0.01173766872365903,0.088919708527341434,0.69226109736487318,-0.81622970170849685,-0.84177421274405029,-0.030071085673108889,0.29154067538013267,-0.95381618506892785,-0.27685937619300255,0.32982030224002729,0.1891710153132436,-0.55765017756539148,-0.10247181843364613,0.34221983564804648,-0.42593706156977412,-0.89628486801832796,-0.33570582565678825,-0.88514152353026054,0.035540896663777279,0.22079766170961501,-0.72511510093497289,0.93423737698384091,0.58806397360593088,0.54141311254670266,-0.61165342059268335,-0.91395338469512721,0.75873088996964733,-0.12209592794955784,-0.97219263120522648,-0.11223735680411388,0.503873234824875,-0.85592808231986173,0.25298889602655383
0.85752742060085541,-0.25511272828968118,0.84816050839114943,0.5079468513578197,0.88567854186376416,0.20461197765895156,0.6693583563110268,0.22652950914792716,0.92312746528014911,-0.56167588733882223,0.89244995562196683,-0.77669701981263684,-0.086999148092043288,-0.44113692804120719,0.35247703691781862,0.34708763042484625,-0.55626401011014903,0.66308346551865016,-0.3768817499462177,-0.48453982947776036,-0.35965182572486415,-0.033366194754276525,-0.92694295165528973,0.80642227066048899,0.66511254144989362,-0.31098058248170063,0.0031618311482063898,0.43289068291705191,-0.38131322069866941,0.03551350888333768,-0.37681264409846388,0.094147903558382151,-0.19257594016767771,-0.60984634866863174,-0.69090038489373606,-0.84584566411764062,0.52859986146700455,-0.72569128290855311,0.90164172082441851,-0.37278043872237049,0.44037408696814567,-0.68766770792951015,-0.72404178156311627,-0.94440023777953308,-0.09419492747063038,-0.22020937000052246,0.26687460324653556,0.65130305001928257,-0.42755150363157429,0.96497659445983874,0.70133579332275287,0.84290294901870422,-0.51868177188089004,-0.67219639939411879,0.69978662290171922,0.18471420035084046,0.275389704328457,0.18060464511844107,-0.14910868427686344,-0.65323242856610408,0.87520753800023932,0.56747750686211607,0.022756797568967143,-0.70418765612082357,0.70475945231390968
-0.36137336461389175,-0.84081833932189387,0.59827770521785939,0.51044373875432636,0.30255285222724443,-0.50788866021390844,-0.62495631531132112,0.50663377682128308,-0.36956494629898734,-0.54404035353781832,0.83606164387651005,-0.16065415032287711,0.16601530613043847,0.28129065446919999,-0.46094024309906706,-0.36404876305015316,0.052266989068444174,-0.36550119434052919,-0.17826863252551664,0.17489250841303738,-0.46325562148860455,-0.34003855149874129,-0.81242571763162919,-0.53721679773710895,0.18260993572295667,0.26668995094260162,0.40116008245228141,-0.42906082812931928,-0.58307629581462539,0.41172737715139918,0.7937910667940884,0.60491800928192896,-0.26572813381998189,0.75503556999812338,-0.66923685207219896,0.086902577125366282,0.58815985167136686,0.9873150092067301,0.74078482331762507,-0.29389765503279625,0.69442232123910286,-0.1809961982305337,-0.76455843464316586,0.49657347719290279,0.47165736688059751,-0.49318708597735889,-0.058836451333339243,-0.44141102129129151,-0.96350456082436364,-0.9468791435806887,-0.86198066509298354,-0.55094467898752664,-0.758378185429328,0.074249741156971819,0.25415474675428329,-0.41945162560242011,0.85649963690913178,-0.36059444152455072,-0.91485909756451755,0.97902524051606277,0.77085184651303806,-0.19544690488816702,-0.10877546318462522,0.14427701890997066,0.86776307727313617
-0.26903481764733905,-0.35241260416865244,0.77894902277331113,-0.32536112133869999,0.42440467089900918,0.9068111716619166,-0.66444508357293186,0.967361827150649,0.64696492709460895,0.82623237967973129,-0.98181507496114351,0.19082784354564586,-0.63904172240252866,0.08783840451934341,-0.37194735836942538,-0.21827578607695522,-0.61477352262859597,-0.92091469818127869,-0.78692583449208076,0.51807408810349398,-0.22737911799705321,0.42842441336623444,0.69814278950413744,-0.42465514570476398,0.5958972846778775,-0.37842047142899843,0.76358190874631415,0.96912203055296309,0.55602863616493137,-0.53682619133302856,-0.51400384653945264,-0.88330250112664377,-0.99840190793290584,0.95155481820619525,0.52601357705265361,0.49354564386570693,0.70896001337847891,-0.85166682097572366,0.31325186441738556,-0.88016524340680258,0.10003996856101414,-0.077938946986156804,0.20707110020860381,-0.0034774130413591803,0.97794235730957879,0.4429907732598351,0.53060839942667148,-0.60747489628362017,0.99186361671310863,0.63232499663735819,-0.59501262086228901,-0.23103977219980862,-0.089838578495071333,0.93810573970419142,-0.28964541072464184,0.03304158466000482,-0.30715092423639745,-0.30612880808742188,0.55647439161041379,-0.84962226188033507,-0.71397848039489431,-0.27534312675697908,-0.88156049707330053,-0.48390434026506313,0.1565927339917185
-0.52523282808762028,0.65701231761236911,-0.77052242223008782,-0.4787314242378895,-0.94128099013056232,0.55842416067308487,-0.59560039071165871,0.50167691360263467,-0.015571930508424372,0.9785581535546507,-0.16227459417082424,0.76844441002228214,-0.94868711132281847,0.72701139109770541,0.057780174424551488,0.40582443479501201,-0.43369696947153458,0.79874489365638368,0.095271800500370332,-0.82449476502856778,-0.22837511827823509,-0.7284215215310067,-0.42674838301585083,0.7435881903008924,0.12535498641455808,-0.23637022312683367,0.52101512073871403,-0.21312846053026352,-0.55095410419553559,0.283008556556619,-0.91739457840028726,-0.44620409216613721,-0.57970411888591333,-0.56291354386263315,0.40448746652187323,-0.38916669494322598,0.87083948865328464,0.057366171213016501,0.76640257558044977,0.62690537074615948,0.33008833107982483,-0.11202610781002531,0.37294466662181375,-0.087873679861549869,0.15243057479444599,0.55844173151314402,-0.3555031344627651,0.60746393164946033,0.5690632887274425,0.94834902848130997,0.42624049564375488,0.69110621027987207,0.38592950165190421,0.83971068174575414,-0.52437980819042451,0.93691900519367344,-0.6494277432956872,-0.83948840383888268,0.24382257215168812,-0.79957389408491242,0.90691290637783473,-0.88948004678946591,0.75902822386214697,-0.34960778106391865,-0.60455654791998548
0.64292151914636675,0.24482768709711589,0.82715144781208527,-0.34795646640092326,0.52182964393041509,-0.94402895992749525,-0.88541105337388648,0.064007298848132679,0.10603122528244249,0.93137818507563308,0.99632493292424418,-0.21531854891192898,0.79612287491169886,0.77585764238423749,-0.95878223893937675,0.59146979333835958,-0.52179944664989297,-0.71081225135619996,0.77918237219298425,-0.44880869195935547,0.19281470164032002,-0.84913547432207104,-0.85481799123016755,-0.16808319800260918,0.14930493175908582,-0.029777974632170471,-0.58939702523678794,0.75554549843600005,-0.92840586251998247,0.73789785428081101,0.87813268052848015,-0.32880449204495626,0.015764737697544589,0.27907926415832052,-0.013025065229949295,-0.62606396572883927,0.83537345968916255,0.73566560553071825,0.096848132314427043,0.2428970488930686,0.19695545648389279,-0.36401621561962105,-0.84335773171482786,-0.7793293176765882,0.1822970881876643,-0.45215424776375396,0.42357472942119567,-0.63965652424799768,0.6412248729352098,-0.34613013397209091,-0.24276234442695618,0.52925003047681596,-0.90368330541614994,-0.039450478152036304,-0.76082801065334593,0.2952589666392974,-0.92713702626105055,0.31590534920781022,0.58063814322290186,-0.085346759022108684,-0.96399024703793545,-0.79618303911392241,-0.15348118055096555,0.65040115744680815,-0.27531298078782246
-0.18407783483866419,-0.31574570868867807,0.4985303798476069,-0.51766253488620761,0.069488323832055804,-0.59582369841988281,-0.3885864152064134,0.57445706853714373,-0.9703588236568198,0.37813351203189621,-0.22011813484555445,0.77322346607051939,-0.71163277617467569,0.97419982270160388,0.62776410370394808,0.38441320285184266,0.13088180320858397,-0.26274030210576771,0.12376080071805093,-0.84779913805817553,-0.2798949321335929,-0.88949884966032744,-0.14099214056340395,-0.18136130933705699,0.2095826303474041,0.82071934422409842,0.82557031497126432,-0.59409105748398672,0.080336825888057198,-0.98770093693570182,-0.15326168786340882,-0.52916778120066199,0.79148355375265322,0.90828409332671411,0.17029943169294082,0.076969483973571076,-0.65089020779579321,-0.7687271877275208,0.31578423967721608,0.31211136155438607,0.92532612527689784,0.24316497601219458,0.55836369602082991,0.01909616480735701,0.43255507506674945,-0.20608199905788335,-0.45701796416482326,-0.91422015190155581,0.78690696008041627,-0.22022181485281758,-0.37580460878730382,-0.043653195255464079,0.062347746930596741,0.29403990506895405,-0.6705325003677739,-0.35353424552518753,-0.59611693640411623,0.28628719133454505,0.012108979041971413,-0.96581981126317262,0.13658714845970055,0.10833654032763528,-0.11598720522336961,0.32512628570496349,-0.50039289746351479
0.6910954755583637,0.52736731855190355,0.21647077525244252,0.8530183495427951,0.8886419396003592,0.54987423551880488,0.28111871931724719,0.17996232509064233,0.026292859555463625,0.13940711952053034,0.54632484799446945,-0.74594511994056789,-0.59621676666553591,-0.036389682970630582,0.26800152754854639,-0.73696809543320163,0.019335948342743381,-0.80488243589502162,0.63521100525483065,-0.1322418757750726,0.97498999752733317,-0.59623248652163685,0.85563536404076979,-0.13359077967264602,-0.12435108059244322,-0.43772969000839468,0.77643330185268222,0.1868211139710747,0.86996347535790963,0.20719492808668558,0.26160023383357112,0.16353001220311048,-0.26216183648405417,0.80230571989552624,-0.90070095511339254,-0.063728073745213235,-0.95299692433522321,0.4999481966011034,0.64413538521171043,0.40415506881955776,0.56609211026860173,-0.21408302981384503,-0.1569822836326934,-0.28188095746394681,0.68837786573073634,-0.050881376818474634,-0.21802214772680276,0.76264175233965481,0.94124535911794871,-0.6165980670571436,0.820044591105071,0.31257544988780139,-0.66256315830434842,0.89580618538105417,-0.11010054300953669,0.89871826631826401,0.46966395302423786,0.93722768305027671,0.23990008349150302,0.80417067485304639,-0.23371709347123631,-0.10094440452122018,0.66626164648126152,0.54050443906576973,-0.99629460479660714
-0.16473379367581409,-0.50551666256602545,0.42571184835357778,-0.0022371939909336612,0.32750495284066561,0.27520410146106544,0.14845260300705626,0.13982421102253348,-0.22875609212353942,0.76217437155740897,0.17735723708533288,-0.25212849924476038,-0.667687825664386,-0.38116381929306009,0.8263136800543267,0.5251158298065971,-0.78874385757742982,-0.79973144262634899,-0.47341159218965662,0.51233465435732151,0.86369494597900376,-0.34817300048698546,-0.3821369812942183,-0.13394451080148537,-0.085825009715022119,-0.50956439819165589,-0.43427118200481135,-0.62466333494658266,0.34607624605901388,-0.45639622504350724,0.91137272116195978,-0.37353067101060633,-0.89036711617861863,-0.49794293202123718,0.851436671508914,0.14069093375063313,0.76542886932269683,-0.53181986248249946,0.56189215226534506,0.35098581230214265,0.22000718515615481,0.37343898963774214,-0.96030661702036324,0.64716807037522561,0.37159624227093696,-0.060897670498949522,-0.42818347840684889,0.787525629376706,-0.63668473998017705,0.47963162984500229,-0.072550267974615446,0.38860129238766816,0.21987551253774026,0.20459145033213902,0.03764540360262298,0.58853262849257038,-0.74742226626498165,0.25420541868320812,0.62576889739657282,0.14904873847963637,-0.89928995616259988,0.34562171943131459,-0.29979748788836991,0.69737806569641014,0.59821478348497092
0.77116112009714166,-0.98900324930973815,-0.96654389042382005,0.89897186672418428,0.38069717989380014,0.57398247163002825,0.64430260651390581,0.65602258073691688,-0.0012014385273887854,0.40717315377497904,-0.66902283966008236,0.42548820272322763,-0.13911497708311557,-0.45531214122305497,0.25021233522995784,-0.16476147624193271,-0.036172858237162882,0.54669396153843708,0.41662492565908876,-0.9325087900295107,0.80677800606211014,0.32419249120425325,0.73465663116645485,-0.76546868855501848,0.95272548157913661,-0.41127999519406305,-0.87349209146734985,-0.60980465082582935,-0.56766794186440261,0.32238522800691771,0.78516530643765592,-0.097514450784441598,0.65485137424303719,-0.39940082755039358,0.62033389333625277,-0.96175054031618212,0.66019883471464036,0.94053853303478963,-0.67199440676743738,0.036559033476570912,0.47931028563018496,0.79680449686439536,-0.20702095119019878,-0.28682276789827676,0.65417622593991109,-0.33757006884815288,-0.17735282278249317,-0.66572683109773834,-0.38593028016171849,-0.53767584555548276,0.90679485406327121,-0.31663065157670256,0.39806144351533634,0.78063076884782268,-0.19278299480438979,0.44415990227106211,0.27366001750204499,-0.15914162343163754,0.28502083888793123,-0.062650839459406943,-0.30445935245798667,-0.47369534656688306,0.78950438468832818,0.99257108510259562,-0.5536210927825852
0.39428173679630596,0.80268252225801962,-0.61186460018507838,-0.11762761149525365,0.73869167924723056,-0.67892819287794914,-0.37181690121547645,-0.48776972868471302,-0.031585470965092184,-0.53991545472573943,0.61309393451673355,-0.87428566898807647,0.013376225696874453,0.98093980137763259,0.29634986306539279,0.77746395542393665,-0.94514042284486455,0.46526406292182682,-0.68918650154041783,-0.54505795624081455,1.0098671158426633,-0.17727301778073601,-0.83120751511148117,0.62076376516963461,0.60997784892164586,-0.60697980606850988,0.904606053102885,0.37038222752729077,-0.31834163498723922,-0.56954182931837405,-0.22393383971245986,-0.039950391840184882,0.95827539371394321,0.43331363625558639,0.18855913393153215,-0.08877952868211636,0.92579250109950639,0.91868004219770871,0.098920965832544686,-0.12285831239447897,-0.36786281948526506,-0.74260797588905358,-0.40292027458002988,0.38516280823173416,0.94193489762256455,0.071462670740943285,-0.74281623157322441,0.25162514438119021,-0.16021050121097422,-0.15971976984729316,-0.80743150458154067,0.80440827722237052,0.14742173220930666,-0.11075172514428225,0.019909021741021056,0.026576484068885214,0.26446823956410159,-0.48843713182533816,-0.61693676661736108,-0.23241750453811777,0.068276885708142804,-0.85988954631148251,0.1060997905754022,-0.94913486681907411,0.17962817397668285
-0.72263027658154866,-0.33010936838127408,0.053323766516077883,0.97048387482260778,0.77815549010225249,-0.5529864556344023,-0.87046571525921124,0.44994444315762722,-0.16684973236289272,-0.64958724510347943,0.51805541447281966,-0.61338959284531347,-0.84203103549847813,0.54144275973436895,-0.92505959401667182,-0.10107205264346668,-0.060956462477953131,-0.21507396096153999,0.19686335056318513,0.788123642196491,-0.87396244375669574,-0.67091771380144349,0.35305781737523928,-0.68484127916887438,0.69071039332931516,-0.056971749343544209,-0.91259771747649721,0.69768190142874786,-0.42754823707349876,0.47132253837666516,-0.43976034192661095,0.42572848038608813,0.74315660147107343,-0.91943572409717866,-0.53597502013066045,-0.010111418098691646,0.94165734507345056,-0.47029316185513698,0.25447464512757373,-0.12838163469730313,-0.51588188026060289,0.45556960512782607,0.75196989598910091,-0.68249353555693537,0.3607300754332885,-0.28392175683615706,0.063774261657957854,0.8717955637096988,0.61311221536620253,-0.25081752154115289,-0.070805722334569401,0.29963426791128545,0.1561389963342312,-0.98622116305784946,-0.66133842229815964,0.66172474320317398,0.062040733316098072,0.34379077787134305,0.4752469371004916,-0.92267937675313549,-0.82327017463610719,0.83647861512121524,-0.70218233459814472,0.28200013857085543,0.54617114844025128
0.46785615741972925,0.53858824145787576,0.81758642505001244,-0.045806822171064299,-0.2293597480399393,-0.44127341208597426,-0.34954511986545472,-0.63104552581575435,0.42031574803352845,0.260953989106537,0.25249619835727038,0.8139313424850646,0.87608759316711626,-0.12986208573865354,-0.52313708625390787,0.29659640051683123,-0.33118075214859577,-0.55561184054458734,0.50441633564377852,0.23343940684176984,0.49173801254806371,0.63790695664134645,-0.44090146954377651,-0.87642836621795495,0.081217787275853312,0.10060796360563537,0.01603156423435043,0.20286915192880586,-0.69880115392072739,-0.93468781894985931,-0.4197469063337318,-0.21018007843063086,0.43141315230160399,-0.18891656012025262,0.016762356034270901,0.27855940891221764,0.7572125796764172,0.092626737586614341,0.55550410450851129,0.63179816344606154,-0.67840527704305065,-0.36025195230088791,0.021363881476454412,0.7191950544613771,0.79101092651638172,-0.4657818276141299,0.034033286574114543,0.78838407315342418,0.77777987385563496,0.015553412846128579,-0.57653645133337772,0.53772671364950742,0.42464788844131535,0.75572606680745535,0.59712933103172061,-0.22685089286683066,0.96143771463388572,-0.86767496536185595,0.56668690416663137,0.46098880196867975,-0.62107819818674004,-0.81531671971797726,-0.4007702109951769,-0.34710261608425869,0.66542729213763285
-0.70846301817424295,0.82603753981517658,0.23248145957121194,-0.30847549950313802,0.74699730940190967,0.039490903448849292,0.40204769207281082,-0.23712030238939177,-0.73161810235958913,-0.18947055927496981,0.078172365973949415,0.01427665624715369,0.47580262054421885,-0.84435167098082586,-0.074859673054282483,-1.0158954410708871,0.40184245626898191,0.69619380259407537,-0.95635247381446187,-0.35159594173261144,-0.21019858784257475,-0.30487920429104942,-0.53873420946824124,0.31774979615334309,0.10436689380083031,-0.19994140516998613,-0.53454126566624383,0.6652123503286308,0.073321320587556527,-0.67349256717803307,-0.68929309858677756,0.61177268025334652,0.85303491123233488,0.78244497054545536,-0.24946193626987023,-0.82091623097754918,-0.46944604110793403,-0.89027006040293066,-0.70341691376740556,0.69683365178518852,-0.49349885689771916,0.47230621096933562,-0.21840846806402694,0.12753145429935833,-0.018270684440298151,-0.11868840836912224,0.34059297580210812,0.81999000677112599,0.40019589689551344,0.29548393757517122,0.77217754829056195,0.66590793924720371,-0.070784689377189014,-0.067685357395969203,0.4598457648822834,-0.98663798280857395,0.12943092686076199,-0.0094936052632988831,-0.44834615550917184,0.13548819604939491,0.45480814931872665,-0.96769273166341097,0.69709495082047856,-0.32323528754629111,-0.33728955508060648
-0.33077411849710242,-0.81861679568392098,0.13114203453443835,-0.98845841181825156,-0.72770119580609283,-0.92792100935223343,0.66698013997539407,0.78341536700553549,-0.026740121185870862,-0.93240135582180717,-0.6488847120224901,-0.34934495333837523,-0.65642597485126297,0.47963486657501181,-0.84365254186083094,-1.0012310336782242,-0.67891130559543267,-0.74444564456196072,0.050630278070988632,-0.74625173194282801,0.93312293306485228,0.065919078952068763,-0.86626071440414731,0.92554890942320744,-0.035816685986749829,-0.39633328212349356,0.9490424175401051,-0.65379685796898301,-0.46748548227411635,0.018744609625009571,-0.71835241558633456,-0.58779299536838847,0.46989738729763003,-0.095387631117556645,0.79517262322498705,0.4334663703771266,0.21979276167999295,-0.5882704359479064,-0.48740248657154911,0.44038330899987832,0.74662827413643351,-0.63379313333161857,0.19105638155428514,0.97199577274847182,-0.31473358483592384,-0.22899188818526561,-0.84863264785442361,-0.40557716178136027,0.20112560029462587,0.053086950448220011,-0.40329619760303687,-0.27088059274291548,0.66025769788282962,-0.016396607791248109,-0.8358061552302205,-0.62932240908818282,0.71629732196996776,0.92929375101087164,-0.65443803714404614,-0.68959556360905794,0.48034209466289174,-0.53623187256063187,-0.47304200170022576,0.92686564417608497,-0.35471163971666164
0.49697600382406948,-0.79256093188473653,-0.97382003484889978,0.055916451532259971,0.42120907623364257,0.21304599641107363,-0.99967868635627044,-0.25907915029220036,-0.66224774474183767,0.69272620081305603,0.22357765518045411,-0.97027054547168678,-0.76797508138877923,-0.43889077232887835,0.61986660731365273,-0.20040654412210882,0.38036763465443707,-0.71388657403095723,0.11619314902280108,0.11242684216134782,0.660343809422276,-0.80642687320584017,-0.99602228241893309,-0.8389754749478302,0.50382835146898275,-0.04587506676059213,-0.018105847262824076,-0.24439892368768079,-0.29260260283289141,-0.053150893738075092,0.9190244012202935,0.29377475991147944,0.19857885368408604,-0.89110617157076655,0.35156063147858879,-0.29532548965031552,0.78796042635576324,-0.076989206162202339,0.37048805919915356,0.36398450213640554,-0.20756744704719712,0.58602044333823344,-1.0110386801708435,0.78430675373063219,0.77806774630261233,-0.33537924946690562,-0.83250286099819826,0.076637845415875538,0.71512561021910592,0.43404155145675,0.0054729166436756479,0.037501733229152637,-0.66245413998380687,0.360421058904763,0.37814733904641679,0.30012104046462373,0.19818997984955228,-0.11791931843378535,-0.46511043559401077,-0.34869052344360674,-0.62887033516275992,0.84033096842524158,-0.72236503314901712,-0.33127925124798274,-0.40748320880475286
-0.85339127700665429,-0.92497701299335588,0.44940202628132681,-0.96533920640523008,0.74443219657432469,-0.097014049701202712,-0.68179290384962787,0.84915693314513463,-0.27436350251356445,0.2246128380086439,0.25073614902969055,0.5674493957045601,0.24065896125216052,0.62602521677866707,-0.7075889174532205,-0.27551260156942853,0.56070946472790528,-0.54331571694583392,-0.14013468151497771,0.81019210548493015,0.5782985560067323,-0.56150275800957716,-0.77799886514207794,-0.13263644000978614,-0.3602044243034021,0.83400829610029004,-0.14573523403531682,-0.49205945998730288,-0.56549828298037241,0.51811203169328335,-0.10549953641058794,-0.23867136794357763,0.7571074166405164,0.72504321273573646,-0.89935978294595287,0.67320544884822653,-0.57742155558151786,-0.27204380003316314,0.6420473218139704,-0.92073269843438132,0.84396993075986881,-0.11140629925810605,-0.91239020211937871,0.33298024157444495,0.15120971586554346,-0.44176330365709421,0.7807154748387255,0.70698691608153852,0.027518384069436755,0.18798317547885612,0.54739404938126979,-0.35707014053501812,-0.69558787113702147,-0.63383762007794375,-0.52649520435493491,0.35387792788027816,0.21220677236877253,0.2756548660807388,-0.01705744068302948,-0.51823422155372711,1.0059435265639651,-0.39310935245627221,-0.3519649857535706,0.21376426477700644,-0.11071680674307517
0.28183918692363163,-0.88778345262866076,-0.21616337255600845,-0.36718924104214978,-0.34023038054468502,0.18280516381897483,-0.33716449965984913,-0.46134224438486432,-0.16033826531883572,-0.56676645791902458,0.86143911475786172,0.88364244324474828,0.48909939168827848,-0.80404953527151268,0.11917089935250587,0.66501185837915633,0.86612089863965813,-0.32159994140664216,0.83365737512305094,-0.13244068246429572,-0.60277027412925299,0.55224148843395615,-0.077656765969165473,0.35046021963520391,0.58388725714654943,0.81004841653983628,1.0092473133529098,0.44491472944154603,-0.66092350317365234,-0.22571629208998742,-0.5467634230750682,0.71062009788405767,0.12826648596877904,0.90551966707311582,-0.89217815815096591,-0.44091851847976443,-0.41427987421391105,0.02340655297792767,-0.076623979425131356,-0.47725996579745711,0.11379614381222976,-0.36944815629952715,0.6665162522045599,-0.77451408664554244,-0.00097162207359917754,0.44075123391682108,-0.020016558289009008,0.46780541116321611,-0.41352409702994358,-0.69216246519354563,0.42501613969992158,-0.69609131754671649,0.47054132058197212,0.63102425452027999,-0.1438256377788503,0.73432076528168044,-0.35675269875130505,-0.42113728731724359,0.4099564942955643,-0.66008076963371987,-0.53014330887062444,0.85736640028094169,0.93946731633651992,0.68360439621868374,0.43800338124402793
0.56257542172850838,-0.75251977790372648,-0.75834678757101615,-0.36381972687625386,-0.75484565254415192,0.61442719152911063,0.85299512365763741,0.25339934619541538,-0.98237660049292763,0.84365344037058765,-0.34131210126253303,0.95420476169046631,-0.68167826107998963,-0.53148991749710939,-0.96365808160292188,-0.19499656808341123,0.28068665397142939,0.57637186080911829,-0.87101580524744926,0.50951823976376154,0.0034776938589732216,0.2365098313689746,0.60667445852822632,-0.56649624937176202,-0.4612572093470873,0.65445732267111201,-0.73775644964942233,-0.69348513766606279,0.97246721173975703,-0.52506339989393036,-0.40028409738378201,-0.23081860944722396,0.13958082592856838,-0.25251493778590389,0.97101387590444499,0.85554361330322748,0.63596554902808744,-0.65023562012973757,0.042724559611371671,-0.73442367342963555,0.6553751922344333,-0.098768656216818587,-0.30410882115414151,0.76122060933944469,-0.88691236028152676,-0.044233993973416853,-0.44682868320893682,0.23879667290215595,0.82121007984280658,-0.12468637497914116,0.4663870070369347,0.39068615948158941,0.53131630078364434,0.23875313765861828,0.72134417173124332,0.70220549243316599,0.68564562698127829,0.056527104614630605,0.70757032277618437,-0.82272632192910855,-0.11835212160197803,0.63224911706731268,-0.19756085684994171,-0.23876764384487958,-0.40130305237996511
-0.34439420350372546,-0.72709775515594965,0.58650727675939829,-0.77954025614201883,-0.59122609510083024,-0.65350690486001639,-0.041175894468520817,-0.62005458194070817,0.84328862306626429,-0.20728866615892821,-0.26286998520245181,-0.4528171361163626,0.41134846551422632,0.40227303002103498,0.62700228172120809,-0.62394867580599422,-0.04145194063941935,0.36182139994042489,0.4843063817172702,0.31469311211294765,-0.55276092904644891,-0.83976611876946217,0.070832328924532742,-0.95200638972404916,-0.46558357550761498,-0.3572178434153449,-0.77452390089110057,-0.9505014271156671,-0.62031407059617238,-0.19630220500016604,-0.20389560448849497,0.89078183337549977,-0.056924230599448129,-0.74294161334221587,0.10887759573039096,0.27247030191057281,-0.74332697365996336,-0.059140222677777611,0.79815268860262467,-0.42462021219542845,-0.12911449787774015,-0.70952549981763302,0.2487154353521151,0.71885795553434961,0.21637486600219477,-0.17904088554628192,-0.24024749967605818,0.33098329012736039,-0.62772116402858924,-0.06445313469308861,0.52088691547564281,0.72987369818504844,-0.41176565168238655,-0.94343609140651974,0.37640792667706724,-0.51169920255171442,0.69779547187198199,-0.37300166041248989,-0.71318665962657501,0.5382482410466719,0.028234262900691694,-0.70342401407622079,-0.1512545785543955,0.47251059364205361,-0.58326155346899144
0.94436223667644958,-0.97868417590107093,-0.24198765182241735,-0.25686708244479178,0.27055999690881782,-0.59335960893526452,-0.72071381868228834,-0.33941571619684596,0.59917386970628439,0.22287416843231611,-0.8590338658113098,-0.52525205092738536,0.96322564655593912,0.8694262121763856,0.99078293199195666,0.084488693577807264,-0.72367760259263447,-0.53396791668138799,0.99668634349601126,-0.25914074219389643,-0.71318086128908287,-0.74601307262155192,-0.61160869117651229,0.25274137767858795,0.37968009764935035,0.68489916398209816,-0.5918052495756857,0.69787127303968521,-0.51498275199070254,-0.53332517104379606,-0.50271617690749848,0.434545972300731,0.96891003654850749,0.979261132615456,-0.43755387951775931,0.91115594159687796,-0.0079668606203384847,0.82866559266350182,0.98774420857286083,0.22885201070173938,0.18378834279324149,-0.97301833612157174,-0.47605577130820842,-0.70134794118489041,-0.39984836115814765,0.001833645944517089,-0.4457073440868064,-0.29833003565756511,-0.31758033931102547,-0.37262158142942992,-0.8844548624443499,0.34133515228030575,0.027359360770559695,-0.77003342337436242,-0.62058384523915922,0.95092791252612108,0.12521182697494285,-0.65668087210642956,0.090042812052207682,-0.14199277447308292,-0.70725320615434661,0.51157560316132977,0.6446727797024735,0.83126841805051266,-0.51169643821034372
-0.73107794405351367,-0.066350518970333755,-0.019802837722737977,-0.8509795386505008,0.18492065159517732,0.72611094483191596,-0.92542824565390802,0.86747650902205653,0.33601926057848147,-0.23885900850553107,-0.83102901115490957,0.74144702813014041,-0.13368784068391251,-0.3969909488508418,0.90622863376778895,0.51777137098560688,-0.048087191037202368,-0.68070987481342959,-0.95885246580895978,-0.18350865645010542,-0.42552482836180211,0.49152702795578079,-0.6663854936242769,0.54111103212272305,0.10139911511160561,0.64562716930008734,-0.14705109299753386,-0.79984062411360335,0.066069936257951101,-0.50053696706584261,0.82190085879768149,-0.27947926748741847,0.87662633705046578,0.59426711712736235,0.58986466481953903,-0.30496687706984071,0.80904527595747378,-0.77583696225609244,0.39671685486632768,0.090140088947862018,-0.14771057723163283,0.83251079753514767,0.90366295696650922,0.59688732708669778,-0.084643413529327874,-0.32154853306126169,-0.85667631091792795,0.93360852999763666,-0.78708654098017261,-0.25721078060611124,0.0092374725700249405,-0.28914589931794693,-0.33540085737389591,0.15419884973243198,-0.091543470467752325,0.56933397492907323,0.084746146736145792,-0.86176361935012225,0.87026091722073418,0.28955197493245488,-0.41204001898881515,-0.29899201633785433,0.75863048116220955,0.54688098365818938,0.92147084643774513
0.93613331252010334,0.085476555243390095,-0.75608691540514927,0.88817765056639952,0.79821735232547975,-0.15272296745616656,-0.70243523143040298,0.25930534524691706,-0.81564487741460567,-0.8740289373832073,-0.88532124531671619,0.51872804212282608,-0.58088986343385784,0.98772244774690887,-0.70967087464972245,0.2887902939495588,-0.44980400061034831,-0.5529968887198764,-0.050421752958347672,0.8407547064653178,0.53735820915725252,-0.70779347286290473,0.35198928158225057,-0.84015129092848106,0.57122492933783919,-0.79610694993309072,-0.52222234225723085,0.9423168460820065,-0.60166010011560589,-0.50159430998389176,0.56285219136846021,-0.61141492548286591,0.87654904951345924,-0.98649415844724087,0.81888846845412222,-0.073311081688175544,0.27344657671063394,0.88795008463871883,-0.77675534431769577,0.82156028505714063,0.81132565686220315,-0.072528769178646577,-0.9520057785565732,-0.72078690185577643,0.11460053813278133,-0.64790414728800538,0.72929570462563775,0.058012656252113201,0.52604625282384831,-0.65805619914502234,0.19861573641993249,0.5450289349754166,0.48479129792240316,-0.35666463058566855,0.97274998795940903,-0.3770845807115758,0.67912089804170339,-0.054435836773819329,-0.37138094914420644,-0.96831404403771948,0.81323630852017936,0.47886563567220064,-0.33295198173876328,-0.94781029063877609,-0.0048519019019871495
0.90563206089402148,-0.73732142971149317,-0.12783685348201074,0.27781679139863952,-0.7615326625802239,0.44327150349171385,0.8845299613194374,-0.71327510073682721,0.72426237317603026,-0.97894992685465365,-0.79398327034522675,0.39010574825898858,0.15195913715277565,0.49199388650072928,-0.46210294978334443,-0.28640362422961463,-0.90580352104898298,-0.47654569088070542,0.19416871855632195,-0.77860029925486229,0.29030270075046016,0.086385045472462174,-0.52531139149295969,0.46011214439445719,-0.72596449376299887,0.27831865788428639,0.80782853135867205,0.0022780950508729252,-0.16170008561930022,-0.68414918139302128,-0.30561418489355191,-0.3019736782810547,-0.74401800019085507,-0.35963857923290027,0.78211272958483735,0.051813320364593858,-0.78685619409983709,0.81981428943039769,-0.11106779676449574,0.57128866455277572,-0.23057922752266671,-0.023678169551218979,-0.43492506484686122,-0.41094277150720493,0.61907140730730625,0.86685956827334731,0.53818012996288589,0.59164014681296584,0.23034996140958677,0.64715642936888673,-0.94658833097858075,-0.92252904788345824,-0.85098785689214196,-0.84148677992917165,-0.54765988308885905,0.87463929040340682,-0.38970417509842015,-0.33434123347414935,-0.89972781981860861,0.0090639638335563745,-0.10366094478013767,-0.13305021674036957,-0.67352898225705315,-0.055044436624479019,-0.5979606862706186
-0.98828679289889543,-0.95908221926631154,-0.59125327960943186,-0.25353602366873024,0.8601592799635811,-0.53857316042843528,-0.47355341299026277,-0.34422144447754111,0.60247386514940016,0.13040851405362508,0.30360212292882682,0.62487308081472637,0.31016180719967845,-0.95290032668218194,-0.74060085333241332,-0.22650272071960817,0.85960975715797339,0.42339966485849467,0.917448320700474,0.47559595091061457,-0.32409511859977114,-0.83947927302151326,0.17055434179877649,-0.0046570443624776138,-0.50746701811210648,-0.24671755527796441,-0.76949000723951988,-0.14814281591937534,-0.98185509174564678,0.1469863745363448,-0.49037668845383148,-0.6822554731476308,-0.70858737425263241,-0.88781680726381307,-0.92998038688233897,0.80099680340408708,-0.48691044442212211,-0.82883163288605921,0.021801128859648987,0.74170010992814661,0.98624515986510786,-0.026825623157289074,0.16232711274370495,-0.63657756138123545,-0.26230945269467987,-0.94729840618102656,-0.67512304858216643,0.43110236879381092,0.59308419420696656,0.91057957234006881,-0.88785408000090649,-0.52023689095373948,-0.79068597318482792,-0.15093363627792675,0.17452058421465688,-0.84294559067823194,0.99001847480980809,-0.31660715020356117,-0.41772936803270944,0.69626691192175105,0.65128881249535586,0.58103599552742202,-0.96944513170907809,0.44224446474917906,0.31938142297771255
-0.66902534466232744,0.87537306863847331,0.88721957592305789,-0.58063567088064427,0.157989036256827,0.89297418350304159,0.016356877860606477,0.14683219994841124,0.49425228463117521,-0.22900228869434158,0.10991367277187025,0.50939081150395538,-0.68051881735287267,-0.79274294407582691,-0.96551268776745947,-0.902180469257995,-0.37605879314608065,0.47930813793411764,-0.69903282018259105,-0.35234700285839554,0.63532477662247955,-0.24391757736794131,0.27701832616439348,-0.99205963109330131,-0.88286411703923962,0.44722401954741342,-0.90691447702096861,0.59286576352263132,0.20203853386357051,-0.97340026250704836,-0.86793256479503211,0.54009572441827947,-0.85534106015675704,0.18421826514535081,0.91490331017262527,0.65090694402861426,-0.6257679335499845,0.8787560233096644,0.20777058740840301,-0.25572871306501493,0.8607893866594063,-0.14995312403576164,-0.06017180377396867,-0.16889723940427653,-0.3326750638440219,-0.62496429770940409,0.20390875518265214,-0.6400454882836123,0.37634521226870171,0.82342312524172234,-0.3121300094969372,-0.76820704651729299,-0.16427344334069341,0.34097562859015923,0.85950658857029494,0.82354410137844203,0.58567963099336484,0.53706882084239482,0.18413188068227693,-0.12223292042639308,-0.37228730731314846,-0.61425124396093911,-0.58717577905361407,0.43339041358564884,-0.80165594342592794
-0.64085815049989348,-0.87607662096965955,0.84345504915938663,0.95204588375052857,-0.41087416120587045,-0.18226012106179634,0.047078736922774408,-0.97473732355814557,0.39625435444365803,-0.54457344454599832,-0.92462682390282303,0.068702284815699927,0.73584061651738852,0.94993351231718992,-0.42390806019692517,-0.91128831513904229,0.85618369925150251,-0.069515331915529804,0.44271245406439469,-0.78476009427717552,-0.22061476654632814,0.32530577991332577,0.91977052026569739,-0.52903784164607093,0.54332435438088733,-0.1906608000591283,0.4540308134925361,-0.94103316203596632,-0.92696436743515809,-0.12232233436772259,0.12690673636624586,0.4029884733576875,-0.69186066069966645,-0.75463483783963503,0.65407954765624254,0.51034219902362343,0.94467442946644686,-0.94107592917242255,0.23658397980538562,0.24506882128033114,0.70516130436008384,-0.93969939200571773,-0.94167619248810508,-0.53197576294242255,-0.24656050052834547,0.50862709229430259,-0.41239891527237765,-0.82226239871600471,0.773325637181006,-0.62225073654554275,-0.68697488118472694,0.25889687436268816,0.31473095182601663,0.21666971210584196,-0.30132583940276264,-0.25721939159077395,-0.61577304795284349,-0.54268807171131472,-0.97497926464904594,0.29057700526894992,-0.074745547917180563,0.77485405429414356,-0.46184833344313209,-0.51042252569571356,-0.55682115045568581
0.27284331078871843,-0.12257705542822481,0.91881591402972362,0.66912510934186753,-0.0078322103259971312,-0.95031663273559286,0.17962775692283045,0.6874803671859443,0.052721876326663246,0.073850569632706253,0.88567006961989314,0.70581347122503624,0.25002930779931393,0.24713273500466176,0.37774260633260176,-0.15093184744187824,-0.69693943250653112,-0.69904572467724424,-0.40049175462441566,-0.61786092945366744,0.078753585091942538,-0.19287626027507646,0.76326156644651677,0.50531357978053515,-0.3805252832490888,-0.79739407916041483,-0.49319413130892059,0.1239332398439552,-0.30948108994666024,-0.37119577212920069,-0.82684535714018614,-0.97250310130417772,0.010627341259451199,-0.088360127559401716,-0.094921400605084402,-0.06756845925883298,0.21322006939897378,0.4120460014479298,0.71248966617585618,0.57689791516377686,-0.087700354793073559,0.080511522170664901,-0.34638209301146472,-0.7543688616759997,0.15016676984117538,0.3662381411676654,0.85273286908585155,0.26216266802094684,0.83199302117418994,-0.38050554945904436,0.62376775513823457,0.80231984125994871,-0.30117895904192443,1.0075941056474271,0.85741195136328618,-0.57082138740389399,-0.8994764586002284,-0.40104056305369651,-0.14969901578819575,-0.14778462893088617,0.20326492259891887,-0.66469015736005765,-0.74977400512778203,0.13324837447826934,-0.091893001518598458
-0.7794406181216722,0.9060656132456204,0.2952464829082444,-0.35435960115917342,-0.22490794795531169,0.45934292034307145,-0.59754977066501147,0.5711389129076101,0.72108266076703897,-0.55010868837618343,0.42602379384647304,0.26241509828196097,-0.65016043718626171,0.17303223431693279,0.22074209615558504,-0.50432344216696667,0.4682335656389402,0.94772737288782327,0.88702143178862614,0.96831549744586864,0.51344612399355749,0.66881446815617118,-0.89645775490780044,-0.88537335547115237,0.57502022529960617,-0.50845198851955742,0.16201709533364569,-0.29154616262649607,-0.45227273430319331,-0.46238464272494301,-0.85730436945027277,-0.16444271792843113,-0.24837303027248819,-0.75248111304169629,-0.65317967807514288,0.84639201360879357,0.040326034491669605,-0.28689790412007793,-0.96504406130463083,0.13308480739201181,-0.22244430246218017,0.48824563672648297,-0.62584505726594131,0.3793021905651956,0.47599025252085642,-0.46704996146252015,-0.70386608149923902,0.22452040701514225,-0.35686612492833969,-0.81344548951983242,-0.24484940957971421,-0.093005061188875762,0.27442001010636735,-0.05717183460934859,0.88039739766319269,-0.14895541996009376,-0.85872703399245287,0.79447584612085842,0.18606768592706283,-0.3342356236355038,-0.66560450852011688,0.28452271194469902,-0.47600947976257851,-0.072760941032406351,-0.94337721398804786
-0.28223112108103371,0.78152806280236209,-0.11596611376429011,0.6603336090854327,-0.25613593310338378,-0.8256097224494503,0.7800779311306556,0.47958378902194909,-0.92946469480914951,0.53872179580190216,-0.49314526805442638,-0.74730170839351262,0.29428446549438397,-0.16024064436118279,-0.66584313589389565,0.56436395681576679,-0.23300530969789082,-0.43226590900836909,0.93565773635238159,0.76185175474560529,-0.50741352405557405,0.6028454034413484,0.36911707895903956,0.25267173130528409,-0.48928834483378397,-0.6986498089280414,0.8807809756817081,0.60693030422583261,-0.015048067917696386,-0.18440591309643947,-0.088008605867616191,-0.50235209017464044,0.79094477722983114,0.67810117944485515,0.10540854625080705,-0.50867432540455004,0.59090464623052164,0.15509415262143628,0.84462860963904818,0.94174218496767126,0.67895084492323587,0.20313269141992957,0.3478193647131741,-0.36870984870569046,0.89392246928643182,0.32870436837029099,-0.057370881356308134,-0.15912670574992852,-0.93506767534092106,-0.39879154104116127,-0.04810510587791586,-0.46829580752549566,0.55035620984746891,-0.14552203987686352,0.24744880713463127,-0.79737855325698392,-0.56221691136111807,-0.79222686592705283,0.75332060747146212,-0.85876100802486965,0.92232112794769217,0.76802222328412628,0.84521151580545095,0.52012317384846851,-0.71553837984907109
0.76605535304946237,0.0087229253355759137,0.01132678906498415,-0.18014507076806988,-0.60243959006667047,0.77532577332610741,0.62797334814331396,0.51407771085807608,0.33754268659018105,0.33123123474716176,0.055128864277113193,0.66321036860055294,0.30458659929709148,0.74761620558041297,-0.17152542068569851,0.26163583877523505,-0.45692466080277816,-0.0090461264971746294,-0.16916416747736227,-0.81028464045402271,0.083217679486873058,0.81924265729140544,-0.48733110415784991,0.44522635402647959,0.9724803998510152,-0.426573690655766,-0.28513476897911627,0.54767275260000969,0.05133220112754637,0.72216346298259892,0.2632645334567853,-0.35698767267036075,0.15111861098736132,-0.52943071116230989,-0.88339460779194745,0.95278269591254816,-0.88501801187136331,-0.47293012069228618,0.38759385451121547,-0.26912653660493163,-0.6778264987055842,-0.96032836493204365,-0.17890175136559552,-0.7857783598293393,-0.2368043277886947,0.08345455355150902,0.37042831623797884,-0.48861710100883093,-0.86531630618569744,-0.56490822877407365,-0.25042727417435789,-0.3009302501842645,-0.41243085411422975,0.34450176197585913,-0.43448136254892783,0.73127486168756184,0.92783552863998398,-0.39798547654060246,-0.62556135990075812,0.7108376435658863,0.92015350117267214,0.087731753543958763,0.051635529479656314,-0.89782416988875902,-0.46839304454856745
0.66479955855730344,0.16024181754367642,-0.034267392557411569,-0.57531974166163191,-0.74977912742592334,0.20103841819658116,-0.72893277189619843,-0.049048406040460679,-0.28189261598490362,0.95829167895222223,0.42770856588056494,-0.64811569999584384,0.91240936727527544,0.22579338362869539,0.73656222037266783,-0.34118838377127542,0.61153000262470847,0.11373212939577534,-0.64406682482074196,0.86995682137589159,-0.35751306659418375,0.16195953675291752,-0.84275599019371661,0.4136562534467545,-0.68267182610399824,0.77154234541816114,-0.69696643012633375,0.53520203700802182,-0.16256425161087992,0.66620282625063376,0.85845435769522971,0.054951957980500649,0.16869100026280537,-0.87617070044155032,0.27048597639703847,-0.62944780788675903,-0.91121116037026662,0.67978487936038456,0.51507454518063034,0.43518044908908576,-0.29073439228409687,-0.24735963669786731,1.0000287127029304,-0.66228151180474282,-0.53387894980834782,-0.66118918148120864,0.98579492121061663,-0.84425476205486316,0.24001108457268031,0.70601159206434816,0.3188777199565368,-0.079214189778067642,-0.11578783756016534,0.50579956694288231,0.91907790429326608,0.85892150827225999,0.2287600878677061,-0.56095042810880358,-0.078501929318167435,0.89921709698095187,0.014375403205438501,-0.42442265235675541,-0.28677032889718473,0.52727952819429613,-0.02467555678267885
-0.12297877580776624,-0.12413679916448453,-0.80073931385315145,0.71648412650456517,-0.41215901454953791,-0.23776437640014544,0.77097312348823976,0.81266582097528461,0.30149587262571204,0.12005450587111824,-0.22988877588125037,0.24205556573452899,-0.29129343604136615,-0.4252156314286657,0.73712711075443471,-0.79388960509494599,-0.66028698326688051,-0.072572444298785441,-0.87586918131523916,-0.95732765693157851,-0.90476413369516051,-0.92589053723125048,-0.68550734439391714,-0.12484068147300613,0.43244810469503908,0.94299617221450416,-0.23067136509346445,-0.85360596959982993,-0.32603725508107345,-0.61019409021794002,-0.89346380165673134,0.41597690930412407,-0.93284147250715299,-0.82099867866375642,-0.86155358341667965,-0.90985811938739225,-0.1408044365140074,0.63020793546574183,-0.50209972929126145,0.18333031519667628,0.66039308586056966,-0.63927205227596029,-0.92902446631367008,-0.91934139064819531,0.74036349091006048,-0.17098896462063656,-0.48706307083832723,0.032661647148499277,-0.1869945340310975,0.21657752017760304,-0.23066348331509148,0.69643094094240843,0.90023762511668137,0.27857228935053197,-0.55662627983179169,0.45405538730566058,-0.00046716009673688201,-0.403904628386827,0.95940125513906427,0.94419521742980739,-0.81572795710561019,-0.87921200485331497,0.39008647170524197,0.016531819708691851,0.48217604548403692
-0.31754242220600887,0.19647361589803733,-0.24513892102497473,0.95881102263724738,-0.23543231210599633,-0.2927602210742683,-0.54625180648365079,-0.41305321045226839,0.6425866474050016,-0.78207390665270748,0.74008222094661791,-0.092160965218155144,-0.49638097701044798,-0.80493568399463034,-0.49293866005816234,-0.41452571433605728,-0.6402946063599384,0.041340974567812556,0.81177298578583579,-0.25307761387191169,-0.99364479727272648,-0.1912930171782902,0.78557728248276115,-0.61751903413094655,-0.54650556382804749,0.78033748266785941,0.65286134099311666,0.83639925725860353,-0.70187877730766124,0.17664794108801571,0.95281118579218049,-0.055791435708830453,-0.97701986427680954,-0.74215556762605728,-0.34226314223641274,-0.07192886435728893,-0.047270647201915456,-0.17256098869525457,-0.83962259233350045,-0.49305039436863174,-0.52348615337197113,0.62698617060952666,-0.70449372581212977,-0.6853617745295848,0.12737101290734296,-0.6296538830220102,0.88228522051703884,-0.99617321643491419,-0.86537005418901758,-0.7028865391695045,0.2663040811651502,-0.48209208925443364,-0.39442883926772809,0.27507552322740375,0.20395673216631607,-0.16924138226907492,-0.50986151433206872,-0.45152693011135286,-0.070702214013822734,0.21157620422271456,0.41109258914463925,0.3155948404259602,0.6407327653503132,-0.61425183195929212,0.16212928792640735
0.48717771611746979,-0.31306971791163579,-0.62986422137804676,-0.88032525156259145,-0.14290942009934518,0.12956439867407518,0.79637075255854017,0.41329738999217697,-0.1299035681013089,0.8857058786606844,-0.30711465723458847,-0.47161584645956245,0.92017063084204309,0.72662765133712537,-0.28944960296981787,-0.95325994776094525,-0.39905139975868553,-0.39858404520129948,-0.4952850326984955,-0.3226226382728305,0.17113594610130894,-0.070775516448920633,0.78806918915176749,0.78852132203368641,0.62107720931721122,0.29743517900282723,-0.94659639197742929,-0.65127137636616739,0.62599801777120923,0.2512152729668139,-0.54667472106263848,0.30591563249552955,-0.21764958409950799,0.17855858713930803,0.20944372843257594,0.68714265549995623,0.59927362005235607,-0.40163120913580402,0.12100176946336932,-0.37420044688840542,0.50098211205892396,0.29196572319403091,0.60798611997969498,0.49488395596249218,0.57590563624552216,0.74889135106155014,0.049022480863722163,0.57335280789259091,0.80245191188501153,0.70048001804326976,0.11526976463971818,0.75427368480200474,0.61483097131372111,0.23751250266460966,0.59937986510909436,-0.45787212580113812,0.69628426998622217,-0.79903485621606574,0.052267602491813864,0.33652326214290834,-0.63869397820205032,-0.87436887698488241,0.19253495216919272,0.46861288975416338,-0.61054638521765081
